{"weights":[{"row":23,"column":8,"elements":[-1.8993028001859785,0.43577748083043846,-0.20790215022861958,-0.956478871870786,0.13678937638178469,-0.7603590781800449,0.09070386365056038,0.2666023578494787,1.7430812381207944,-0.08450164645910263,0.6973770993063226,-0.9778029466979206,-0.2541800932958722,-0.6477605644613504,-1.0081486273556948,-0.19976103061344475,-0.6025866754353046,-0.07710316171869636,-0.7145156357437372,0.30078858975321057,-0.5236523626372218,-0.854272959404625,0.508583958260715,0.9577085860073566,-0.3548544301884249,-0.7627929509617388,-0.7588757146149874,0.5237034242600203,1.1943914219737054,-1.0031567700207234,0.979337424156256,0.1772797191515565,0.5125099420547485,-0.9426138196140528,-0.8362480830401182,0.39024752005934718,-0.8645499870181084,0.07658709492534399,0.820013296790421,-1.1102936007082463,0.2140972038032487,0.6663886792957783,-0.04584329295903444,0.5529541447758675,-0.6994115272536874,0.5611274838447571,0.3584891986101866,0.880702038994059,-0.42004825081676247,-0.4087133454158902,-0.943917490541935,0.5227816719561815,0.16410143114626409,-0.2829848728142679,0.6861076122149825,0.9864974422380328,0.22117529017850758,-0.7397897192277014,-0.23207003343850375,0.9489643909037113,-0.10801586136221886,-0.41873594745993616,-0.08928594319149852,0.5551894539676141,0.4472145512700081,-0.7464457377791405,-0.272048756480217,-0.4896386950276792,-0.11222750693559647,-0.392070472240448,-0.28614899795502427,0.09823124902322889,0.4953087270259857,0.051669493317604068,-0.8799481811001897,0.5836503002792597,-0.3447439782321453,-0.4169300185749307,0.025336164981126787,0.524673867970705,0.5818194799358025,0.24075864627957345,0.7823890494182706,0.032926205545663837,-0.23326046112924815,0.1736486338195391,-0.04323755018413067,0.498309850692749,0.05745109170675278,-0.6608505882322788,-1.0579436086118222,1.292758060619235,0.5861357115209103,-1.1719048228114844,1.5353936981409789,0.5005518356338143,-0.7401701863855124,-0.5626378827728331,-0.18309363909065724,-0.0007488063129130751,1.0399659741669894,0.6649923799559474,-0.3716537426225841,0.2541948799043894,-0.24835884757339955,-0.32002704963088038,0.9872320108115673,-0.6194560858421028,0.6788792014122009,0.4841370265930891,-0.09531267359852791,-0.8746298924088478,0.11990487994626165,-0.40847895888146015,0.5392156532034278,-0.8157529830932617,-0.16431072819978,-0.4934668820351362,0.5683973059058189,-0.1467092577368021,0.24498076178133489,0.36905935406684878,0.08058995846658945,-0.1590559994801879,0.29645425640046599,0.051877569407224658,0.35589009523391726,0.9505029604624724,0.5647252611815929,-0.03753184340894222,0.9807838751003146,-0.6436336911283433,-0.3037697859108448,-1.0968181202188135,-0.07994597149081528,0.4469271134585142,0.5399209447205067,-0.1928137820214033,-0.43658929131925108,-0.39849366806447508,0.7858389765024185,-0.865903040394187,0.11398681066930294,0.7152870111167431,-0.014125453308224678,-1.4374471558257938,0.0346287926658988,-0.6030039392062463,0.6113646104931831,-0.5164331197738648,-0.4503996931016445,0.06073368713259697,0.0915671824477613,0.8082504263147712,0.41919403336942198,-0.3531096181832254,0.4674422889947891,0.6727288891561329,0.5256420644000173,-0.13118049781769515,-0.5912386532872915,-0.3239392153918743,0.2947052277158946,-0.7182799456641078,0.6616361318156123,0.7211539093405008,-0.6656917352229357,0.15827415511012078,-0.8282988294959068,-1.2962556201964617,0.36371430949657226,0.28690680861473086,-0.7149302586913109,-0.5525458455085754,-0.6746991220861673,-1.0505779045633972,-0.12114092335104943,-0.17304482404142619,0.04520277678966522,0.8822708140360192,-0.833785617724061,-0.8552660886198282,-0.22017130814492703,1.546327382326126]},{"row":8,"column":4,"elements":[-0.05681934021413326,0.021099358797073365,-0.7365924245677888,0.41233058646321299,-0.5577513333410025,-0.8737946102628484,-0.3330909889191389,-0.08121489128097892,0.6084070217912085,-1.1521451422013343,-0.026215392630547286,0.5820019245147705,-0.7414855696260929,-0.6150655522942543,-0.8247615832369775,-0.255721740424633,-0.13789135590195657,-0.40918346401304009,0.09507922187913209,-0.7960974080488086,-0.402660820633173,-0.7563333418220282,0.19601210486143828,0.17258573044091464,-0.4949146043509245,0.5634901188313961,-1.2839684095233679,-0.1300029754638672,0.3846927161794156,-0.5715341018512845,-0.9642540477216244,-0.3007144847069867]}],"biases":[{"row":1,"column":8,"elements":[0.8305196119472385,0.11844439059495926,-0.5908351056277752,-0.41092685563489797,-0.7351353550329804,0.3004262614995241,0.278947071172297,-0.8871402516961098]},{"row":1,"column":4,"elements":[0.09072481840848923,-0.8021412417292595,-0.9721266580745578,-0.8089156299829483]}],"inputSize":23,"hiddenSize":8,"hiddenLayers":1,"outputSize":4}