{"weights":[{"row":7,"column":8,"elements":[0.7571510105166985,0.12469864790910101,-1.099686482428274,0.6420504241319605,0.7301816298228321,0.9952039445760148,-0.19209484545953615,-0.014670102908673322,-0.17503912159779135,0.45216948295583228,0.7490587383147616,0.2916068850154576,0.9612086420557958,-0.7231463484913085,0.44079537398931825,-0.7489996909210974,0.49864277807535198,0.7228385412518834,-0.07959337487689755,-0.5487705561376604,0.3503760331546708,0.16275310752843098,0.6892822815930646,0.3609115490406438,-0.18988863591751937,-0.741776236549277,-1.0406263126894305,-1.474316120147705,0.09241379052400589,-0.355029568792558,0.6351517103696935,-0.4137928914048139,-0.6340995439455899,0.24677716231015268,0.5398710337928918,-0.04117982943709819,0.8018624313244454,-0.5017931617695703,0.2293340102210184,-0.15804941952228547,-0.774560639394172,0.2100025535440544,-1.0331390858496273,-0.3856733206762725,-1.9473217778796928,-0.4519977782337956,-0.9834622748554409,-0.2849804155072242,-0.059405252143947557,0.47500310775925227,-0.3031861209347448,-0.6970013652267801,-0.9670088535676826,-0.15522780426672257,-0.45890268685994475,0.3360386788845062]},{"row":8,"column":4,"elements":[0.26931430955716609,-0.800846592553766,-0.8537135395649962,0.7057373194279943,0.810075414772057,0.16532346127295395,0.9799703060976515,-0.4169802328875809,-0.2923042361400654,-0.2810541108403086,0.08539294294265165,-0.441375425759837,1.0976772299345453,0.6393560777271752,-0.3420108228518004,0.28970218773275838,-0.4860186858288613,1.0679875070735703,-1.005844196478871,0.7264180947294916,-0.7538444255074523,0.5241215899847749,0.7541695094500258,-1.4429508668474008,-1.1309067522881762,0.8242040853897628,-0.2394098522373037,0.16301189297579378,-0.3996951742889703,-1.0084225712422153,0.44234283591866788,-1.11742987961129]}],"biases":[{"row":1,"column":8,"elements":[-0.5398302749369961,-1.014457645121123,-0.5724788262229272,1.062371044448966,-0.38829226183827539,-0.9032679988056822,0.8513490160421853,-0.07848402608594352]},{"row":1,"column":4,"elements":[0.17114103423105266,0.9050304815980184,-0.20789846449899897,-0.19722969192201446]}],"inputSize":7,"hiddenSize":8,"hiddenLayers":1,"outputSize":4}