{"weights":[{"row":7,"column":8,"elements":[-0.11084139347076416,0.2309393650496956,0.18000148236751557,0.12047111988067627,0.4849676787853241,-0.25356367821604666,0.030266880989074708,0.7631042003631592,0.506591796875,0.7361478572881817,-0.18214404582977296,0.08289468288421631,0.14836657047271729,-0.30165064334869387,-0.6723814010620117,-0.27879273891448977,0.21613895893096925,-0.6585850715637207,-0.14453303813934327,-0.860205888748169,0.9609968662261963,-0.7743551731109619,0.9659745693206787,0.9108480501711789,-0.397771954536438,-0.07231628894805908,0.5274810791015625,-0.028134465217590333,-0.555382251739502,0.8632218837738037,0.19498158732244165,0.941244869359771,-0.6466660499572754,-0.21031679213047028,-0.561851978302002,0.7293727519176674,-0.24082095249912428,0.5852477550506592,0.544409955996084,0.285370142540331,-0.49023139476776125,-0.67167067527771,0.9449341297149658,0.16661107540130616,-0.6357529163360596,-0.04576766490936279,0.10474812984466553,0.5247609615325928,-0.10576212406158447,0.3966387915524905,0.6088237762451172,0.5358638763427734,-0.03707964787482121,0.4522804496007282,0.3874072730541229,0.45432278513908389]},{"row":8,"column":4,"elements":[-0.09939970821142197,0.8014662896494471,0.07533586025238037,-0.08199620858366874,0.06239641137178609,-0.5137224197387695,-0.1211130560456013,0.6526422500610352,0.9286661148071289,0.3421308696269989,1.033937931060791,-0.9952112928050809,-0.9403090476989746,-0.003845789035661795,0.010019898414611817,-0.3448292016983032,0.647634744644165,-0.8522467613220215,0.5217978954315186,-0.09236389695048075,-0.7955389022827148,-0.8748750686645508,-0.38351059411703405,0.739753246307373,-0.9085907936096191,0.3630828559398651,-0.17237436771392823,-0.7050559520721436,0.23877131938934327,-0.16078126430511475,-0.6052939891815186,-0.6234717581949933]}],"biases":[{"row":1,"column":8,"elements":[-0.9788628597747575,0.37348029017448428,-0.05458652973175049,0.5453952505544866,-0.1915069818496704,-0.04420720725957539,-0.9769020080566406,0.3369299828611432]},{"row":1,"column":4,"elements":[0.44680306179705556,0.344844788312912,-0.12191569805145264,-0.6921072006225586]}],"inputSize":7,"hiddenSize":8,"hiddenLayers":1,"outputSize":4}