{"weights":[{"row":7,"column":8,"elements":[-0.6837093830108643,-0.17027604579925538,-0.6828711032867432,-0.5859873294830322,0.7480485439300537,-0.46769607067108157,0.1114891767501831,0.395123690366745,0.8500325679779053,0.3890998065471649,-0.8432753086090088,-0.7361574172973633,0.5974545478820801,0.050060153007507327,-0.41161906719207766,-0.37196218967437746,-0.482779860496521,-0.43493974208831789,0.011062979698181153,-0.998298168182373,0.3357195556163788,0.3314923942089081,0.7805583477020264,-0.9493422508239746,-0.6479787826538086,-0.2416597604751587,0.10043966770172119,-0.1964181661605835,-0.7674217224121094,-0.6450722217559815,0.06622731685638428,0.2752995193004608,0.897296667098999,0.18656790256500245,-0.6421012878417969,-0.402091383934021,0.3413207232952118,0.7847228050231934,-0.33763229846954348,0.20668017864227296,0.09223830699920654,-0.0898357629776001,0.14721834659576417,0.8705039024353027,0.8108923435211182,-0.8812770843505859,-0.9847171306610107,-0.005681633949279785,0.019864201545715333,0.05921041965484619,0.15397322177886964,-0.11605465412139893,0.44604846835136416,-0.6080470085144043,0.4116933047771454,0.9159336090087891]},{"row":8,"column":4,"elements":[0.5672717094421387,-0.8207547664642334,-0.9083290100097656,-0.540499210357666,0.17706525325775147,0.5702340602874756,-0.9246025085449219,-0.9561212062835693,0.17388784885406495,0.6783974170684815,0.17509210109710694,0.6379063129425049,-0.625910758972168,-0.3379918336868286,0.8781998157501221,0.9792413711547852,0.48368045687675478,0.31719300150871279,0.7939050197601318,0.7469596862792969,-0.6843187808990479,-0.47905027866363528,0.5959644317626953,0.555753231048584,-0.7124335765838623,0.5433681011199951,-0.08558785915374756,0.8874566555023193,-0.2202538251876831,0.658623218536377,-0.27514541149139407,0.46253129839897158]}],"biases":[{"row":1,"column":8,"elements":[0.6238422393798828,-0.7186324596405029,-0.2141960859298706,-0.8305182456970215,-0.5386815071105957,-0.954735279083252,0.0653609037399292,-0.008181929588317871]},{"row":1,"column":4,"elements":[-0.9039168357849121,0.07095491886138916,-0.8063850402832031,0.6792521476745606]}],"inputSize":7,"hiddenSize":8,"hiddenLayers":1,"outputSize":4}