{"weights":[{"row":27,"column":8,"elements":[-0.7759770154953003,-0.759266372770071,-0.7916403487324715,0.5918088033795357,0.6723424792289734,1.0012121200561524,0.38314051553606989,0.9902611635625362,0.9211603868752718,0.5685858726501465,0.4646422117948532,0.5507661066949368,-0.5610756911337376,-0.49898201785981657,-0.7493830733001232,-0.3194626569747925,0.8213372230529785,0.4049413911998272,0.24316227436065675,0.46401192247867586,0.3380518686026335,0.24124133586883546,0.15646898746490479,-0.07405173778533936,-0.18396302312612534,-0.39401718229055407,-0.8976048231124878,-0.8071349821984768,-0.22187461331486703,0.6682784259319305,-0.34832295030355456,0.2797238640487194,0.12662266834377079,0.5873627662658691,-0.30108320713043215,-0.2951012868434191,-0.0016390085220336915,-0.020563263446092607,-0.19802052155137063,-0.4809142127633095,0.6808189377188683,-0.8524482250213623,-0.03828289359807968,-0.9938156604766846,0.801275473088026,-0.8184783458709717,0.6461282074451447,-0.2670561522245407,0.5939809903502464,-0.50479054171592,-0.7563036680221558,0.8222749903798103,0.48316046595573428,0.5154847428202629,0.7649848870933056,-0.30793746234849098,1.0512936040759087,-0.7974004745483398,-0.4765681028366089,-0.3030466139316559,-0.31543051823973658,-0.12956249713897706,-0.8029365129768848,-0.5001435801386833,0.6644710949622095,0.07622063462622464,-0.3415909893810749,-0.46353194303810599,-0.6803622245788574,0.48106643557548525,-0.7018042264971882,-0.7972502615302801,-0.5558144319802523,-1.091887409798801,-0.4635127345100045,0.9064567983150482,0.386246204841882,-1.0497426250949503,-0.3848532438278198,-0.7478201389312744,-0.4024651199579239,-0.7868056818842888,0.828068446367979,-0.4736628998070955,1.0199244730174542,0.5594215393066406,0.767430018633604,-0.9947284888476133,1.0207155235111714,-0.5722424983978272,0.7156528417835943,0.9857628345489502,0.6746376883238554,0.9275509528815746,0.7980787754058838,0.21967827528715135,0.4742540046572685,-0.6429728642106056,-0.8684052936732769,-0.5766934482380748,-0.3749634027481079,-0.8941708505153656,0.7302796840667725,0.7620052378624678,-0.08608543872833252,0.46222037822008135,-0.6652895212173462,1.2415680065751076,0.6859398707747459,-0.0960468053817749,0.5142321926541627,-0.787030874285847,-0.4867218313738704,0.6552777290344238,-0.5369634851813316,-0.5220936387777329,-0.00823359563946724,-0.3267582654953003,0.48429983854293826,-0.2357696294784546,-0.819052666425705,-0.023136019706726075,-0.7202312964946032,-0.7218374405056238,0.20622456073760987,-0.9574122428894043,-0.14183184690773488,0.10738024115562439,-0.8265564693138003,0.8158076889812946,-0.7478263061493635,0.6822376605123282,-0.9538540237117559,0.7753159715794027,-0.4038630276918411,0.5664344169199467,-0.2698854934424162,-0.8861153870820999,-0.8607645481824875,-0.4001353979110718,-0.4198607876896858,0.6646014619618654,0.7668772861361504,0.12515497207641602,0.15915429592132569,-0.7348091453313828,0.4214789569377899,0.36002132296562197,0.7139115333557129,-0.7198466472327709,0.1019832082092762,0.6328381979838014,0.9059240818023682,-0.8223834037780762,-1.003105215728283,0.04578905180096626,-0.35718674026429655,0.9655022621154785,0.5235691564157605,0.7610544823110104,-0.27881162613630297,-0.11427221447229386,-0.830160949844867,-0.0976797491312027,-0.4490899136289954,-0.06123744323849678,0.06547725200653076,-0.09637510776519776,0.7702560792677105,0.876711368560791,0.6584318671375513,-0.3320995569229126,-0.23388205468654633,-0.6505874909926206,0.3812229335308075,-0.30883705615997317,-0.05765736103057861,0.42645506374537947,-0.9170489311218262,-0.22124222666025163,-0.6970367031171918,-0.0823979601264,0.3913413882255554,0.46844768431037667,-0.36153378954622897,-0.7289932370185852,-0.604759693145752,-0.44731104373931887,-0.5154084488749504,0.7776904944330454,-0.28301672730594876,0.9086203575134277,0.8681282997131348,0.44601714611053469,0.06273054331541062,-0.7623025476932526,-0.2912502810359001,-0.4673389084637165,-0.908573230728507,-0.06092369556427002,0.8584418296813965,-0.437810979783535,-0.6072492599487305,-0.6826777458190918,0.1366634452715516,-0.13088548183441163,0.07978951930999756,-0.05664346460253,-0.5005476474761963,0.46801177272573116,-0.5401345146819949,-0.9237721329554915,0.8163598775863648,0.43036457896232607,0.7235041614621878,-0.5674998760223389]},{"row":8,"column":3,"elements":[0.3953103721141815,-0.07721270248293877,-0.8844371745362878,0.3603234402835369,0.2928580488078296,1.6989355087280274,0.584464430809021,-0.27806603349745276,-0.354888753965497,0.10359158739447594,-0.6127069890499115,0.4012577384710312,-0.5379683971405029,0.3659475054591894,0.5973577741533518,0.3617538958787918,0.7037689685821533,-0.6999430656433106,-0.8720536231994629,-0.5495629012584686,-0.6553450133651495,0.6009466610848904,0.3068462770897895,-0.1395060271024704]}],"biases":[{"row":1,"column":8,"elements":[0.4527504746802151,-0.9642016887664795,0.8886606693267822,-0.2929401062428951,0.4818750470876694,0.3881536666303873,-0.9099128190428019,-0.6474803760647774]},{"row":1,"column":3,"elements":[0.8816340267658234,0.1372978197177872,0.49738168716430666]}],"inputSize":27,"hiddenSize":8,"hiddenLayers":1,"outputSize":3}