{"weights":[{"row":7,"column":8,"elements":[0.6714073752741436,0.6402245802402042,-0.7253267912356036,-0.2456721067428589,-0.3233751058578491,-0.2990829552420351,-0.03265035152435303,0.7219035088720451,-0.7747218608856201,0.5096809980964139,0.6139118115019358,-0.7169654854402534,0.30448544921251699,0.34918800747743719,0.8027412808899683,-0.597647331922122,-0.08903495967388153,0.2505252725117657,-1.6509991566089327,0.611735276696856,0.250407382949958,-0.6879012563757421,0.15414845943450929,0.6505814124901335,0.006435489097093239,0.623126745223999,-0.3878625057920426,-0.7979732490576561,0.03551494462183591,-0.3937279919468475,0.6132519245147705,0.11945617198944092,-0.13615906238555909,-0.4320969150406935,-0.6700801849365234,0.3280897697493472,-1.1164557089519037,-0.0034962192559575557,-0.09366619102471674,0.0267236011338845,0.5186433992000143,0.7710241626809893,0.8185408115386963,-0.9748101752998553,0.6871312799264198,-0.9789136134313079,-0.18086534548567813,0.14468072844295438,0.6242379287372302,0.4648441144312514,-0.4198406934738159,-0.39437724754289507,0.3270915966597059,0.42273933468936067,0.7360568013971323,0.4525406395723408]},{"row":8,"column":4,"elements":[0.9877384261750066,-0.44296696481947697,0.21350109577178956,-0.316303113676236,-0.2447667477455071,0.5784545780520416,1.0215306532557094,0.42929551005363467,-0.3604136193479093,0.6721146048478701,0.06023591042921694,0.13219925391454624,0.8279369962094147,0.5138152134333325,0.9446521072009189,-0.12583516538143159,0.7440756087325084,0.7910912161256789,0.0835895062443548,-0.9819301727581138,-0.8562550136438581,-0.8495890950809368,-0.11233509653835228,0.4477861656869422,-0.2789684534072876,0.6091570658683254,0.12222644686698914,-0.584235429763794,0.640032033867854,-0.2798391589792537,-0.5317679997469398,-0.6424529978896061]}],"biases":[{"row":1,"column":8,"elements":[0.489402741056546,-0.0945073465075783,0.30718299746513369,-1.6155656625734097,0.36072108149528506,0.3840994350084266,-0.1866768679987345,0.6290779113769531]},{"row":1,"column":4,"elements":[-0.5511510372161865,0.865123987197876,-0.971454940459199,0.6371104717254639]}],"inputSize":7,"hiddenSize":8,"hiddenLayers":1,"outputSize":4}