{"weights":[{"row":23,"column":8,"elements":[-0.960452500730753,-0.2046772101894021,-0.7391675468534231,0.7495190497720614,0.42200423777103426,-0.5109437466599047,0.29353653301950546,-0.2212042398750782,-0.26476266980171206,0.6117398785427213,-0.866182099096477,0.18672215938568116,0.4358938583172858,-0.07264011166989804,0.8307550963945687,-0.6975195500999689,-0.29182793758809569,0.2668730691075325,0.6994455479944008,0.2565154293552041,0.9060519561171532,-0.950243272818625,-0.6172487664734945,-0.9057148918509483,-0.6320397704839706,0.3132080156356096,0.7133653052151203,0.7525365352630615,-0.12000694870948792,-0.7894771341234446,0.6309387730434537,0.8540931129828095,-0.8943896293640137,-0.9201913252472878,-0.048937453888356689,-0.30470806546509268,-0.7400193214416504,-0.46468471828848126,-0.9980962201952934,0.9790078029036522,0.3571335971355438,-0.5461200408171862,-0.3265827149152756,-0.01990138180553913,0.6583316917531192,-0.6412536214374995,-0.14709441363811494,-0.06841829349286854,-0.36861684219911697,-0.5706340204924345,0.14703312329947949,-0.8931673169136047,0.7089590360410512,0.5333110735518858,-1.316771388053894,-0.4388603800907731,-0.580957340542227,-0.01911122165620327,-0.06121695414185524,-0.5155730489641428,-0.8117222124710679,-0.2240251055918634,0.2283653523772955,0.049575974233448508,-0.8568049077875912,-0.34468888118863108,-0.6766528990119696,-0.903629356995225,0.3276213756762445,-0.8542739599943161,0.1883867383003235,-0.12558745592832566,-0.3419885542243719,-0.4308082815259695,-1.9609182048588992,0.11475464329123497,1.0824916623532773,-0.8847354473546147,0.7183553813956678,0.18354593962430955,0.903982313349843,-0.5533819943666458,-0.21265494561521337,-1.27850341796875,-0.5785830803215504,0.8739966652356088,-1.3651933670043946,-0.8499718960374594,-0.486257940530777,-0.41336384881287815,0.7492159809917212,-0.27600441343383866,1.053067110478878,0.7219183631241322,-0.021271677687764169,-0.448163035325706,-0.2132207490503788,0.6464791623875499,-0.3391851270571351,0.48412587121129038,0.006920208223164082,-0.5623429033439606,-0.9304885966703296,-0.4811426689848304,0.6512693394906819,0.09357704222202301,1.27005997300148,0.46115867979824545,-0.28890479484107348,0.29695611633360388,-0.5364752127788961,-0.5613826783373952,-0.43420261703431609,-0.7852032417431474,-0.1015580021776259,-0.97121661901474,0.9354207431897521,0.8286638911813498,1.0382282501086593,-1.0020231157541276,0.8604871481657028,-0.12894988059997559,0.4662484899163246,-1.12662916444242,-0.5060291402041912,0.4267333410680294,-1.0373593177646399,0.2171613574028015,0.9322418002411723,-0.97232860699296,0.9924746118485928,-0.49008869752287867,-0.9192530792206526,-0.9062508270144463,-1.2580797169357539,-0.7377859812695533,-0.6908963322639465,2.3135211281478407,0.07300055038649589,-0.8192254081368446,-0.87531094904989,-0.12985577434301377,-0.4117701969225891,0.6774781197309494,0.5677885487675667,-0.3265252895653248,-0.0620615289080888,-0.5688181646110024,-0.8655726341530681,0.3177013099193573,-0.7914987746626139,0.0803196593769826,-0.6667821612209082,0.8577225059270859,-1.3657629182562233,-0.7000843631103635,-0.9741603704169393,0.47016946831718089,-0.20208531990647317,-0.8143635503947735,0.6968993144109845,0.11879419907927513,-1.463901543058455,0.1352488602278754,-0.3394047971814871,-0.18301931396126748,-0.7920577963814139,-0.38895878195762637,0.9468481256626546,0.3622550121508539,0.2321741017512977,0.12445719912648201,0.7334746429696679,0.10095097869634628,0.17957250960171224,-0.08313529752194882,0.2629704789724201,0.5549035482108593,-0.49605357833206656,-2.3030085638165476,-0.7441495424136519,-0.4258287474513054,-0.13435108959674836,-0.47364694252610209]},{"row":8,"column":4,"elements":[-0.05340160056948662,-0.3910806532949209,0.3810311257839203,-0.38913337886333468,0.5678393319249153,-0.560923371464014,0.46695442125201228,-0.12601931020617486,-0.5803013611584902,0.04527343506924808,0.4916526786983013,0.7125841379165649,-0.1438339501619339,-0.9689438380300999,-0.863363791257143,0.19294990820344538,0.7968849539756775,0.5087057128548622,-0.9602415282279253,0.9719275161623955,-0.7435252512805164,-0.8121216760482639,0.8210474327206612,0.07050780160352588,0.5041836313903332,0.7869647741317749,-0.25806497782468798,-0.33657562732696535,0.4435644936747849,-1.3440200509503484,0.3004342317581177,-0.27984854578971865]}],"biases":[{"row":1,"column":8,"elements":[-0.5060404539108276,-0.2756049409508705,0.6049101632088423,-0.3805795619264245,0.6555158467963338,0.17556672915816308,0.2042945921421051,0.8373589152470231]},{"row":1,"column":4,"elements":[0.5947596589103341,0.8008777499198914,-0.5430089104920626,-0.8122928570955992]}],"inputSize":23,"hiddenSize":8,"hiddenLayers":1,"outputSize":4}