{"weights":[{"row":17,"column":16,"elements":[0.06039783451706171,-0.36483098939061167,-0.1529232234461233,-0.12836605682969094,0.5060136383399367,-0.6736504193395376,0.8172758934088051,-0.5127012908924371,0.35504905320703986,-0.4694188479334116,-0.514101929962635,0.06306576170027256,0.0029255691915750505,0.05485750432126224,-0.5145798670127988,-0.056238939985632899,-0.3553241156041622,-0.05620664171874523,0.36552174761891367,0.9485749062150717,-1.5434678792953492,-0.21216128394007684,-0.8532402720302343,-0.12610770761966706,0.29424141626805069,-0.25806958600878718,0.2921547954902053,0.31546981632709505,0.019251962890848519,0.21052396669983865,-0.9851321056485176,0.017827097326517106,-0.35348770022392275,-0.04953086673049256,-0.48837949708104136,-0.205866192933172,-0.20262213423848153,0.08870711922645569,0.7959286756813526,-0.17939822981134058,0.8087806105613709,0.276458203792572,-3.420098466798663,0.12525621615350247,-0.16245943773537875,-0.8693212764337659,0.002411961555480957,-0.01638709381222725,0.8029214143753052,-0.6850748751312494,-1.0734729636460543,0.20382729545235635,-0.03045923076570034,-0.3863733932375908,-0.9844510825350881,-0.9416459794156253,0.24215102568268777,-0.11750776879489422,0.3098232231568545,-0.7658583680167794,0.940861165523529,-1.8232489479705692,-0.28388745698612186,-0.8164515547687188,-0.10295566776767373,-0.9022274753078818,-0.5188004386145622,-0.5532989948987961,1.1325777836609632,0.5250072618946433,-0.6261628243664745,-0.3893083008006215,0.5221749257761985,0.41900825314223769,-0.11491049733012915,-0.3360593840479851,0.009654284920543433,-0.6439960687421262,-0.8176882222760469,-0.07201587874442339,-0.22767925495281816,-0.38480576407164338,0.202169481664896,0.9498283974826336,0.5244288593530655,0.9676641137339175,-0.18293334171175958,0.9165574815124273,0.609573332592845,-0.5958929527550936,-0.7548854476772249,-0.14541732519865037,0.38525048177689316,0.1035306048579514,-0.997384178917855,0.04172391211614013,0.0795208029448986,-0.7266455134376884,0.19766315761808074,-0.06151825189590454,-0.013408876955509186,0.5133397225290537,0.567022766917944,-0.5573255168274045,-0.9413013458251953,-0.5564126670360565,0.5821139216423035,-0.32749103754758837,-0.7296797505405266,-0.6600507963448763,-0.8769160099327564,-0.11014774162322283,0.4291914775967598,0.41724039427936079,0.266972191631794,-0.9724055730039254,1.066232243552804,0.4356864304281771,-0.06573193753138185,-0.5604705987498164,-0.47813380835577848,-0.7379512251354754,-0.526567536406219,1.0201559849083424,0.26957650016993286,0.07463579904288054,0.057002940913662317,-0.5885960975429043,-0.2946429825387895,0.8606208804994822,-0.10477585904300213,0.55242576636374,0.04342158883810043,0.6069197687320411,0.025973288342356683,0.8133217357099056,-0.09935934282839298,1.1967114271828905,0.3901977017521858,-0.2625771537423134,1.2497462391620502,-0.8770886063575745,0.5233200676739216,-0.9315025866962969,0.4467611201107502,0.12469987571239472,0.058214915450662377,-0.03537600114941597,0.26072498597204687,1.0558373322710395,-0.8661010265350342,0.3271239660680294,0.6173234665766358,0.9179773479700089,0.8777956226840615,0.17219308018684388,0.3558850418776274,0.41185136139392855,-0.5532791018486023,0.08037607744336128,-0.49887245893478396,0.34942493215203287,-0.18007013574242593,0.4226677604019642,0.41716044768691065,-0.7413984686136246,0.9300918132066727,-0.78298483742401,-0.7471653185784817,0.8320489525794983,-1.7083493117243052,0.6676837727427483,0.07913472643122077,-0.098377775400877,0.5610885415226221,-0.43733332958072426,2.0666090436279775,0.4781932234764099,0.8385512512177229,1.4975112760439516,-0.10538234723935602,0.08093464374542237,0.9795709922909737,-0.667789725586772,-0.31897156685590746,0.6891325716860592,0.12981384620070458,-0.5441532486001961,-0.38510714494623246,-0.9222398204728961,0.15603795368224383,1.1851619444787503,0.2474315420840867,0.40635780710726979,1.048575820401311,0.5601909682154656,0.728700197301805,-0.29678538627922537,1.0257064271718264,0.32713194377720358,0.15155466145370156,-0.41162752360105517,-0.03268207609653473,0.90820736810565,-0.7922027297317982,-0.9541036058217287,0.25108854100108149,-0.22051381785422564,0.007680967450141907,0.08328176103532314,1.979395077098161,0.6616262141615152,-1.29055748693645,0.7216224037110806,-0.5957756405696273,-0.25209097377955916,-0.2514626579359174,2.3259315183386208,0.44368109153583648,-0.6120214648544788,0.6400570832192898,-0.6938285385258496,0.27047610841691496,0.738521084189415,0.7022709790617228,-0.6990988358884351,-0.03483532043173909,-0.950332198292017,0.6140417100396007,0.7376298196613789,-0.1471167951822281,0.027656089514493943,0.2822391022928059,-0.5635883256327361,0.5938228345476091,0.16827426105737687,-0.8906987709924579,-0.6738139018416405,-0.41550386557355525,-0.8720023930072784,0.699715793132782,0.3444126546382904,-0.7451959028840065,0.5626578982919455,0.009416002780199051,-0.09663169318810106,0.39607711136341097,-0.6691555907018483,-0.3510614703409374,-0.6100113464635797,0.16036747582256795,-0.04065468069165945,-0.05287765897810459,-0.7625295664183796,-0.5043525109067559,-0.9102811254560947,-0.8552373286802322,-0.4283416038379073,0.11195973493158817,-1.1785885989665986,0.9590644878335297,1.1533649191260338,-1.1485884189605713,-1.1968651823699475,-0.9460426550358534,0.2684987086104229,-0.42652538418769839,0.5319769382476807,2.0923354625701906,0.8544046021997929,1.189302315528039,0.8069802671670914]},{"row":16,"column":16,"elements":[-0.21785831358283759,0.5288952048867941,0.3263393007218838,-1.0060010711895303,0.9321592282503843,-0.018841715529561044,0.8003673953935504,-1.1165785938501359,-1.5106848031282426,0.09453674778342247,-0.0016330350190401078,-0.46671758592128756,-0.41623473912477496,-0.2599164340645075,-0.5698005962185562,-1.3964567184448243,-0.673883093520999,0.2733906200155616,-0.3976856432855129,-0.04073086380958557,-0.07028454728424549,0.23917391523718835,-0.2671334689948708,0.552688479423523,0.5191587437875569,1.8585833236575127,-0.6277488432824612,0.028933085966855289,-0.6869941297918558,-0.09450422786176205,-0.922958857845515,-0.25133808807004245,-1.2565949046984316,0.1627388894557953,-0.5053170169121586,0.01181615877430886,0.7814411260187626,-0.3147144243121147,0.5457136742770672,-0.7270516536082141,0.6850154064595699,-0.3507175464183092,-0.8555528093129396,-0.9826968116685748,-0.21154629066586495,-1.3279234617948533,-0.014829806983470917,0.9927224833518267,0.7812941670417786,0.7586487424559891,-0.8300599493086338,-0.874775574542582,-0.6641474887728691,0.25597805832512679,0.5880518034100533,-0.5863994900137186,-0.6496295508695766,-0.47081024944782259,0.04405279457569122,0.7091503906995058,-1.1269638426601887,0.12059670686721802,-0.17968600988388062,0.9362630886025727,-0.21110256761312486,-0.5284075457602739,-0.33346474077552559,0.5779663324356079,0.6959667913615704,0.3463621363043785,0.2137271910905838,-1.001097621396184,-1.156156544573605,0.30308185424655678,0.14835912734270097,-0.7974721314385533,0.7927318052388728,0.7253720089793205,0.9805461335927248,0.3000014815479517,0.12144765257835388,0.03515392728149891,-1.8249360471963883,-0.46077131567290055,0.7860550545156002,0.6713384850881994,0.33751652389764788,-0.17053507518721745,0.943304359447211,-0.8727934481576085,0.7657637028023601,0.10276139434427023,-1.0775075207930059,1.0217206478118897,0.6419232990592718,-0.9702618792653084,0.05140613182447851,1.0085539198480547,0.10307880584150553,-1.1413381099700928,-0.657016159966588,0.7386508183553815,0.13191087543964387,0.39894175285007807,0.4467617869377136,-0.1819572551175952,0.1265050219371915,1.0139810228720308,-1.0694392285076902,-0.29255674965679648,-0.38310496881604197,-0.31273315474390986,-1.074625762179494,-0.5427993009798229,0.980997834354639,0.6742226597853005,-0.3411819767206907,0.1941790897399187,-0.7782276775687933,-0.523164302110672,-0.97176793217659,-0.014562221243977547,-0.9560277443379164,-0.054359983652830127,0.8000214784406126,-0.7285813875496388,0.3232181698549539,0.9319608025252819,0.4151618042960763,0.3734010420739651,0.5021320134401321,0.08356514107435942,-0.918290777830407,1.2846684488467873,1.0829439908266068,-0.11936502903699875,0.47028223040979358,-0.5801491849124432,0.39960710529703649,0.26294437563046815,-0.16089375875890256,-0.7826463421806693,0.8168940395116806,-1.7721612975001336,-0.7113414057530463,-0.3511115303263068,0.6934196692891419,-0.6668727099895477,0.8217171658761799,0.7806958300061524,0.4961804202757776,-0.07156903762370348,-1.060275608440861,0.1949412226676941,-0.4083119761198759,0.39442197885364296,-1.745433280710131,-0.0547509640455246,0.02669492457062006,-0.46352620981633665,-0.3756738696247339,0.3574981642886996,-0.8220202922821045,0.6696667772484943,-0.6878550741821528,-0.19463396357605235,0.3238049163483083,0.28181210858747365,0.06913106143474579,-0.8715769164264202,-0.07352987490594387,0.2539209323003888,-0.8331884182989597,0.8631923268549144,0.13134773075580598,-0.8452513515949249,0.8157082577235997,0.08657556783873588,0.5648292675614357,0.5256640345323831,0.1769659639103338,-0.6404285505414009,0.5078480411320925,0.11153412889689207,-0.5786829628050327,0.8185833524912596,0.8700500428676605,-1.1871835589408875,-0.8554740995168686,-0.41521902196109297,-0.9159338176250458,0.775543708819896,-0.6043531373143196,-0.18379447422921658,1.1305664349347354,-0.28133996576070788,0.6041501741856337,0.563236142275855,0.1002297718077898,0.12080125510692597,-2.3202514946460726,0.8377486171666533,-1.0918660517781973,0.8006914099678397,-0.321975976228714,0.9787578149698675,-0.6715266294777393,0.7588171144016087,-0.7096657492220402,0.03603225573897362,0.39221331663429739,-0.7519869320094585,0.9848419908666983,0.8726746840402484,-0.8616970758885145,0.5025185942649841,2.662461131811142,0.3654408557340503,-1.025064091780223,0.8209988810122013,-0.8443265286041424,-0.6553089267108589,1.1436141729354859,-0.4025990900117904,0.4643343463540077,0.618836444336921,-0.804817371070385,-0.1391549866675632,0.24941293522715569,0.26515229418873789,0.1699747103266418,-0.13369117211550475,0.3400982916355133,0.034641750156879428,0.7526318938471377,-0.8422172740101814,-0.6916429456323385,0.9182390756905079,0.3233229541219771,-0.4565533399581909,-0.6948000732809305,0.11882969737052918,0.6076625986024737,-0.7512094671837986,-0.9421622157096863,0.17029380425810815,-0.2724248878657818,-0.20635887887328864,-0.43623204715549948,0.12395485932938755,-1.1919610276818276,-0.5037794215604663,0.2271619699895382,-0.646861869841814,0.3523210249841213,0.9938596851425245]},{"row":16,"column":4,"elements":[0.1936061903834343,0.456300379242748,-0.6145567013882101,0.66457274928689,0.512641922570765,0.7118893098086119,0.3059178243856877,-0.9500110447406769,0.15905521577224136,1.5448488295078278,0.1740100011229515,-0.2222633808851242,-0.5888103377074003,-0.3547649411484599,-2.10153691098094,-0.42196367122232916,0.8830595763865858,-0.5147720680106431,0.30895924381911757,0.5356027940288186,0.07348408008692786,0.368474081158638,-0.8269959685858339,0.28073830099310728,0.6832112856209278,0.08273784536868334,-0.9182446338236332,0.40495838155038657,0.6947618164122105,1.5047515965998173,0.4468418480246328,-1.3882912397384644,-0.196130963973701,0.5775589141994715,-1.0348748229444028,-0.8078460940159857,0.8403090946376324,0.6144401743076742,0.5218766331672669,0.45608222857117655,-1.6154903820715845,0.26970510045066478,0.013544008135795594,-0.9109285484300926,-0.7401344384998083,-0.08202043548226357,-1.421504082158208,-0.5382820963859558,-0.7718438897281885,0.639173814561218,-0.7459984328597784,-0.11022890731692314,-0.8672436885535717,-0.32070063007995489,-0.37703102827072146,0.6809384813532233,-0.46767095365794378,-0.16433348739519716,-0.4733317047357559,-0.3897888298743055,-0.36091257631778719,0.4598182439804077,-0.41444521117955449,-0.17069822922348977]}],"biases":[{"row":1,"column":16,"elements":[-0.8616723045706749,-0.7949319225735962,0.6678780801594257,-0.4520786464563571,0.06191215058788657,-0.5255816532298923,0.6877654064446688,-0.2935208547860384,0.14526809379458428,0.4781536018708721,0.16766606643795968,0.7739822845906019,-0.7709994437173009,0.4772604964673519,0.5468154288828373,0.6528027001768351]},{"row":1,"column":16,"elements":[-0.29019516007974746,-0.5744390715844929,0.6482295878231525,0.659844706649892,0.820388465654105,0.30908348714001479,-0.5587205905467272,0.8924617171287537,0.7912741359323263,0.32169655128382149,-0.7997469811234623,-0.3207101672887802,0.4473999966867268,0.11718932911753655,0.3108676075935364,0.8624526087660343]},{"row":1,"column":4,"elements":[-0.7263870250899345,0.01491389237344265,-0.20336365140974523,-1.088601399678737]}],"inputSize":17,"hiddenSize":16,"hiddenLayers":2,"outputSize":4}