{"weights":[{"row":7,"column":8,"elements":[0.9884035563674303,-0.8675224781036377,-0.1517585167747839,0.497301310300827,-0.9344234466552734,0.18857920169830323,-0.558497428894043,-0.16500028954228797,-0.44073953584000238,-0.08912718296051026,0.70607590675354,-0.402859091758728,-0.2733952865603655,-0.7894015312194824,0.3402339570309181,-0.43315125535499279,0.4565633914858367,-0.9857020378112793,0.18311893939971925,0.5327513217926025,-0.04035379391522326,-0.6280298233032227,-0.49796831607818606,-0.7994399070739746,-0.35134691724966418,0.44172975420951846,-0.5259805917739868,-0.11411559581756592,0.14036428928375245,0.7539299179841947,0.7037353515625,0.495423287153244,-0.6232800483703613,0.14903465284402274,0.7342751026153565,-0.6056880950927734,-0.7635693550109863,0.6412606239318848,-0.9044339656829834,-0.22654283046722413,-0.4725579023361206,-0.05115783214569092,0.8789370059967041,-0.778618803668607,0.8586928844451904,-0.9201607704162598,0.806877613067627,0.29032047126741036,0.7296133041381836,0.9123296737670898,0.3848404586315155,0.6363428134665163,0.5224606990814209,-0.06758368015289307,-0.7726428508758545,0.04205561370429578]},{"row":8,"column":4,"elements":[0.5547027587890625,0.8641102479891956,-0.6560366153717041,-0.22732365131378175,-0.5013196468353272,0.1297576386444712,0.584836967603735,-0.6915102005004883,-0.20934859209866375,-0.8103599548339844,-0.40662285320797056,0.13527429103851319,0.4619245231151581,0.8785526752471924,-0.2516862036706442,-0.45974504947662356,-0.007375359535217285,0.182428240776062,0.26817867159843447,-0.10445559024810791,0.009746432304382325,0.7382173538208008,0.3936707675457001,0.38333794474601748,0.6372795104980469,-0.8542297517366819,0.012054357283975748,0.9095629026572514,-0.7894370555877686,-0.5396409034729004,-0.3917012707523462,-0.7177793979644775]}],"biases":[{"row":1,"column":8,"elements":[-0.8104057312011719,-0.9102680683135986,0.33716103591561366,-0.05501115322113037,0.4885408580303192,-0.8626019954681397,-0.37054502964019778,0.7852001190185547]},{"row":1,"column":4,"elements":[0.38213226199150088,0.022561192512512208,0.8154542446136475,-0.08331668376922608]}],"inputSize":7,"hiddenSize":8,"hiddenLayers":1,"outputSize":4}