{"weights":[{"row":7,"column":8,"elements":[1.2124491541919227,0.9519722614439488,-0.7574672382657361,-0.8124103546142578,-0.8575558662414551,-0.4749589277808077,0.27876946330070498,0.5008697509765625,0.9128776304616704,-0.14698398113250733,0.717893123626709,0.8126428127288818,0.7763137590693319,-0.5925230221518696,0.7818632125854492,0.4255425773475636,0.4821242517704789,0.7127115726470947,0.13166511058807374,0.35955822467803957,0.7021384239196777,0.07145671813546173,0.4320780792822805,-0.27745048979758027,1.0870780944824219,0.7359888553619385,-0.13499677181243897,-0.7601723717431952,-0.8964157589656097,0.6663601517044668,-0.9501933932834579,0.49268218874931338,0.0016005524146276429,-0.917282158444884,0.8410012722015381,0.992438793182373,0.09568130592634106,-0.6536012456821603,-0.6802637577056885,0.7160175212357395,0.4662409933598832,-0.643273115158081,-0.039086671073008009,-0.6146107978781004,-0.23861944675445558,0.5673711766944365,0.22181519798101236,0.41948792338371279,-0.04459178447723389,-0.03155212302048227,-0.42577261664925816,-1.9606502056121827,-0.7052955627441406,-0.01513938433651596,0.6518237590789795,0.685325002325305]},{"row":8,"column":4,"elements":[0.16822326183319093,0.3983218902121801,-0.10412352471551856,-0.10048401355743408,0.3841598531853736,-0.2931455373764038,0.24723001449602578,-0.14697504798091066,0.3725590407848358,0.44275491780568645,0.19222939014434815,-0.4152623414993286,0.3552679717540741,-0.6685403223062068,-0.6393106253156589,-1.3508868217468262,-0.43796357169878066,-0.6648437976837158,-0.7796036610557167,-0.48374095651733919,-1.371015191078186,-0.7482683658599854,-0.025712228407584804,0.9775380340184396,0.5382885932922363,0.886563235647813,-0.28284242119566019,0.8238444328308106,-0.7946362495422363,-0.8659154910893427,-0.7963278889685395,-0.33751454474814937]}],"biases":[{"row":1,"column":8,"elements":[0.35541197657585146,0.4619520791807461,0.22834551334381104,0.21177423000335694,0.5827326940375563,0.6325700283050537,-0.9236880238455569,0.17577583473839199]},{"row":1,"column":4,"elements":[0.33696553111076357,0.7895896860969174,-0.4563028463282546,-0.35723526879651237]}],"inputSize":7,"hiddenSize":8,"hiddenLayers":1,"outputSize":4}