{"weights":[{"row":23,"column":6,"elements":[0.5890271253883839,-0.6859899843111634,-0.01670331321656704,-0.08330525830388069,-0.5404898710548878,1.5241607390344144,-0.4196751485578716,-0.6471375208348036,-0.9413227709010243,-0.9855998230632395,-0.9110422977246344,0.7646151704248041,0.5147903289180249,0.03444727906025946,0.22989289462566377,0.2409096835181117,0.5631862552836537,-0.1859842527192086,-0.4378609894774854,0.6899978145956993,-0.3305049166083336,-0.6925140069797635,-0.6511979606002569,0.9985654884949327,-0.12671287963166834,0.0069252249377314,0.06873208377510309,0.1260981746017933,-1.0114789567887784,-1.244053926318884,0.25956814363598826,-0.6827248549088836,0.9583892112132162,-0.24907805491238833,0.2738538699923083,-0.18112590396776796,0.05645722150802612,0.7030915906652808,-0.9944171123206616,-0.7033383972011507,-0.3581865718588233,0.6236387295648456,0.15010264096781612,-0.7769145376514643,-0.20937514305114747,0.26503239618614318,-0.005535447504371405,0.12261313712224364,0.9253467653179541,0.431528176413849,0.5672632372006774,-0.0692818146198988,-0.48227672139182689,0.38616399373859169,0.6310120858252049,0.147178354091011,0.7715074066072702,-0.32176934578455987,-0.13991704769432546,-0.6835693009197712,-0.39007446728646757,0.518715662881732,-0.8905541356652975,0.5030031786300242,0.35636819154024126,-0.46534578484715896,-0.5868820493342355,-0.27144444547593596,-0.45521868928335609,-0.9420539648272097,-1.3420861130580307,0.8067221636883915,-0.6530365343787707,-0.0781330643221736,0.7844789703376591,0.07279853336513043,-0.6572192460298538,0.5179747696965933,-3.2943376917392017,-0.357466395245865,0.08575545251369477,0.2130135204643011,0.18979112897068263,0.35310643538832667,0.5393591616302729,-0.22081871307455004,-0.024607283994555475,-0.9065404729917646,0.7637578770518303,0.03879003878682852,-0.5644130315631628,0.19633696973323823,0.2031839694827795,0.7387540992349386,-0.7115331133827567,1.3796273283660412,0.1022029323503375,0.7189837797777727,0.716773996129632,-0.15057289227843285,0.16503819916397334,-0.20470573287457229,0.6788717657327652,-0.21608995273709298,0.26327066984958949,0.46084120869636538,0.7466092233080417,-0.06875587906688452,-1.1781753823161126,0.5090909004211426,1.665981525555253,1.0413004592992366,0.4769899067468941,-0.8909000847488642,-0.5064996341243386,-0.127675318159163,1.0950741544365883,-0.3921524244360626,-0.8463423550128937,-0.619565038010478,-0.46689552906900647,-0.5961604382027872,0.02010558790061623,0.00597802409902215,-0.6297876727767289,-0.3180920711020008,-0.39065192453563216,0.6638630535453558,-0.018466458190232517,-0.09921904094517231,1.250052310526371,0.717113547027111,-1.0119378075469286,0.36071211099624636,-0.5985778751783073,0.43195976968854668,-0.5292629515752196,0.10199938667938113]},{"row":6,"column":4,"elements":[0.4289532247930765,-1.012881567236036,-0.8458204865455627,0.7855136102880351,-0.6753855402348563,0.6749474052339792,-0.6492379941046238,-0.5741692753508687,-0.5259149968624115,-0.6325735971331596,0.08242500084452331,0.24510560929775239,-0.1605131319956854,0.4297963846474886,0.6213224902749062,-0.5665163081139326,0.7560109505429864,0.09776180237531662,0.021062830463051797,0.3105231439694762,0.679718884639442,-0.057825531461276117,-0.4859385876916349,-0.686124668456614]}],"biases":[{"row":1,"column":6,"elements":[0.12471966166049242,0.38642854196950796,-0.8590585393831134,0.5827338276430965,0.9844267651205882,0.8328735493123531]},{"row":1,"column":4,"elements":[0.8805080447345972,0.03035118174739182,-0.47179347183555367,0.4312876332551241]}],"inputSize":23,"hiddenSize":6,"hiddenLayers":1,"outputSize":4}