{"weights":[{"row":23,"column":10,"elements":[-0.13712467066943646,0.2638191885780543,0.1546999546699226,-1.3499116897583008,0.3994479812681675,-0.3992238938808441,0.7643946940079331,-1.0411515347659588,0.6615571016445756,0.22188016958534718,0.19695352390408517,-0.5011299252510071,2.3608851833269,0.7484203949570656,0.46720419463235887,0.4208258364815265,0.1527392806019634,-0.8040551587473601,0.8811679142527282,1.011791616678238,-0.06912451842799783,0.9216446398058906,-0.6988050066865981,0.3529892936348915,0.30288171116262677,0.041141374967992309,0.4833820411004126,0.17961703054606915,0.5286699166172184,0.4902798137627542,-0.8128425204195082,0.16319595742970706,-0.8979314723983407,-0.520531746558845,1.3105943170376123,-0.37510773725807669,-0.24884695281798487,0.1258636477869004,0.7817482720129192,1.274083299562335,0.8458090416388586,0.5216420241631568,-0.9925487162545323,-0.8114236406981945,0.9504115483723581,-0.3356558233499527,0.8385831713676453,1.1162788274232299,0.8174612754955888,-0.04881884157657623,0.8256766423583031,-0.03201562911272049,1.0140753579325975,0.5798237852286547,0.8772391434758902,0.9189453758299351,-0.11992845311760903,-0.44291568268090489,-0.4934700168669224,0.9395070094615221,-0.23244189913384617,0.3098386898636818,0.4775398289784789,-1.388298749923706,-0.6729129031300545,0.8421826362609863,0.14778097067028285,0.5068547315895557,-1.033168000751175,0.06814406160265207,0.7243007877841592,-0.7062000096775591,-0.7189760892651975,0.9670740365982056,-0.40683976747095587,0.4863176280632615,0.946381937712431,-0.5683817500248551,0.7602249197661877,1.3973926585749724,0.39181212708353999,-0.10355733707547188,0.3126779160229489,0.4308498725295067,-0.6609940323978663,-0.39314686646685007,-0.8474255835171789,0.9666107762604952,-0.5912272254936397,-0.5214303033426404,-0.6306748578790575,0.36019220389425757,1.1481672720983625,-0.18365002423524857,0.26753100380301478,0.28185701416805389,0.7365649938583374,-0.3429075566236861,-1.1465873569250107,-0.14297795575112105,-0.4884670496103354,1.4284447319805623,-0.462940473575145,0.12404153996612877,-0.7652710117399693,0.09441775642335415,-0.15011434629559518,0.2562364246696234,0.6559124030172825,0.4510559607297182,-0.9286137961316854,-0.0345540915732272,-0.04387000948190689,-0.6323868916369975,-0.6201562751084566,0.007341462187469006,-0.8272321559488773,-0.7768179134000093,-0.08623873814940453,0.06180880405008793,-0.30393892154097559,0.6891793771646917,-0.59460692666471,-0.29907479137182238,0.9388910429552198,0.15128697827458383,0.02311623515561223,-0.5598012566333637,0.7816838966682553,1.113785482943058,0.13701143488287927,0.03925222158432007,-0.5145311974920332,-1.0873988196253777,0.08510470017790795,-0.2829520255327225,1.1616568248718978,0.10106014274060726,-0.2779292408376932,2.983827829360962,0.05474431440234184,-0.3366887280717492,-0.5101431757211685,-0.7050109310075641,-0.9756714736577123,0.41324653071933428,-0.4052802473306656,-0.5080414758995175,0.15644341066945345,0.2676644315943122,-0.2353615090250969,0.3709438871592283,-0.8116004092153162,0.12835827050730587,1.1977221965789796,0.13847925234586,0.9666591240093112,0.5790967717766762,-0.7116942992433906,0.3014478459954262,-0.3159651200985536,-0.39235369861125948,0.8405171955237165,0.3807329717092216,-0.39703201211523267,-0.7974518146365881,-1.1956745721399785,-0.4492682795971632,-1.1223506409442053,0.3193022352643311,0.6060668807476759,-0.8992133736610413,-0.41061416268348696,-0.25055051455274227,-0.5550904716365039,1.1884991547558457,0.8905246221693233,-0.33695142436772587,-0.2907803242560476,0.7157246675342321,-0.32482278905808928,-0.00785394897684455,-0.6940672639757395,-0.5495163146406412,-0.45366273121908309,0.37712313956581058,-0.7634534556418657,0.7404990624636412,0.7081397771835327,0.3163133105263114,0.30626820027828219,-0.5413945527398028,0.47505816305056217,-0.7004093136638403,0.7759635411202908,-0.1624517294112593,-0.5680618640035391,0.6515590432099998,-0.28173554688692095,-0.24583272822201253,0.7171771717257798,-1.0213543886784465,-0.6956984654534608,0.937191991135478,0.07965070195496082,0.5843276381492615,0.2069945251569152,-0.9617337770760059,-0.05019769445061684,-1.3369840383529664,0.3993821395561099,1.0675299856811762,0.09625815693289042,0.7364165759645402,0.9307257141917944,-0.27384499926120045,0.315443554893136,0.06994746904820204,-1.0071604232070968,-2.298581453040242,-1.0069359201006592,0.8828018885105848,-0.7797132208943367,-0.7297816731734201,0.33522319234907629,0.22281800769269467,-0.09573301859200001,0.6486340619158,0.8844088949263096,0.07981664943508804]},{"row":10,"column":4,"elements":[0.13590959832072259,-0.17694166069850326,0.7605072883889079,-0.059091942850500348,-0.42739561595954,1.0417560148052872,0.9073122059926391,0.605084833689034,0.6354239890351892,0.3877783389762044,-0.36125783901661637,0.31534824590198698,0.3645796552300453,0.17731178179383279,1.0976097136735917,0.5087538233492523,-0.13219065219163896,0.7469694744795561,-1.2384319808334113,-1.3271015956997872,-0.15271725173806773,-0.6638372065499425,-0.10806645452976227,0.17443209514021874,0.9546006061136723,0.7173499199561775,0.34301007306203248,-0.5799124683253467,-0.6060690134763718,-0.222195316106081,1.5872279554605485,1.0640148953534663,-0.40994461439549925,-0.848788894712925,-0.3573812565555272,0.6206380114890635,0.7485281266272068,-0.24847644567489625,-0.2564902678132057,-0.9051219578832388]}],"biases":[{"row":1,"column":10,"elements":[-0.48212336748838427,0.1834553387016058,0.05352513678371906,0.3038567425683141,0.04899272508919239,-0.671188228065148,0.34220878267660739,-1.060472653247416,1.3384283711202443,1.6938897371292115]},{"row":1,"column":4,"elements":[0.572590878669871,0.340582225471735,-0.9780033538118005,-0.495800934266299]}],"inputSize":23,"hiddenSize":10,"hiddenLayers":1,"outputSize":4}