{"weights":[{"row":24,"column":8,"elements":[-0.8077755598351359,-1.0213132444769145,-0.013358401134610176,0.08671543002128601,0.06277354364283383,0.7045730352401733,0.185904884012416,-0.3533097617328167,-0.5828110165894032,-0.7990717962384224,0.3593467762693763,0.10470792464911938,0.013242397457361222,-0.6445363108068705,0.15003962069749833,-0.01888298848643899,-0.502833591774106,-0.3618301203241572,-0.0027698539197444917,-0.3710933579131961,0.4914186522946693,-0.2766791768372059,-0.6814763285219669,0.5230495929718018,-0.7592588937841356,-0.8450888954102993,-0.28216029913164678,0.2674940750002861,0.4007924721809104,-0.17161391954869033,-0.14773745415732265,0.21039092540740968,0.38055236637592318,0.9397978782653809,-0.5450501516461372,0.5451770890504122,0.1828032536432147,-1.126478027086705,-0.17493065260350705,1.0022612838074566,-0.49163350462913515,0.6870821183547378,-0.06869357824325562,-0.7168591292575002,-1.524714209139347,-0.30254823341965678,-1.5721827410161496,0.04442959278821945,0.4172742962837219,0.04921969771385193,0.3660120703279972,0.45625911466777327,-0.519334439188242,0.6950559411197901,-0.3109298376366496,0.07489297632128,-0.6216595834121108,1.0844056755304337,0.031386541086249056,0.7075973218306899,-0.9786180853261612,0.8168897954747081,0.41591439209878447,1.1321329399943352,0.5646815225481987,-0.6295167114585638,0.21637890301644803,-0.03818531334400177,-1.0325728934258223,0.2460974222049117,0.05716542451409623,2.393641024827957,0.6404873132705689,0.2009866014122963,0.4273386001586914,-1.0472454838454724,0.5669472408480942,-0.09129351004958153,-1.0115397404879332,-1.0379341877996922,0.7236635899171233,0.3554452285170555,0.4077490083873272,0.35497154481709006,-0.8776474595069885,-0.5915502493735403,0.39805642142891886,-0.05223383009433746,-0.9770731180906296,-0.362441667355597,0.588612456806004,-0.6685861460864544,0.4634171202778816,0.3663083668798208,-0.8098770789802074,-0.3156419196166098,-1.0655141584575177,-0.23466809140518309,0.3108504619449377,-0.8963500140234828,0.1982821710407734,-0.07795994449406862,-1.1070714383386076,0.9487838130444288,-0.2178505719639361,-0.12466131430119276,-0.5420758239924908,-0.3334061410278082,-0.21754497289657594,0.6913447435945272,0.6687721610069275,-0.46360495686531069,0.9086781325750053,0.629123343154788,0.16277476493269206,0.1233119061216712,1.7200296446681023,-0.867350161075592,-0.7696174012962729,-0.6087887575849891,0.3982047108002007,-0.062268421053886417,0.22537230048328639,-1.0502797365188599,-0.5533132515847683,-0.06824667047476396,1.9094524383544922,-0.10979086393490434,0.08953317045234144,-0.06798832258209586,0.21148227155208589,0.863595905713737,-0.8729841988533735,-0.17945255804806949,0.17113716155290605,-0.1463363777147606,0.7659509405493736,-0.5213738563470542,0.4476555772125721,-0.4733250178396702,-1.0696298566181213,0.0612439401447773,-0.15894495695829392,0.41972948610782626,-0.4029962338972837,0.36745896795764568,0.09795322455465794,-0.30873682571109387,-0.6707541644573212,0.9315064116381109,0.5577540115918964,0.07860021945089102,0.11908741109073162,0.6348396502435207,0.6697484051110223,-0.6022929791361094,-0.6402966771274805,0.2807222753763199,0.311290233861655,-0.7652874141931534,0.3084315708838403,-0.5611895564943552,1.0777439665980638,-1.0708362460136414,1.498688505962491,-0.1154632642865181,0.12801751028746367,0.08664046693593264,0.4429825395345688,-0.09405908174812794,0.8993719173595309,-0.5302311430568807,0.7041269447654486,-0.4724057316343533,0.18443524558097125,0.3756019963766448,0.2679342720657587,-0.5451699253171682,-0.8463776353746653,0.809961917810142,0.15900768898427487,0.5697466731071472,-0.025206140242516996,0.9328328147530556,-0.7408559322357178,0.742416262626648,0.5793649917468429,-0.9543269383721054,0.8415660755708814,-0.8001341316848993,-0.4498937879689038,-0.15504393726587296]},{"row":8,"column":3,"elements":[0.882538431789726,-0.27293787943199279,0.9270195383578539,-0.3809109404683113,-0.13751922361552716,-0.47077801916748288,0.47099257726222279,0.12224318739026785,0.033388061448931697,-0.28889771923422816,-0.2776340355630964,-0.8049612045288086,0.28462598845362666,-0.7908728662878275,0.24035901576280595,0.5703951995819807,0.1026542391628027,0.8975495435297489,-0.3524461730848998,-0.44055916741490366,0.7585125304758549,0.23274815268814565,0.17950933799147607,-1.1924208448035643]}],"biases":[{"row":1,"column":8,"elements":[0.19270338211208583,0.2772941291332245,-0.5225345268845558,0.2979150526225567,0.2584087308496237,-0.9401490427553654,-0.42853884771466257,0.7990050163352862]},{"row":1,"column":3,"elements":[0.2440904676914215,-0.07036338816396892,0.6181319262832403]}],"inputSize":24,"hiddenSize":8,"hiddenLayers":1,"outputSize":3}