{"weights":[{"row":24,"column":8,"elements":[0.2507622556295246,-0.12134964019060135,0.6052409522235394,0.05802079476416111,-0.6590576767921448,0.7790407355641946,0.6217976058833301,0.5827201046049595,0.35339345037937167,-0.7974184304475784,-0.005691480822861195,-0.005392290186136961,0.26889875065535309,-0.7049387209117413,0.5890288925729692,-0.6000279806321487,1.1160281896591187,-0.4965226147323847,-0.06690744310617447,0.5901733040809631,-0.10367726185359061,0.5362739162519574,0.1873341789469123,-0.6891553122550249,-1.2825608449056745,0.7417270503938198,-0.5174011494964361,-0.8746022218838334,0.6550549631938338,-0.47043100092560055,-0.5498412523884326,-0.471557030454278,-0.9139988794922829,-0.17999344132840634,-0.3518008543178439,0.8153778904816136,0.7688264437019825,0.13147619366645814,-0.2908672448247671,-0.3103301925584674,-0.3811977463774383,0.6193573009222746,0.14692701282911004,0.4089877437800169,-1.0726448083296419,0.8902616398409009,-0.6342917354777455,0.4189806170761585,-0.4337506121955812,-0.05213278904557228,0.23787892796099187,0.7111892979592085,-0.3669098559767008,-0.6815826101228595,0.20059001818299294,-0.7955967672169209,-0.9698322787880898,1.1994424555450678,0.32549784472212198,-0.7452068869024515,-0.5446823632810265,-0.8314649537205696,0.40445762872695925,0.266131903976202,-0.910496189724654,1.0199925629422069,-0.3470727689564228,0.015773558989167215,-0.9206849813926965,0.5158841423690319,0.47415947658009829,0.18781739473342896,1.0165397487580777,0.04860108904540539,0.6203067824244499,-0.524283692240715,0.6030480535700917,-0.8372652754187584,0.7058222889900208,1.5827678553760052,0.016229516826570035,-0.6879903227090836,0.2120606154203415,-0.10840989276766777,0.347431056201458,-0.44658831506967547,-0.0183911737985909,0.4801715388894081,0.5655957348644733,-0.5862083360552788,0.6738297119736672,0.40812419005669656,-0.850121752358973,0.08775672130286694,-0.3038798454217613,-0.3329602563753724,-0.9703605296090245,0.5789032988250256,-1.0631523448973895,0.5139427185058594,-0.5994606288149953,-0.8173731279093772,0.01148179592564702,-0.7079609129577875,0.5336982845328748,-0.8527053818106651,1.127210358157754,-0.8391324863769114,-0.48470008838921788,-0.12749919015914203,0.5390573558397591,-0.11696247011423111,-2.422672485932708,0.4856659211218357,0.4438185840845108,-0.5192751726135612,0.40342442272230985,0.16686184145510198,-0.8523651664145291,-0.8870241772383452,-0.029871823731809856,0.04652937687933445,-0.4816010184586048,-1.0483049211325125,0.9825777504593134,0.673462737351656,0.9416221268475056,-0.872575256973505,1.0015553436242045,-0.6909867413341999,0.4943700518924743,-1.6816596537828446,0.7147534168325365,0.8832549601793289,-0.42451902851462366,-0.5199842285364866,-0.18207891378551722,-0.8989843539893627,0.6733593344688416,0.5607816437259316,0.0482225208543241,-0.6155854221433401,-0.6719913613051176,0.09453677199780941,0.7693008594214916,1.7465375047177077,0.4328338988125324,0.2734063807874918,0.15020530857145787,-0.7910771071910858,-0.046665080823004249,-0.032904352294281128,-0.34815560281276705,0.856462893076241,0.347929984331131,0.3383957943879068,0.425908075645566,-0.31913043558597567,0.7651994964107871,0.32374359387904408,0.8624555056449026,-0.3655107384547591,-1.1634446028620005,-0.21187527477741242,0.5675938583735842,0.022698063403367997,0.6771366000175476,-0.8665969474241138,0.0492580933496356,-0.7789963092654944,0.775634472258389,0.5418498497456312,0.5157128982245922,0.940323606133461,-0.4385318447893951,0.0813074572943151,0.4623330533504486,0.17713290452957154,0.5525492168962956,0.27559870810364375,1.1382415890693665,0.8377867769449949,0.17954694759100676,0.4733873577788472,-0.7972178310155869,0.747315488755703,-0.7670195661485195,0.5716556645929813,-0.3186873197555542,-0.5007784962654114,0.38176922313869,-0.8271365655236878]},{"row":8,"column":3,"elements":[0.21306147705763579,-0.656104994006455,-0.17645531706511975,-0.4461121601052582,-0.2663238737732172,-0.8705889109987766,0.5428455770015717,0.641083930619061,-0.8553747497498989,0.9629494333639741,1.7220017546787859,0.33010491356253626,0.6779316440224648,-1.1787056997418404,-0.6805750222411007,0.62207543416298,0.6452783951535821,0.06731123104691506,-0.5252790432423353,-0.21819332148879767,-0.6351181780919433,0.867510593496263,0.8066304177045822,0.3606270672753453]}],"biases":[{"row":1,"column":8,"elements":[0.28531816275790336,0.4735719095915556,0.1681435250211507,1.6313494518399239,0.5709361070767045,-0.4225364411249757,0.6024133507162333,0.03588615753687918]},{"row":1,"column":3,"elements":[0.3373801615089178,-0.3183244802057743,-0.2898369247413939]}],"inputSize":24,"hiddenSize":8,"hiddenLayers":1,"outputSize":3}