{"weights":[{"row":27,"column":8,"elements":[0.6654398627579212,-1.0449871849268675,0.5500556584447622,-0.2968069314956665,0.6181697845458984,-1.30971335247159,-0.8914879290387034,-0.5344616882503033,-0.19079335662536324,0.9892805516719818,-0.3687612977810204,-0.7164678759872913,0.42091523320414128,0.529364911839366,-0.4080746192485094,0.12351733259856701,-0.7796117318794131,0.013751722872257233,0.6896938015706837,-1.0157928839325905,0.5025593107566238,0.7123471442610025,-0.26997642405331137,-0.4245270024985075,-0.0653994744134252,-0.07122740149497986,0.26414178509730848,0.954156969091855,0.45311351027339699,0.4807942807674408,-0.15979546401649714,0.29249253682792189,0.014305942691862584,0.5464475026819855,-0.38313402980566027,-0.273372826166451,0.23242510948330165,0.10462515987455845,-0.7185392752289772,0.4210495790466666,-0.5609082011505961,-0.17303308309055866,0.17257920821430162,-0.8538139201700687,-0.3805389538174495,-0.4091024906374514,0.9758614022284746,0.9242715127766132,-1.1607322692871094,-0.3929682020097971,-0.24427723931148649,0.8595464415848255,-0.12318886630237103,0.4166625812649727,0.8697587944625411,-0.7699252618476749,-0.3028726652264595,0.8388032726943493,-0.1559075741097331,-0.8645646078512073,-0.3262588866055012,0.07361335700261407,1.0139561016112567,-0.9564820025116205,0.1035767812281847,-0.5661621680483222,0.12797180691268296,-0.8397799413651228,0.0013951105065643788,0.3876714529469609,0.03430899896193296,0.5806234031915665,0.7998374216258526,0.1915401592850685,-0.7594839185476303,-0.6596850893693045,-0.128129743039608,0.17913334537297488,-0.05002182349562645,-1.1594096142798663,-0.5511767733842135,1.0830416467506439,0.7080673056771047,-0.7318364009261131,0.2059106109663844,-1.3397830796893687,-0.47359053418040278,0.5377065623179078,-0.1503080828115344,0.950252965092659,0.4316212609410286,1.001256130170077,1.8888957127928734,0.9923504088073969,-0.753108199685812,-0.9847593666054308,-0.05426445486955345,0.2050826079212129,0.5487456545233727,-0.4496434796601534,-0.31364022195339205,-0.18225094326771797,-0.2850599263329059,0.481879566796124,0.8736355900764465,0.20758593454957009,-0.8819584641605616,-0.41546852979809048,0.5622363910079002,-0.4942775331437588,-0.8530205364804715,-0.6460189142962918,0.8094980507157743,0.10627595335245133,-1.3218662738800049,0.2733232732862234,-0.5915970178321004,-1.09574596209859,-0.2756874922779389,-0.18552697822451592,-0.610068216919899,-0.047109398525208238,-0.5607408033683896,-0.5664008692838252,0.11202146485447884,-0.6101015689782798,0.3240583501756191,0.4412614823086187,0.0810069227591157,-0.6063427738845348,-0.31176358461380007,-0.5690300278365612,0.6791770019335672,-0.055171857587993148,1.0898714065551758,0.09585297713056207,0.3912888243794441,0.7255199123173952,-0.29153798893094065,0.47326143831014635,-1.275703669525683,0.00010425597429275513,-0.3301034066826105,-0.8885457031428814,0.8815891742706299,0.564536452293396,0.3220461569726467,-0.9380178805440664,-0.4038439877331257,-0.9739113040268421,0.40994215197861197,1.6601422857493163,-0.7158818878233433,-0.6177904196083546,-0.7384336078539491,0.9847107399255037,-0.9512982745654881,-0.885810112580657,3.595306295901537,0.6921976134181023,-0.5571108208969235,-1.0194299053400756,0.1593470387160778,-0.4204107755795121,-0.3262040503323078,-0.1594577394425869,-0.14321749657392503,-0.317303653806448,-1.2002089284360409,-1.536222469061613,-0.8082657619379461,1.0383114637807012,-0.7228753734380007,0.14925818145275117,-0.21922423131763936,0.9359118081629276,-0.42253085039556029,0.6121189281984698,-0.8873237501829863,0.5330143682658672,0.7112273760139942,-0.72516586817801,-1.4509266335517169,-0.7805547434836626,-0.3264181073755026,-0.45267133705783638,-0.2104570078663528,0.25067450385540726,-0.10123387584462762,-0.1352455820888281,-0.09013669192790985,-0.7814013073220849,-0.3161577610298991,0.923124261200428,0.9863279964774847,-0.2589174844324589,0.484761375002563,-0.8298714533448219,-0.081347924657166,0.683186654932797,0.1823401264846325,-1.119384414050728,-0.7816489045508206,0.32342033460736277,-0.07761668227612972,-0.38890301808714869,-0.0594526007771492,-0.003636952955275774,-0.527123961597681,-0.48022846318781378,-0.9792494780849665,-0.010394953889772296,-0.47053796239197256,-0.5876501202583313,-0.18690267577767373,-1.465051505714655]},{"row":8,"column":3,"elements":[0.6158474572002888,0.509106295183301,0.9145061895251274,-0.5103859519585967,-0.25612878799438479,-0.29732085356954487,0.2926112711429596,-0.430440079420805,-1.4997411966323853,0.09342357178684324,-0.6141938613727689,-0.24583249643910677,-0.6810430381447077,-0.21432240679860116,0.5461634583771229,0.7347017042338848,-0.604448021389544,0.5537196919322014,0.5637050410732627,0.16253020043950529,-0.0003270604647696018,-0.8538666535168886,-0.3071703836321831,-0.23021573387086392]}],"biases":[{"row":1,"column":8,"elements":[-0.08361230976879597,0.5670589618384838,-1.020505864173174,0.4590244279243052,0.2496820753440261,0.7333530019968748,0.05692880414426327,0.20593993179500104]},{"row":1,"column":3,"elements":[1.2039360317285173,-0.05593228433281183,-1.4271859489381314]}],"inputSize":27,"hiddenSize":8,"hiddenLayers":1,"outputSize":3}