{"weights":[{"row":17,"column":8,"elements":[-1.2025373354554177,-0.5464164353907108,1.2738301120698453,0.5979893961921334,0.3144762646406889,-0.4353503789752722,0.7798237539827824,0.732163471635431,-0.5572250909171999,-0.24988986551761628,0.520695028535556,1.0859177615493537,0.4663768036989495,0.6324336547404528,0.07272996474057436,-0.192895345389843,0.9160182923078537,-0.7386969579383731,0.0013312897644937039,-1.1241415962576867,-0.6676130071282387,1.2361568808555604,-0.17102537490427495,-0.613323463127017,-0.05701563507318497,-0.35194711189251395,-1.096012905240059,0.7221038956195116,0.5850397627800703,0.5859061982482672,-0.8997236415743828,-0.48902135765820278,0.10770664922893048,-0.2748702708631754,-0.9071358889341354,-0.02084285579621792,0.2564465254545212,-0.4112860247842036,-0.8972521387040615,-0.949137719348073,0.49647727608680727,0.41735744441393765,0.02271093285526149,-0.1325443759560585,1.017305152490735,-0.03488736227154732,-0.820932187139988,-0.5918252691626549,0.10702800657600165,0.08664165809750557,-0.15526322089135648,0.46891976334154608,1.0471256487071515,0.01326703280210495,0.1986669171601534,0.9817013284191489,-0.5453180074691773,0.6078548319637775,-2.522828892339021,0.17955916444770993,-0.3617210416123271,-0.08999589970335365,1.0710634030401707,0.500104796141386,-0.10267209820449352,0.9034769926220179,-0.037288766354322436,0.47141982428729536,0.8104199939407408,0.29314760491251948,0.7357592862099409,-0.12636160524562,0.26133070327341559,-1.1397409439086915,-0.2538381014019251,-0.8722060061991215,1.0521947983652354,0.33936431631445887,0.8448556400835514,-1.3051358722150326,-0.10888112499378622,0.17684038262814284,-1.0589478462934495,0.24006479792296887,-0.7847082205116749,-0.6795266922563314,0.9458122253417969,0.4073405107483268,-0.38328054602607156,-0.38115773908793929,-0.3156553916633129,-0.6079883947968483,-0.22974024899303914,-0.35290095256641509,0.7774152606725693,-0.2556478902697563,-0.7227832917124033,0.1941272784024477,1.1042907275259495,0.09207411482930184,-0.8227789122611284,0.9131300654262304,-0.10381433926522732,0.4436139422468841,0.2801028788089752,0.6664116992615163,-0.2827259851619601,-0.7514945045113564,-0.3190674795769155,0.03789733350276947,-0.05555029306560755,1.0822978569194675,0.9866030267439783,-0.05709373578429222,0.6332290563732386,0.4329952970147133,0.6208582669496536,0.20656341081485153,0.4872887087985873,0.885742723941803,0.16117745265364648,-0.5534301400184631,0.6601410359144211,-0.2842656057327986,0.8372427336871624,0.45259588956832888,-0.32915817108005288,-1.033328385092318,0.44540329556912186,0.19933800119906665,0.3968173775356263,-0.4281228007748723,-0.02449510432779789,-0.39319752901792529,-0.30121777206659319,-0.005711786448955536]},{"row":8,"column":4,"elements":[0.02374751167371869,0.8126233741641045,0.42945101484656336,-1.229420217918232,-0.10509693622589112,0.5438335817307234,-0.2959195263683796,0.9562424053438008,0.7175142662599683,-0.4279244211502373,0.12994266021996737,-0.5686865653842688,0.6779058109968901,-0.5040717460215092,0.31475419737398627,0.5791278295218945,0.42321413569152357,0.4692571684718132,-0.019837207451928408,-0.5502184238284826,-0.5541172530502081,-0.6085729598999023,-0.8553965240716934,-1.0200502609368414,0.3120632516220212,1.1143131172284485,-0.6041077692061663,-0.29280263115651908,0.02718308987095952,-1.0059224292635918,-0.1009550392627716,-0.04162789694964886]}],"biases":[{"row":1,"column":8,"elements":[-0.27938050171360376,0.007194194011390209,0.43976932788064007,-0.1725295085925609,0.4673468992114067,-0.06528180465102196,0.7064847244182602,-0.13211182691156865]},{"row":1,"column":4,"elements":[-0.31181833473965528,0.45342752151191237,0.05673627555370331,-0.013688608523807489]}],"inputSize":17,"hiddenSize":8,"hiddenLayers":1,"outputSize":4}