{"weights":[{"row":27,"column":8,"elements":[0.9467176906764507,0.03447781503200531,0.8681398341432214,0.6803961582481861,0.5382918087998405,-0.464778546243906,-0.8527426719665527,0.20413362979888917,0.9487443917896599,-0.7496767658740282,-0.3520765621215105,0.7542797415517271,-1.0160532323643566,-0.875473365187645,0.34601975232362749,0.7990630129352212,-0.2830607295036316,-1.5500504896044732,0.07784388400614262,0.6642258395440877,0.9321559425443411,-0.995380450040102,-0.8243780042976141,-0.15135101601481439,0.7093355916440487,0.6853944342583418,-0.35889327619224789,0.6755188344977796,0.07975911535322666,0.057229287922382358,-1.0101787564344705,0.661349032074213,0.678127090446651,-0.5146977975964546,0.05904913879930973,-0.6526461094617844,0.914691511541605,-1.0868673995137215,0.1776510300114751,0.10058732517063618,-0.0422964901663363,0.793631250038743,0.5194237902760506,0.764784712344408,-0.8580711394315586,-0.39200715185143056,-1.899331096559763,-0.895935095846653,-0.38604776095598938,-1.0704557225108147,-0.4428066499531269,0.6496862769126892,-0.46528022311395036,-0.4029858037829399,-0.6769782546907663,0.7701405640691519,-0.9913784340023995,-0.8131193080917001,0.03900777921080589,0.5035693049430847,-0.3744496302679181,0.6886296505108476,-0.45996032282710078,0.7505872594192624,-0.41453147819265725,-0.2292498047463596,-0.14948508638190106,-0.04570785025134683,-0.11895068548619747,0.0693228654563427,0.5333351572044194,0.5494941351935268,-0.5234591197222471,0.7738689985126257,0.9926070659421384,0.7750818729400635,0.9054959211498499,-0.6049130391329527,-0.3381103053689003,-0.30023727752268317,0.613165058195591,0.3914613053202629,-0.4410852827131748,0.702075432986021,0.8810790586285293,-0.42019019834697249,0.41378506552428009,0.6183164305984974,0.7949329968541861,0.488909799605608,-0.9741701325401664,1.2230100631713868,0.8921849767211825,1.3249616622924805,0.8776710368692875,-0.48441458493471148,1.0691996812820435,-0.4772571139037609,-0.5383488149382174,-0.40165974060073497,0.07202545739710331,0.5668608322739601,-0.5838734675198793,0.9608313776552677,-0.7362563675269485,-0.6433045323938131,-0.23206428810954095,0.5874729789793491,-0.6530430316925049,0.8358179349452257,-0.6288435170426965,-0.32646404032129797,0.3252758273301879,0.1476621925830841,0.36719140969216826,0.03267885558307171,-0.9192746211774647,0.29034721478819849,-0.12030620872974396,-0.826993484981358,-0.41753103863447907,0.12299143709242344,0.2846169304102659,-0.8193971216678619,-0.21377462893724442,-0.6256884001195431,0.08693523332476616,-0.5572975230170414,0.0764040183275938,-0.20614594221115113,-0.7384521709755063,-0.0016711034113541246,0.0021895463578402998,-0.11847449094057083,0.6905818991363049,-0.16403581947088242,-0.7780546732246876,-1.006661795079708,-0.7222305741161108,1.0774234496057034,0.759830616414547,-0.4835778786800802,-0.7334820958785713,0.911502824164927,0.3010123656131327,0.01716330647468567,0.28650474920868876,-0.5461915396153927,0.16226475685834886,0.12147756665945053,-0.8667537029832602,0.6644193567335606,-0.35206999257206919,-0.3709633653052151,0.4962524836882949,-0.9128088001161814,-0.07801502011716366,0.6208475660532713,-0.5144054293632507,0.13083061575889588,0.8733665072359145,0.14831765554845334,0.31425625551491978,0.23622044851072133,-0.20595770329236985,-1.5221753418445588,-0.06120133399963379,-0.5855027846992016,0.5367943048477173,-0.24954374646767975,-0.1312071606516838,-0.5377612896263599,0.19620393309742213,-0.909066628664732,-0.16799797117710114,-0.535846434533596,0.406004027929157,-0.008895336650311947,-0.6539426259696484,0.2178069744259119,-0.3801394235342741,0.21626903116703034,0.38194036670029166,-0.6675261035561562,-0.20243299007415772,-0.7638690955936909,0.2532675378024578,-2.1444963086396457,0.5874506589025259,-0.9560239780694246,-0.36699932534247639,-0.8697944320738316,0.89001639559865,0.5341634154319763,0.10118055297061801,-0.7897598780691624,-0.2224510908126831,-0.06070466712117195,-0.7756284419447184,0.793197751045227,-0.7336482964456081,0.6714603900909424,-0.943472471088171,-0.35010828357189896,0.7314063869416714,0.009376243920996786,0.3643754664808512,-0.3428197354078293,0.27758676651865246,0.8994132224470377,0.7262916183099151,-0.698075532913208,0.5401196479797363,-0.12886283174157144,-0.06420337269082666,-0.14943916536867619]},{"row":8,"column":3,"elements":[-0.8514342801645398,-0.5325965229421854,-0.8220676416531205,0.4520082212984562,-0.1014536963775754,0.6849693059921265,0.9078597873449326,-0.5661024276632816,0.7521602511405945,-0.9507758649997413,-0.07055586576461792,0.15939078107476235,0.24226651713252068,-0.7131358725018799,0.4190900446847081,-0.37565715704113247,-0.823790255934,0.4330975729972124,0.0001727977069094777,-1.8575953170657159,-0.8495892365463078,-0.4693343173712492,0.10946171083196532,-0.6196557022631168]}],"biases":[{"row":1,"column":8,"elements":[-0.7925195265561342,0.5742770209908485,0.17882167734205724,-0.9772053174674511,0.511087472550571,0.3967076549306512,-0.4146261513233185,0.4577048122882843]},{"row":1,"column":3,"elements":[0.5732800578698516,-0.6602752381004393,-0.4921654649078846]}],"inputSize":27,"hiddenSize":8,"hiddenLayers":1,"outputSize":3}