{"weights":[{"row":24,"column":8,"elements":[-0.9480260562850162,0.15977683663368226,-0.3106898069381714,0.8634085655212402,0.8939387127757073,-0.8543653888627887,-0.32663108967244627,-0.7731368467211723,0.9215937815606594,-0.383339524269104,-0.7527441997081041,-0.32375559539650569,0.6916318088769913,-0.09662655927240849,-0.7327196225523949,0.4167075641453266,-0.2626322016585618,-0.9442067337222397,-1.0046505331993104,-0.5501152165234089,-0.9306923598051071,-0.34916380047798159,-0.8739851005375385,-0.19478246569633485,-0.5342817083001137,-0.4072204828262329,-0.17968057841062547,-0.7563999444246292,-0.6246163453906775,-0.19640873512253166,-0.7675519436597824,0.7692484930157661,-0.3832451030611992,-0.3345432858914137,-0.6448302399367094,0.18411109410226346,-0.11003163503482938,-0.6645411476492882,0.8840947393327951,-0.8333135191351175,-0.16876382380723954,-0.7871346194297075,-0.3127204701304436,0.4499228782951832,-0.7940331771969795,0.6748031582683325,-0.450924389064312,-0.0636867843568325,0.5418781861662865,-0.10890493914484978,-0.5786995440721512,0.42061077430844309,-0.8901937007904053,0.21728791669011117,-0.7083376049995422,0.15958236902952195,-0.35528660472482445,0.16160700097680093,-0.5366640463471413,-0.4219467230141163,0.18104435503482819,-0.517219252884388,0.370293453335762,-0.19819152355194093,0.8617496266961098,0.04590214090421796,-0.658956304192543,-0.5895940661430359,0.07820700109004975,0.12525403499603272,-0.8860538005828857,-0.930149495601654,-0.4108956456184387,-0.9449096880853176,0.3982629595557228,0.7746137827634811,0.6021506786346436,-0.9018456935882568,-0.021708086133003236,0.35941297840327027,0.8244234994053841,-0.3060043938457966,-0.2672496819868684,0.4229311852250248,0.5833495333790779,-0.6852453351020813,-0.7421652711927891,0.3319771811366081,0.7316359241085593,-0.18426505103707314,0.9545271173119545,0.6638749458361417,-0.615660346345976,-0.8136434555053711,0.5039392281323671,0.2094287583604455,-0.31475913524627688,-0.7536315701436251,0.6622128486633301,0.08024346828460694,-0.09375083446502686,0.6100133029394783,-0.4391503883525729,-0.8579323291778565,0.26672410033643248,-0.1886303499341011,0.44815266132354739,-0.9293725490570068,0.7826054692268372,0.416691318154335,-1.6509077548980713,-0.3766437768936157,-0.21973824221640826,-0.0928397849202156,1.1107825860381127,0.9639693647623062,-2.182905413210392,-0.2668980658054352,0.18091307766735555,-0.5335278511047363,-0.42149226553738119,-0.24060489423573018,-0.840987354516983,0.00815880298614502,-0.09357574582099915,0.4910005545243621,0.29958849772810938,0.26098016649484637,0.6764367371797562,0.7786154448986054,0.9123813370242715,-0.2689419072121382,-0.7605185620486736,-0.6350946426391602,0.7239506244659424,0.940500658005476,-0.5251281871460378,0.6753107812255621,0.7929047036450356,0.3699301555752754,-0.3844550922513008,-0.7983953941147775,0.4221316729672253,-0.05930839478969574,0.1775307133793831,0.36339667439460757,-0.4643905982375145,1.0758973099291325,0.5697229579091072,-0.42140557197853925,-0.04474771395325661,-0.9669665307737887,0.5316166877746582,0.9470122531056404,-0.6377815939486027,0.11289654951542616,-0.006847461219877005,0.6519592776894569,-0.38520348630845549,-0.7601734176278114,1.0573725700378419,0.23592793941497804,0.699741555377841,-0.1130615696310997,0.7186566814780235,0.20687035471200944,0.31947336345911028,-0.5513786908704788,-0.3762012720108032,0.8294616828789003,0.5621353536844254,0.7996839731931686,0.19411797262728215,0.8390290178358555,0.7240789169445634,1.5940057840198279,2.7657351968809964,1.3773272708058358,0.6231971625238657,-0.8965013222768903,0.39044538512825968,-0.10238645225763321,-0.1735186807345599,0.2032282834406942,0.9697948694229126,-0.5770590249449015,0.8676404771395028,-0.0029976586811244489,0.47257706872187557,-0.7248659618198872,-0.09114515781402588,-0.4545300090685487]},{"row":8,"column":3,"elements":[1.0799347758293152,-0.5206669140607119,-0.32941493578255179,1.082404501736164,-0.6404553856700659,0.08468377590179444,-0.7282092943787575,0.21124235540628434,0.11357557773590088,-0.9441463947296143,0.12617440521717072,0.05439387261867523,0.1972454059869051,-0.8485547830350697,0.872957706451416,-0.4439477911219001,-0.735093355178833,1.481231927871704,0.39343391731381419,-1.1669208314269782,-0.5400526951998472,0.37076595425605776,0.7338939905166626,0.060006251093000177]}],"biases":[{"row":1,"column":8,"elements":[0.33167150849476459,-0.8767303936183453,0.28063495084643366,0.5227029323577881,0.7839009601157159,-0.18442714400589467,-0.24919017031788827,-0.8653056025505066]},{"row":1,"column":3,"elements":[0.6210455521941185,-0.8008630983531475,0.37206629291176798]}],"inputSize":24,"hiddenSize":8,"hiddenLayers":1,"outputSize":3}