{"weights":[{"row":27,"column":8,"elements":[0.8515846729278565,0.8547484949231148,-0.8818754553794861,-0.03429832367692143,-1.340450062416494,-0.32093995809555056,0.41389819979667666,-0.8181993714533746,-0.36407522670924666,0.675935685634613,0.6615204205736518,0.009185411036014557,-0.5827158633619547,1.7317395210266114,-0.3447806644253433,-0.8628712842037203,0.7943535968661308,0.46945531253004449,0.7752213271451183,-0.2065648604184389,-1.0732133127748967,0.41983772814273836,0.8679931983351708,-0.6886810678988695,-1.0253476779907942,-0.8118708934634924,-0.8035756917670369,-0.09406140120700002,-0.42055769823491576,-0.696886039339006,-0.07853872515261173,-0.6571498811244965,0.8158262872457271,0.6261891690373886,-0.3478219583630562,0.5721037643961608,-0.6188148520886898,0.8503757789731026,-0.18950801249593497,0.8731535971164703,0.9698658902198076,-1.1112784817814828,-0.08370096981525421,-0.6821964532136917,-0.23503002502548044,-0.12560788681730629,-0.07001440227031708,-0.3379116728901863,-0.8665198534727097,-0.1667420230805874,0.5620488114655018,0.725323187187314,-0.41070907562971117,-0.7479523252695799,-0.34312041773227977,-0.8818323150044307,-0.6176827241433784,0.34341488126665356,-0.8757371418178082,0.49382429383695128,-1.1768437270075083,-0.053398849442601207,-0.6099443612620235,0.9553612042218447,-0.037811668356880549,0.9869443047791719,0.7403685115277767,-0.6016868017613888,-0.8061114167794585,-0.5758436536416411,-0.2852123863995075,-0.8287274837493897,-0.16201354446820916,-0.2384425438940525,-0.48656822089105847,-0.5615840430837125,-0.1313618365675211,-0.08145259693264961,1.2023386377841235,-0.8327943980693817,1.7887955978512765,0.5205270275473595,-0.45173898059874775,-1.1330788806080819,0.6781365452334285,0.18921786732971669,-0.3251616582274437,0.24179799295961858,-0.4199501178227365,-0.9519637767225504,0.6057819798588753,0.6418771743774414,0.16823961585760117,-0.573453526943922,-0.14414206985384227,0.4801884740591049,0.12203971622511745,-0.5470533184707165,-0.8198378346860409,0.7817757306620479,-0.6572830677032471,0.26186947897076609,-0.638987947255373,0.3707747161388397,0.5478710550814867,-0.5076574925333262,-0.37718695029616358,0.3920446396805346,-0.4881262790877372,-0.7450058488175273,-0.5208726227283478,-0.2944380512344651,-0.13820073381066323,0.33971990272402766,-0.2288494696840644,0.7117138244211674,0.5665088295936585,0.8159453689586371,0.7289130222052336,0.8686937745660543,-0.29355523455888035,-0.06302523799240589,0.1798019679263234,0.5832394110038877,0.435239396058023,0.9055195748806,-0.37235820293426516,-1.1229572370648385,-0.7522606197744608,-0.4736016057431698,0.8400130942463875,0.31090610194951298,-0.3878564795013517,-0.7718850485980511,1.8747870959341527,0.2484377771615982,-0.6793294362723827,-0.8654239163734019,0.803746560588479,0.9178923638537526,-0.5774903325363994,0.03955750912427902,-0.975650355219841,0.3787085022777319,-0.19225409347563983,-0.30280410405248406,-0.011272376403212548,-0.5575580899603665,-0.3378064860589802,-0.3849875023588538,0.853607315570116,-0.9058351181447506,2.0590324848890306,0.46173110604286196,0.24937955202767626,-0.15291663398966194,0.7427582386881113,0.42121811024844649,-0.3628484643995762,0.9836097406223416,-0.4228999838232994,0.9119889736175537,0.6341506168246269,0.6198312761262059,0.21370547637343408,0.48183374106884,-0.18959902913775296,0.42065118066966536,-0.3519131285138428,0.42251835169736298,-0.04542931914329529,0.07551617920398712,0.7287432253360748,0.7491985782980919,0.7385912297759205,-1.2508251443505288,0.9654719150858,0.5320942401885986,-0.42112497612833979,0.4085330665111542,0.8758488250896335,0.6850813794881105,0.9427672550082207,-0.10328264997224324,1.2335075475275517,-0.865654319524765,0.3045590282417834,-0.17471987009048463,-0.10004818439483643,-0.4881371594965458,0.34439193503931167,-0.969148414209485,-1.0468067321926356,0.7007184457033873,0.4297990771010518,0.74976572021842,0.8039913438260555,-0.24949590244796128,-0.25767914252355697,0.22382222022861243,-0.8554596938192844,-0.012749451212584973,0.7038001287728548,1.0210736319422722,-0.4841271722689271,0.8831807980313897,0.4505626857280731,0.28140832483768465,0.40844425139948728,-0.7562691625207663,0.5821440191939473,-0.018387991935014726,-0.793643610086292,-0.8337581567466259,-0.06339381542056799,0.6990433037281036]},{"row":8,"column":3,"elements":[-0.17662541382014752,0.4978483784943819,0.6390519859269261,0.6268155463039875,-0.4209365020506084,-0.3438768368214369,0.6623183339834213,-0.7506862703012303,0.6496439012698829,-0.4104525516740978,0.9377298355102539,-1.008535408647731,-0.9224001197144389,0.45847100019454958,0.545500386506319,0.558706846088171,-0.268131161108613,-0.5720868585631251,-0.061992296017706397,0.38052290957421067,-0.518104512244463,0.5348194225225598,-0.25530102103948595,0.19377741520293058]}],"biases":[{"row":1,"column":8,"elements":[-0.9872649386525154,-0.4988943520002067,0.173973907250911,-0.6713225431740284,0.47403253335505726,0.9049130193889141,0.7352956924587488,0.775745875609573]},{"row":1,"column":3,"elements":[-0.8206576686352491,-0.16842712415382267,0.19244370609521867]}],"inputSize":27,"hiddenSize":8,"hiddenLayers":1,"outputSize":3}