{"weights":[{"row":27,"column":8,"elements":[-0.7864695331081748,0.12386935949325562,-0.03663852182216942,0.7997457077726722,-1.3311460129916669,-0.7077251812443137,0.5152064226567745,0.22289562178775669,0.4982706685550511,1.4552009962499142,0.005549937253817916,0.9386468734592199,0.14224880980327726,-1.1015294063836337,-0.36657871678471568,-0.8186791390180588,-0.6748014595359564,1.0690085589885712,1.3227909803390504,-0.8714284244924784,-0.9437921631615609,-0.3943098746240139,1.2954955333843828,-0.7884967885911465,0.13727660104632379,-0.3699456006870605,0.4438715875148773,0.3948632637038827,0.55835493770428,-0.5604944061487913,1.0869644554331899,0.8549279011785984,-0.24541858350858093,0.865029817505274,-0.4370269044302404,-0.3805630821734667,-0.7334586149081588,0.9698134121717885,-0.3107844740152359,-0.9149872686248273,0.14508415386080743,-0.3352755531668663,1.0961231359833619,0.725373497698456,-0.37239464424783366,0.752650985494256,0.7338449973613024,-0.62217920445255,0.43523276038467886,0.2014503050595522,-0.3786134347319603,-0.14604433791100747,0.2532772009726614,-0.7035427093505859,0.6510684918612242,0.6197387443389744,0.8971260711550713,0.20637505693593995,-0.218435226008296,-0.17721009720116855,0.8395901604089886,0.5314666505437344,-0.3155346140265465,-0.7359835626557469,0.6407556775957346,0.7483894694596529,0.11019461788237095,0.8360155472764745,-0.274182194378227,-0.9643364958465099,-0.16014959325548262,0.4031840628013015,-0.3451446080580354,0.2456531496718526,-0.026298808865249158,-0.23204537108540536,-0.8775087809190154,-0.4873380269855261,-0.9176256433129311,-1.3585230242460967,-0.48849982768297198,-0.03210630174726248,-0.04018772579729557,1.090562111698091,-0.8807488407474011,0.18155987304635347,0.012876330874860287,1.0377195649780334,0.8189435228705406,-0.9753768052905798,-0.17348307790234686,-0.12683918699622155,0.32619756273925307,-0.018006273545324804,0.37520677549764516,0.48399640806019308,-0.02951932605355978,-0.018585171550512315,0.11706533120013774,-0.11699787620455027,0.0056175009231083099,1.1887534484267235,-2.0191258247941734,0.5980154294520617,0.7597503107972443,-0.5106883249245584,-0.27119301026687028,0.28239507507532837,0.22489767335355283,-0.3422742709517479,-0.6557046379894018,0.005190825555473566,-0.6403752565383911,-0.28264310397207739,1.2313479706645013,0.9096041359007359,-0.14962274953722955,0.6766482051461935,0.05011284269130556,0.6224245708435774,-0.0385153703391552,0.1672094762325287,-0.5847016191110015,0.17403328698128463,-0.02160909492522478,-0.8234475813806057,0.718818036839366,0.5616096751764417,0.6442480885889381,-0.12841071328148247,0.34916126169264319,0.08068985864520073,-0.4000350021524355,0.1851051184348762,0.35350701212882998,0.3216529320925474,-0.21115292236208917,0.48606907087378206,0.899431002791971,0.5379682742059231,-0.3787678321823478,0.5475832093507052,-1.0464874505996705,0.998591210693121,0.9052999811246991,0.09222909552045167,-0.8196755535900593,0.3765072043752298,0.08210532134398818,-0.3885772555368021,-1.5221588611602784,-0.3059009127318859,-0.4595046602189541,0.593553935730597,-0.5693361172452569,0.33494384214282038,0.7583946650847793,0.8621800765395165,0.587944365106523,0.3301197262480855,0.14467213861644269,0.40699863666668537,-0.32468935986980798,-0.39691114285960796,-0.5260406560264528,0.15244016190990807,-0.14179800264537335,-0.9240812240168452,-0.4393752012401819,-0.4783682469278574,-0.870815547183156,0.9911399097181857,2.1129824817180635,1.6323221568018199,-0.5585385169833899,0.5080474950373173,-0.8146484151948243,-0.5943944520549849,0.8697851272299886,0.2332190319430083,0.7127273489022628,-0.11080112494528294,-1.4737062859348953,-0.6411654958501458,0.012443143874406815,0.15954276639968158,0.05154145136475563,-0.7007325761951506,0.5998121267184615,-1.1984889602754266,-0.9693909585475922,0.23881207779049874,0.885083781555295,-0.24160847626626492,0.8784702597185969,1.0757723469287158,-0.569396274164319,-0.9001529607921839,0.7294987365603447,-0.7292116628959775,0.38468114970601166,0.23327913507819177,0.5526335649192333,0.07932997308671475,0.7208454742794856,-0.8101695962250233,-0.5785269401967526,0.6528209708631039,-2.3196330070495607,0.14866764843463899,0.5704333372414112,-0.1416971292346716,-0.2651127688586712,0.7938301530666649,1.331744834780693,0.19161552470177413]},{"row":8,"column":8,"elements":[-0.5846156049519777,1.127980723977089,0.05621355073526502,0.4626508094370365,0.36204604618251326,-0.29555564373731615,0.751471203751862,-0.8577208667993546,0.7817647447809577,0.0702638968359679,0.7799765765666962,0.14390060910955072,-0.43962622340768578,1.3005425189621747,-0.9189017973840237,0.148575434461236,-0.2690402783919126,0.06357889622449875,1.2090393379330636,0.28562797978520396,-0.7499773759627715,0.882226500660181,0.31271189637482169,0.026725114788860084,-0.5264641218818724,0.1244809809140861,-0.7073401939123869,-0.1918545519001782,-0.3355321139097214,-0.41571921366266909,0.6732809469103813,-0.30000858195126059,-0.6529056921135634,-0.07612142525613308,-0.6121092643588781,-0.8206259356811643,0.8387957946397364,0.10421146033331752,0.8547713626176119,0.3171887919306755,-0.40532335732132199,0.5307288598269224,-0.5732637085020542,1.7254497171379626,-0.016199748031795026,-0.11770384013652802,1.090282515855506,0.6767957285046578,-0.2532828082330525,-0.14966272935271264,0.08089836547151208,-0.7257267311215401,-0.08539981581270695,1.1284534819424153,0.890779685229063,0.4871702427044511,-1.791781167499721,1.1268071476370097,0.7179705100134015,0.8670587260276079,-0.15160981891676784,-0.04474646784365177,0.9821594133973122,0.9161518234759569]},{"row":8,"column":3,"elements":[0.8720099942293018,0.025570311583578588,0.16223225742578507,0.2606674146372825,-0.4169704569503665,-0.5572582576423883,1.094137225765735,0.6831411276943982,-1.414429601863958,-0.42239540588343518,-0.7678118497133255,-0.3822661563754082,1.0842745304107667,-0.11572865769267082,1.088954854523763,0.5432713199406862,0.10435520932514919,1.1236217841506005,-0.5097645248752087,0.7450355887413025,-0.20095372758805753,-0.9133515357971191,-0.6758238859474659,0.5787033624947071]}],"biases":[{"row":1,"column":8,"elements":[-0.8739263797178865,0.7388132652267814,0.706420274451375,-0.9675507117062807,0.539471157535445,0.9461774248629808,-0.5965816138777882,0.59844393376261]},{"row":1,"column":8,"elements":[0.9216309236362577,-0.35974084213376047,-0.5150100694736466,-0.7053873947588727,-0.06392864184454084,0.6195090748369694,1.0536779006943107,-0.09631418343633414]},{"row":1,"column":3,"elements":[-0.8470505205914378,-0.12117404269520194,-0.34412012062966826]}],"inputSize":27,"hiddenSize":8,"hiddenLayers":2,"outputSize":3}