{"weights":[{"row":29,"column":8,"elements":[0.927223427221179,0.4883756535127759,1.0500625483691693,0.5067291287705302,-0.20708726393058897,-0.25762346759438517,0.5273600234650075,0.09338453295640648,0.21778459241613747,0.17037999909371139,-1.0323111489415169,0.017608406022191049,-0.3978657345287502,-0.7207120452076197,1.0574399791657925,0.997880588285625,0.7662012875080109,0.6115610534325242,-0.3898213803768158,-0.6853643615031615,-0.19994327425956727,-0.4913627696223557,-1.2723228931427003,-0.20780494809150697,0.6081040631979704,2.1509098005481066,0.6152428700588644,0.5465786959975958,-1.1222378248348833,1.307266497053206,0.42351194471120837,-0.06093150842934847,0.7508119642734528,-0.07327006617560983,-0.22825551964342595,-0.5291641224175692,-0.5125782713294029,0.11603804980404675,0.06265819072723389,1.7040954791009427,0.2885828669532202,0.08799330331385136,-0.9876491879113019,0.5658741225488484,0.33598302328027787,0.9244038248434663,0.3431629929691553,-0.4070195406675339,0.13861501961946488,-0.2811434054747224,0.2235167825128883,-0.5688031597528607,0.11886128028345411,-2.4587293192744257,0.6898203119635582,-0.6380074911285192,0.5230976678431034,-0.9069955199956894,-1.1312454976141453,2.3093929030001165,1.1450198158854619,0.4838817410636693,-0.09079331113025546,-0.6814737785607576,-0.29437877982854845,0.8263962478376925,-0.7705257972702384,0.028449328616261483,0.36345766167505647,0.5812328904867172,0.3214533238206059,0.19649925077101217,-0.6671071462333202,-0.22220323234796525,-0.9674350526183844,0.07891217735596001,0.8678807485848665,-0.3826774824410677,0.8832953423261643,-0.15704454854130746,-0.312865536659956,-0.35922856332035738,-0.2332854480482638,0.8639061249559745,0.16659457422792912,0.626716919708997,0.6475254676188342,-0.0875025533605367,-0.7663730382919312,0.18685088912025095,-0.11498063430190087,0.6045482959598303,-0.5041389465332031,-0.09830442350357771,-0.8593903880100697,0.3330979065503925,0.5718131195753813,1.0893382178619505,-0.18209582194685937,0.2269614152610302,-0.8982551433146,0.14089026581496,-0.16867390647530557,1.1288734003901482,-0.9085208249744028,-0.1267465204000473,0.22126120375469328,-0.06870943307876587,0.7028247760608792,0.38112446514423939,0.9898100323043764,0.983212323859334,-0.9418912678956986,0.8013892080634832,0.6089051137678325,-0.03689487278461456,0.05629209661856294,0.27672849665395918,-0.13239729311317206,-0.21542536048218609,1.036935856565833,1.4838210567831994,1.148206188401673,0.5523377358913422,0.30386360362172129,-0.8545940625481308,-0.77268320415169,-0.3737592352554202,-0.07758460380136967,-0.8531197784468532,-0.09109130501747132,-1.1186298802495003,0.39995560236275198,-0.42829003976657989,-0.03794604167342186,-0.8655782155692577,0.4450004994869232,0.7134048249572516,0.6086439602077007,3.366175128147006,0.8049484193325043,-0.031910788267850879,-0.4142750222235918,0.14193530892953278,0.3669701712206006,1.068032395094633,0.6300821825861931,0.14630946330726148,0.6527617573738098,-1.7052260637283326,-0.7312383968383074,-0.0073061673901975159,-0.01909246388822794,-0.725565355271101,-0.8878261465579271,-0.4813413955271244,0.15706972405314446,0.9370220822747797,0.43971357867121699,-0.7995933145284653,1.0572256557643414,0.5757705185096711,-0.6736380197107792,0.050143634900450709,0.4224648168310523,-0.4310640022158623,0.7975239001680166,0.44681168999522927,-0.8879633210744942,0.4555719271302223,0.25399356661364438,0.6845610872842372,0.7470522029325366,-0.41210054513067009,0.016093977261334659,-0.5312320301309228,-0.39140489138662817,-0.6783928731456399,0.057116455398499969,0.7184121320024133,-0.7790042478591204,0.16411702381446958,0.7062563523650169,-0.6706681791692972,-0.11182370781898499,0.5704649090766907,-0.3376445749308914,0.7049664855003357,0.572748682461679,-0.36275422386825087,-0.44331477116793396,-0.02064422518014908,0.9149332055822015,-0.8130706418305636,0.07421307265758515,-2.431802988052368,1.4851993285119534,0.40593091678056228,0.790943312458694,0.9350561783649027,0.5222584381699562,0.2632588273845613,-0.5433350205421448,-0.07876076549291611,-2.042204542318359,-0.8591248020529747,0.5298649009782821,0.5270134210586548,-0.14570188149809838,0.12681539356708527,-0.32518697157502177,0.805103313177824,0.8521176446229219,0.24187891918700189,-0.8348545125918463,-0.12596533074975015,-0.8119588494300842,-0.9666675888001919,-0.16635020170360804,-0.13610456138849259,0.23989243665710092,1.1716461371688638,-0.32021570578217509,0.5310490131378174,0.45635684579610827,0.024801095481961967,0.20368521846830846,-0.3922226515132934,0.08965578861534596,0.7361703123897314,0.1947715594433248,-0.8549410402774811]},{"row":8,"column":8,"elements":[0.8702909853309393,-0.08229564130306244,-0.8115424923598766,-0.9623420797288418,1.637706933543086,-0.11097964365035296,0.7371790679171681,-0.6015254557132721,1.155506618320942,-0.19304202124476434,-0.6046370416879654,-0.26106137223541739,-0.09076010808348656,0.031772573478519919,-0.8819596720859408,-0.7926774695515633,0.3790178932249546,0.30150075489655139,0.8777456814423204,-0.5111100450158119,-0.9833448980934918,0.5002842148533091,-0.062032910995185378,-0.032148323487490419,-0.8900388418696821,0.92256895522587,-0.6054195649921894,-0.2484065608587116,-0.3820640780031681,0.3169907780829817,-0.38467101752758028,-0.2750445120036602,-0.5030641974881291,1.0011462233960629,0.7529365293084993,-0.555880069732666,-0.6271747648715973,0.005079515278339386,-0.03639540262520313,0.876177005469799,-0.3438950479030609,-0.18403156846761704,-0.4622260760515928,0.8309580460190773,0.7257429827004671,0.12687228340655566,-0.11197718093171716,0.07111444463953376,1.064743623137474,-0.12187758786603809,0.8909459230490029,0.27409345423802736,0.1330356909893453,0.40511317178606989,-0.1457054391503334,-0.12132772896438837,0.6411924250423908,0.44840560760349038,-0.0946536473929882,0.27521887794137,-0.5342093575745821,0.8569899434223771,0.12873323517851532,-1.2122121918946505]},{"row":8,"column":3,"elements":[0.17136919125914575,0.7592153698205948,-0.933942461386323,-0.2620495450682938,-1.382356527261436,-1.3093134919181467,0.6872380636632443,-0.4820473901927471,0.7872363775968552,-0.5581061518751085,-0.31055948324501517,0.4949048701673746,0.5022584786638618,0.8802710305899382,-0.5823205132037401,-0.5599854355677962,1.1584189236164094,0.40336702298372986,0.33831058628857138,0.7314191162586212,0.7311966046690941,0.24037568271160127,-0.8233047481626272,-1.0866356827318669]}],"biases":[{"row":1,"column":8,"elements":[-0.029476933181285859,0.8812648169696331,0.7280747729819268,0.4812161233276129,-0.06270538456737995,-0.3481648117303848,1.0589370466768742,0.34109455347061159]},{"row":1,"column":8,"elements":[-0.9166058055125177,-1.3935871124267579,-0.16217692010104657,0.7415566416457295,0.9586440653074533,0.4585998933762312,-0.39360860869055616,-0.6924386076861993]},{"row":1,"column":3,"elements":[0.3240684010088444,-0.7106462027877569,-0.9279355574399233]}],"inputSize":29,"hiddenSize":8,"hiddenLayers":2,"outputSize":3}