{"weights":[{"row":20,"column":8,"elements":[0.40529250353574755,0.16333165764808656,-0.7107367217540741,-0.3716892981901765,-0.6184036307968199,-0.32012823317199948,-0.19785418454557658,0.43884222069755199,0.409327226690948,0.11886631045490504,-0.27658342756330969,-0.23861548327840866,-0.3034096957417205,-0.06332898885011673,-0.5350474119186401,0.5486616231501103,-0.42188504058867695,0.38196241355035456,2.430169132305309,-0.9667145945131779,0.10338892717845738,0.4082164578139782,-0.004022798268124461,-0.5412110779434443,0.35866437340155246,-0.16534389182925225,0.7274702806025744,1.107819102704525,0.30513522401452067,0.7972763609141111,-0.2691872790455818,-0.7931491862982512,-1.0493354741483927,1.4734490178525448,0.09216746315360069,-1.0306779136881233,0.140696182847023,-0.22749707277398557,0.8331989529542625,0.05520292138680816,0.8033777326345444,-2.629320742562413,0.035236578434705737,-0.8360976874828339,-0.39082928374409678,0.3792283581569791,0.415143221616745,-0.7457570433616638,-0.4869795963168144,0.8843068741261959,0.6840690486133099,-0.7640524320304394,0.5096952948952094,0.2565221139229834,0.2313625414390117,-0.3859553597867489,-1.2413989212363959,0.17554883402772249,-0.152615774422884,-0.5173088312149048,-0.2814371585845947,0.5992892917711288,1.0878374860621989,0.18110845610499383,0.10649186559021473,0.6386051052249968,-0.7426481023430824,-0.9310386665165424,0.28813994489610197,-0.15219069458544255,2.781872710911557,-0.22760541504248978,0.1001826599240303,-1.4328701682388783,0.6858140965923667,0.7771154991351068,0.6280465424060822,-0.49578656535595658,-0.4330068090930581,0.511345555074513,-0.20098418090492488,-0.26737867621704938,0.6909813588717952,-0.23041105270385743,-0.9301525056362152,0.13610023353248835,0.879197717178613,-0.8139114186633378,-0.5044351480901241,0.5750980628654361,-1.778147879987955,0.7254530098289251,0.41276681097224357,1.173107011243701,-0.35270716762170198,1.0443361327052117,0.040259942412376407,-0.6348632434383035,-0.14922502730041743,-0.0277037862688303,1.6677511618472636,-0.6048993710428476,0.03082995116710663,0.9677551984786987,-0.38372643385082486,0.08847800921648741,-0.04202431906014681,-0.4469727296382189,-0.5842987296637148,-0.7639768728986383,-0.774644585326314,-0.8453703746199608,0.0244505787268281,-0.6796075291931629,-0.24708395078778268,-0.23938756436109544,-1.133129178546369,0.8912673625163734,0.6899483297020197,0.00002917647361755371,-0.24944756925106049,0.11971021723002196,0.6020629601553083,-0.8032528953626752,0.01752204168587923,0.2301258211955428,-0.4766679145395756,0.04561045509763062,-0.4282780010253191,-0.4555191505351104,0.7467243373394013,-0.6493962524691597,-0.2509262328967452,-0.8256495259702206,-0.3071428872644901,0.94317333586514,0.5071758478879929,0.21939989924430848,0.803200563415885,-0.18535952270030976,-0.7691800387110561,-0.716087294742465,-0.3776257373392582,-0.7598950263054576,-0.0006499458104372025,-0.9795641638338566,0.45286713913083079,0.6863073594868183,0.8033942822366953,0.45416833739727738,0.6984575130045414,-0.18640954978764058,0.21222830563783647,0.5496486984193325,0.5781853757798672,-1.0926992474123836,-1.1923376061022282,0.4460456147789955,0.46456543542444708,-0.05393791198730469]},{"row":8,"column":4,"elements":[0.5325692659243941,1.0297181643545628,-1.0251289522275329,-0.8089737123809755,-0.4011131674051285,0.7177752777934074,-0.4949983232654631,-0.28166339732706549,-0.23551982082426549,0.5132256411015987,-0.9454096965491772,0.9651407096534967,-0.07959472783841193,-0.7277603130787611,0.9348307733889669,0.0037309806793928148,-0.546388728544116,-0.4680006392300129,-0.7997478563338518,1.0022704675793648,-0.8039224641397595,0.4832535870373249,-0.49214945919811728,1.198113203048706,-0.811197065282613,0.5371005902998149,-0.04420728236436844,-0.4007892208173871,0.6434670053422451,-0.17493384098634125,-0.12273614574223757,0.7887046411633492]}],"biases":[{"row":1,"column":8,"elements":[0.9873479599773418,0.30343107879161837,0.43423429131507876,-0.08017441257834435,-0.1799208801239729,-0.5086280452087522,-0.647845484316349,-0.24482744373381139]},{"row":1,"column":4,"elements":[-0.8339318037033081,1.3397755306214095,0.1376236593350768,-0.8142238520085812]}],"inputSize":20,"hiddenSize":8,"hiddenLayers":1,"outputSize":4}