{"weights":[{"row":20,"column":8,"elements":[-0.7303802967071533,-0.8465353106148541,-1.0086994096636773,0.18279485241509975,0.576910694129765,0.7255700547248125,-1.3763760328292847,0.49445150687824937,0.6404134281910956,-0.29803791642189028,0.1538221538066864,-0.6945226527750492,0.3671381399035454,0.41363498754799368,-1.0243753576651216,-0.18380780704319478,-0.054201507940888408,0.6834752401337028,0.02256263978779316,0.057253940030932429,0.7527761664241552,0.5779149094596505,0.33453222550451758,-0.7875234325183556,-0.7691851817071438,-0.9092137012630701,-0.16712766978889705,-0.2440190203487873,-0.7282738052308559,-0.5335902189835906,-0.7594792395830154,0.46395588386803868,0.13984064478427173,0.5737400688230991,0.60900888312608,0.7723955288529396,2.1680495738983156,0.2139848694205284,0.6899112928658724,-0.33468105690553787,-0.7739823758602142,-0.32686734199523928,-0.7208335399627686,-0.0037849582731723787,0.25877705216407778,-0.16982374526560307,0.36321668652817609,-0.5814400557428598,0.25520333647727969,-0.49554083915427329,-0.42302339617162945,0.5941617814823985,0.9016902837902308,-0.7566751390695572,0.4587886445224285,-0.7443026024848223,0.14390556514263154,0.75942453276366,0.740398857742548,0.34933910332620146,-0.20331123238429428,0.4141622260212898,0.6928524542599917,-0.5750536294654012,0.5687336847186089,0.379495982080698,1.399285465478897,-0.9410913428291678,0.15575075522065164,1.002094536088407,-0.5821302607655525,0.8307645991444588,-0.8156912419945002,-0.8117353662382811,0.15456511452794076,0.17044297233223916,-0.5630643777549267,0.7969425991177559,-0.15654557547532023,0.6885603908449411,-0.219048410654068,-0.06194034963846207,-1.588009662926197,-0.44159066677093508,0.19164850562810899,-0.5904995519667864,0.37523073027841749,-0.8804931780323386,-0.36554350331425669,-0.1262565441429615,0.4670457001775503,0.3741070767864585,0.8095044605433941,-0.09007437154650688,-0.5887749567627907,0.563719978556037,0.9869361836463213,0.7879262082278729,-0.6262399349361658,-0.09845303185284138,-1.1182491779327393,-0.2388281763996929,0.3747609853744507,0.5801594301592559,-0.7921361643821001,0.5166403222829104,0.9391558617353439,-0.8316945135593414,0.8937962554919068,-0.5413134880363941,0.504646111279726,-0.621293107047677,-0.3748586028814316,-0.1647135689854622,0.5299369577551261,0.6943868510425091,0.30436114640906455,0.24157799244858325,0.7346747685223818,-0.9593399381265044,0.6656080521643162,-0.05394980637356639,-0.0030289292335510256,0.19615210220217706,-0.2645008936524391,-1.1027493104338647,0.7272001132369041,-0.3120853304862976,-0.025025067385286094,-0.3596737929619849,-1.472733497619629,0.565028814598918,0.2933977171778679,2.380553428316489,0.5234354818239808,0.7327807256951928,0.24268665816634894,-0.6807371489703655,-0.7659284006804228,-0.3803206221200526,0.16743099689483643,-0.8352903705090284,1.0079809417948127,-0.6287822928279638,0.8330385964363813,0.80020397529006,-0.7503604236990213,0.8301415352616459,-0.1854397298884578,0.25720225705299529,-0.025317566469311715,0.39422088488936427,0.9429916385561228,0.7388836822938174,-0.533598143607378,-0.7050744090229273,-0.057637859834358099,-0.22939599305391313,0.8855116758495569,-0.4272655285894871]},{"row":8,"column":4,"elements":[2.776648923754692,-0.6665362697094679,0.17987831588834525,-0.4102592412382364,-0.986672560335137,0.7197325779125094,0.8888445198535919,-0.9053761120885611,0.4745086394250393,-0.9130513393320143,-0.5819212938658893,1.575400996953249,-1.8617925277212635,0.14465990103781224,1.1603003391064704,-0.5812073964625597,0.6965085358824581,-0.39409708650782707,0.027625810354948045,-0.4047497268766165,0.43263160064816477,-0.024008754640817643,-0.40500908624380829,0.21722066402435304,0.00665803998708725,-0.4471420180052519,-0.12134992051869631,-0.1635800525546074,0.4601379558444023,-0.41001513227820399,1.0052004884928465,-0.21030056104063989]}],"biases":[{"row":1,"column":8,"elements":[0.2602624073624611,0.11959233786910773,0.7783737168647349,-1.0558755304664374,-0.05584132485091686,0.5882123038172722,-0.25812041759490969,-1.149522258900106]},{"row":1,"column":4,"elements":[-0.28581706155091526,0.8484147121198475,-0.20633910759352148,-0.07439343258738518]}],"inputSize":20,"hiddenSize":8,"hiddenLayers":1,"outputSize":4}