{"weights":[{"row":26,"column":8,"elements":[0.09855327219702304,-0.5610903149936348,-0.4726982247084379,0.05910126306116581,0.6897425875067711,0.8456245316192508,0.7584342816844583,-1.0426568924449385,0.8835623660124838,-1.007854675874114,-1.0162852238863707,1.0267241055844352,0.5033928193151951,-0.9106717593967915,-1.078067695721984,-0.5312750823795795,1.7025729528977536,0.11846913304179907,-0.2514379434287548,1.1239654142409564,0.9088288794737309,-0.8949666288681328,0.9171173330396414,-0.3154537156224251,-0.8770373705774546,0.6702589206397533,-0.44333265349268916,0.33116378998965959,0.30699917674064639,0.3356671668589115,-0.3124023303389549,0.0048879049718379978,1.2052211686968804,-0.3602221328765154,0.1325728865340352,-1.1713808750500903,0.7322533950209618,1.000735729932785,-0.29739033058285715,-0.5695979176089168,0.44142623245716097,-0.2722536623477936,0.1542801270261407,-0.4164574733003974,0.2781042568385601,0.2679044380784035,-0.8212712137028575,0.6637129075825214,-0.7352821826934815,0.515418624971062,1.0017237793654204,0.979218396358192,-0.7080349670723081,-0.5020828009583056,0.11292830854654312,-0.12152467854321003,-0.6760096792131662,-0.5845231590792537,0.8688827101141214,-1.0563345309346915,-0.30149487778544428,-0.8960547801107168,-2.539156198501587,0.0937147680670023,-0.2476569339632988,0.25721024721860888,-0.3283470794558525,-0.5093008996918798,-0.4854686828330159,-0.37062891107052567,0.06166253611445427,0.5748771829530597,-1.03075628913939,0.8527219500392675,0.5060881786048412,-0.9425976015627384,-0.5107652731239796,-1.341500474140048,-0.6076537650078535,0.6426071897149086,0.787573584006168,0.07905292045325041,0.232108935713768,-1.0185306882485748,0.43208869732916357,-0.1649048887193203,0.3284495850093663,0.6770489907357842,0.3840385442599654,-0.7866944521665573,0.24340913444757462,-0.2747325645759702,0.6533063694369048,0.45828251726925375,0.3799276053905487,0.2546418644487858,0.6799555546604097,-0.835486613214016,-0.9305839464068413,0.6644078213721514,0.05511967092752457,2.11037440598011,-0.9073513299226761,-0.9212325112894177,-1.637166976928711,0.686875993385911,0.57244623452425,-0.7839302569627762,0.07395278476178646,-0.7678609285503626,-1.0543480347841979,-0.21004029759205879,0.8743988461792469,-0.893476665019989,0.273758877068758,-0.29675722122192385,-0.04110092483460903,0.08504220843315125,-0.4653005339205265,0.255464194342494,-0.5493451356887817,0.3351580798625946,0.6451335996389389,0.44397518411278727,-0.27749795839190485,-0.10053802173933946,-0.5677823787555099,1.0202451348304749,-0.34248763509094717,0.3755244705826044,0.5091221248731017,-0.7971844971179962,0.21215426176786424,-0.8425861215218902,-0.2688244432210922,0.745482666650787,-0.5658173959236592,0.1933002546429634,0.9705485572339967,-0.4073330909013748,0.037182312458753589,0.5386389866471291,-0.7350692115724087,0.2554450109601021,-0.6173865632154048,0.7893561813980341,0.9763518860563636,-0.8014880791306496,-0.539592063985765,-1.3365315198898316,-0.28917469177395108,-0.37060901150107386,0.5648175869137049,0.6979734497726895,-0.10540444776415825,0.0990600734949112,0.2974176714196801,-0.6180630512535572,0.6766419187188149,-0.12353743799030781,0.4474164496641606,0.1891236174851656,0.545807458460331,0.6255883583799005,0.3187844567000866,0.4194488078355789,-0.139689102768898,-0.26647400856018069,1.2632688479498029,-0.45612314902246,-0.5964425555430353,0.44347991794347765,0.40100881457328799,0.8810151806101203,0.32600272446870806,0.757399445399642,1.0200747698545457,-1.0246838030871004,-0.22778165340423585,-0.949465827550739,-0.4841357786208391,-1.0604721829295159,-0.807748269289732,-0.2742279744707048,-0.9128399509936571,0.33931506890803578,-0.6804319936782122,0.7907636258751154,-0.20061269402503968,-0.4790533445775509,1.1707200966775418,-0.9537901114672422,0.5210808962583542,0.603077070787549,1.3286995561793447,0.31196524389088156,0.306346382945776,-0.2099432796239853,-0.03787632193416357,0.11887119151651859,-0.14936350844800473,0.7543107159435749,0.4768983405083418,0.19609038531780244,0.8235488468781114,1.7259025573730469,0.7010151373688132,-0.1485632974654436]},{"row":8,"column":4,"elements":[0.4023560811765492,0.7121320557780564,-0.3715458642691374,0.15482674539089204,-0.5025516655296087,0.27445657923817637,0.5163362212479115,0.5700095631182194,0.07815910130739212,0.4936931896954775,0.36763356253504755,0.3842960298061371,0.8151809531264007,0.06766396388411522,0.07131916284561157,-0.4912149254232645,0.39419988449662926,0.6988888829946518,0.3349242575932294,-0.5924686184152961,-0.6064677387475967,-0.02793932892382145,-0.5651812851428986,-0.7487372700124979,0.06454038433730602,0.7121769599616528,0.8261499982327223,-1.4563655853271485,-0.2825326882302761,-0.07458322867751122,0.8682308178395033,0.6227457269560546]}],"biases":[{"row":1,"column":8,"elements":[0.6579325925558806,0.25746333599090578,-0.9804989350959659,-0.06268385052680969,0.7115626335144043,-0.7277854667045176,-0.011346011888235808,-0.620737818069756]},{"row":1,"column":4,"elements":[-0.6948999669402838,0.6591710541397333,0.5618253024294972,0.23953044973313809]}],"inputSize":26,"hiddenSize":8,"hiddenLayers":1,"outputSize":4}