{"weights":[{"row":26,"column":8,"elements":[-0.11596236377954483,-0.9052739136386663,0.9422522205859423,-1.2362222103402019,-0.5386709948070347,-0.5860241083428264,-0.3545775569509715,0.11691376753151417,0.9407542189583182,-0.14586525782942773,1.2381363892927766,-0.3580395393073559,0.2103781783953309,-0.016348807141184808,0.5210789479315281,-0.0833149403333664,-0.38092856254661458,0.8320647478103638,0.34591917833313348,-0.8209935179911554,-0.7456914186477661,0.34989944379776719,-0.9271012842655182,-0.5685157608240843,0.00861714594066143,0.5748199787922204,-0.526431948877871,0.46506859827786686,-0.6509229517541826,0.3781044278293848,1.0120369053911418,0.571024265140295,0.5395918050780892,0.5683630499988794,0.01608681003563106,0.7630426418036223,0.4987906366586685,-0.039205449633300307,0.41476648789830508,0.45034862123429778,-0.0506699881516397,-0.08806877117604017,0.8926673540845513,-0.20062970649451018,-0.5738614397123456,0.7083563357591629,1.110205553472042,-0.45768819004297259,-0.4498845599591732,0.2953722793608904,0.6842670692130923,-0.13813829235732556,-0.35040216986089947,-0.9494764246046543,0.8289330652914941,0.7215027979982551,0.5461042281822302,0.07274132780730725,-0.044286200776696208,0.16105685010552407,0.44557284796610477,-0.3985532568767667,-0.2447270846578249,0.014044761192053557,0.6707768877968192,0.2064982270821929,0.04939833749085665,-0.5365387559868395,-1.5403231717646123,-0.3512640818953514,0.30604964308440688,-1.1057823412120343,-0.9684300941880792,-0.7435227492824197,-0.2199623193591833,-0.716264009475708,1.0997193958610297,0.10056489147245884,-0.007223545573651791,4.208418783731759,-0.40782700665295126,0.31302354484796526,-0.4146235703956336,-0.1111717876046896,0.15220114216208459,0.0902911270968616,-0.41731026768684389,-0.1987794078886509,-0.5418170713819563,-0.7215772015042603,-0.7227882875595242,-0.2731072624010267,-0.1584859894355759,-0.5398903391323984,-0.6766609493643045,0.4680427107959986,-0.028046533465385438,-0.4218232687562704,0.9041755637153983,-0.6729466915130615,-0.00935720931738615,1.0477659115567804,1.410376537591219,0.4986402794602327,0.5736325196921825,0.7717777192592621,0.05049764853902161,0.04816758073866367,-0.7914062645286322,-0.7014677422121167,-0.23859053570777179,1.1533811129629613,-0.07919141463935375,0.532562093809247,-0.7256070980802178,0.22667674627155066,-0.5279468651860952,-0.7874405779875815,1.0988181483116933,0.07536045834422112,-0.1761679110932164,-0.7127448301762343,-0.8197506852447987,-0.3459175464231521,-0.30035538226366045,-0.4119532285258174,-0.48418143717572095,-0.428575279423967,-0.019840651657432319,-0.9669025149196386,0.858861779794097,0.08574930255417712,0.29427798971300947,-0.3888996373862028,-0.6496629603207111,0.583954521920532,-0.07135848281905055,0.6900569357676432,0.3232014626264572,-0.429900280199945,0.25428370386362078,0.9059508815407753,-1.4074741248041392,0.7791646085679531,0.27581324940547349,-1.4628946715965868,0.06808880413882435,0.14714235858991743,-0.12743970844894648,0.5508894119411707,-0.5748246088624,1.0412862319499255,-0.9221181124448776,0.15301443729549647,-0.5541730239056051,0.4729928821325302,0.09087771544000134,0.6207565102959052,-0.15859072702005506,-0.6174030564725399,1.0760537758469582,-0.14169606566429139,-0.057377103017643097,0.19968786207027734,1.0095295699657073,0.5679062744602561,-0.00011908402666449547,-0.4594929344020784,-0.5416565351188183,-0.4899672605097294,-0.4879466197453439,-0.7145271580666304,-1.0207749921828509,-0.5648941565304995,0.6559322221437469,0.12212904170155525,0.334776796400547,0.6631478917552158,-0.09796258807182312,-0.7134318439057097,-0.8252990245819092,0.8063230710104108,0.15973147936165334,-0.9045603778213263,0.23844976723194123,0.9016036130487919,0.8335501551628113,0.011215274105779827,-0.8366106394678354,-0.28820180357433858,0.9369837045669556,0.4522759437095374,-0.3765846360474825,-0.019179004710167648,-0.549843842163682,-1.1067552752792836,0.7283122497610748,-0.22102889884263278,0.6485464342404157,0.24083678144961596,0.8232599971815944,-0.3227689629420638,1.095125451683998,0.33055603643879297,0.2589089423418045,0.817900693975389,-0.04863756150007248,0.6605745255947113]},{"row":8,"column":4,"elements":[0.7660056483000517,0.6663868259638548,0.5442921370267868,-0.16336148232221604,-1.4810808897018433,0.025823574513196946,0.3386291563510895,0.44819417875260117,0.5538818128407002,-0.623177697416395,-0.6069275522604585,-0.04869217053055763,-0.3247707448899746,0.3400539215654135,-0.6347908414900303,0.6241337028332055,-0.3968399353325367,-0.35911448299884798,1.2302153372438625,-0.9775667035428342,1.0984201021492482,-0.28526296466588976,-0.4665590706281364,-2.1356910495087506,0.6729353263508529,0.6334591992199421,-0.4825921133160591,0.12642954662442208,-0.08392818551510573,0.5579343172721565,0.37906449008733036,-0.1195956056471914]}],"biases":[{"row":1,"column":8,"elements":[0.49169132206588986,-0.25453477166593077,-0.5078693768009543,0.8642353928880766,0.7502225078642368,0.9499260761076585,0.8054238478653133,-0.50605035177432]},{"row":1,"column":4,"elements":[-0.4854153171181679,0.28031046129763129,-0.5741151003167033,-0.08680648542940617]}],"inputSize":26,"hiddenSize":8,"hiddenLayers":1,"outputSize":4}