{"weights":[{"row":23,"column":8,"elements":[0.07905467599630356,-0.6561147553147748,0.3478408772498369,0.012812123633921147,0.4776321092940634,-0.08546076528728008,0.3976087402552366,-0.08434138633310795,-0.36648130510002377,-0.4461007497739047,-0.5805180803872645,2.1221626233309509,-0.10660326294600964,0.25285036675632,-0.5410801554098725,0.3360976204276085,0.06232453935081139,0.057081254199147227,-0.2947852653451264,-2.8010472990572454,-0.8657666884828359,0.5820216611027718,0.41251084115356209,-0.06916028168052435,-0.5625008419156075,1.41846764087677,0.9014611295424402,0.3576895361766219,-1.096681771799922,0.5855803855229169,0.14279758371412755,-0.4509839667007327,0.5829669367522001,0.17054060101509095,0.2582048401236534,-0.035136524587869647,0.36905253771692517,0.9393062796443701,-0.22299417480826379,0.5827160044573247,-0.46001366153359415,-0.30072902515530589,0.2873706736136228,1.62730872631073,0.4019037502584979,-0.17204862646758557,-0.8306571431457996,0.5923369349911809,-0.5153756756335497,-0.22275034710764886,-0.17648981045931579,1.574050784111023,0.20833570323884488,0.47738225921057167,0.5179764814674854,-0.6438760720193386,0.3302028477191925,-0.5406137146055698,0.829416953958571,0.20487680938094855,-0.35131313977763059,-0.6538722841069102,0.530554823577404,-1.2629779866729223,0.14696084801107646,0.7520062476396561,1.5475822687149048,0.009376231580972672,0.6700710682198405,0.175439958460629,0.13580075046047569,0.059967732056975368,0.3240711111575365,-2.294985302723944,0.03107195347547531,0.09106209874153137,0.6637477586045861,0.6254689134657383,-0.45780711621046069,-1.8161677978932858,0.7502705492079258,-0.12504812330007554,-0.4484960287809372,0.12068599462509155,-0.9135160320438445,0.09710691682994366,-0.45114427991211417,1.5703933211043478,-0.12920697126537562,-0.08038647472858429,0.5873825054150075,-1.6805570125579835,-0.48305173590779307,-0.8195232041180134,-0.45697355922311547,-0.7480964921414852,0.2567402353743091,-0.6993584779556841,0.6666485411114991,0.165464349091053,-0.8868348728865385,1.4706181287765504,0.14026829227805139,-0.5534568610601127,-0.16409482061862946,-0.7152809277176857,0.2457788092433475,1.8077930677682162,-0.2491598417982459,-0.5317630283534527,-0.04076199419796467,-0.11626958288252354,-0.6846799184568226,-0.06738897506147623,1.3488794565200806,0.6918560825288296,-1.55875751003623,-0.06721108499914408,0.5588514469563961,-0.7712082779034972,0.23025825573131443,-0.7060872502624989,0.703285071067512,0.03483913087620749,0.7528580967336893,0.8821807717904449,-0.27033882521209309,0.6148128937929869,-0.6774951233528554,-1.2162951175123454,0.188044928945601,-0.0017964169383049012,-0.3325344156473875,-0.5099990470334888,-0.2788055781275034,-0.153954500798136,0.5314110815525055,0.7834773100912571,-0.4229863537475467,-0.8628433477133513,0.1357495984993875,-0.34299897600430997,0.45941189490258696,0.07316549820825458,-0.022386465221643449,0.2816741134156473,1.6709828851744533,0.22354376129806043,1.0783014399930835,0.1465186160057783,0.3326067868620157,-0.31076857820153239,-1.058075100183487,0.6718480051495135,0.4530200120061636,0.8206505490379641,0.5291681298986077,0.89836017601192,-0.3073463086038828,0.11932121403515339,0.9699916709214449,0.9548741856124252,-0.7269050218164921,1.1396557185798884,-0.11658032983541489,-0.4548700135201216,0.2923031933605671,0.6894584286492318,0.42531407065689566,0.2081244196742773,-0.6076710410416126,1.0491749588400126,0.02650555968284607,0.26267234608531,0.6900113970041275,0.8692205855622888,0.3025273596867919,-0.2488296936498955,-0.5192268645623699,-0.17877822369337083,-0.5245038196444511,0.6284198960638605,0.2759946302976459,0.23060405254364015]},{"row":8,"column":4,"elements":[0.4227431956678629,1.0523549488279969,1.3762365011498333,1.1071576531976462,0.4773176461458206,-0.20399129996076227,0.7143294904381037,0.5290224950294942,0.8283973587676883,0.09574787132441998,-0.03289585234597325,0.6687417705543339,-0.6903377293492667,0.6076201014220715,-0.4270392283797264,0.9086733367294073,0.894517214037478,-0.6420801007188857,0.10612025624141097,-0.12004847917705775,0.8875740841031075,0.29612590838223698,0.07527224998921156,0.17171216383576394,0.19360339734703303,1.1157768946141005,0.3410323206335306,0.5516209285706282,-0.2149864286184311,-0.5133405272499658,-0.539390878751874,0.012347487732768059]}],"biases":[{"row":1,"column":8,"elements":[0.5267085949890316,-0.779731746762991,0.5149300890043378,0.3046424202620983,-0.6605992130935192,-0.11540459655225277,0.5094274915754795,0.709789517801255]},{"row":1,"column":4,"elements":[-0.04047608934342861,0.9031311077997088,-0.5768067836761475,0.7821514569222927]}],"inputSize":23,"hiddenSize":8,"hiddenLayers":1,"outputSize":4}