{"weights":[{"row":29,"column":8,"elements":[-0.36573097854852679,-0.07236931379884482,-0.6337513700127602,-0.8622585572302342,0.04817502200603485,-0.6453217267990112,0.529350102879107,0.302173538133502,0.5129194557666779,-0.29233045876026156,-0.5588196869939566,-0.11746117658913136,0.47010285407304766,-0.11228011175990105,1.2143422365188599,0.7113830242305994,0.5905833560973406,-0.7586437650024891,-0.8835391057655215,0.10928818583488465,0.25138679608062378,0.7038631532341242,-0.6066968608647585,-1.1076605887210463,0.1739458069205284,1.030307237058878,-0.17054410558193923,-0.3338092560879886,0.8293530489318073,-0.1849566288292408,-0.22125842794775964,-0.2899403991177678,0.5911586359143257,0.9744119544047862,-0.3771889843046665,0.05279170162975788,0.721961610019207,-0.27895756624639037,0.01935664750635624,-0.43475914164446297,-0.243937524035573,-0.14913562359288336,-0.7887906273826957,-0.5408505797386169,-1.055687591433525,-2.0019154734909536,-0.45037705544382336,0.9142838977277279,1.0609876960515977,0.22734599688556046,-0.8117899857461453,0.9378578923642635,-0.6983536537736654,-0.9334200685843825,0.9060014048591256,-0.3268468100577593,-0.7199019861873239,-0.7061435952782631,-0.060362160205841067,-0.6044819429516792,0.17494771210476757,-0.1995254009962082,0.843532582744956,0.9828372597694397,0.22241513431072236,0.1423477155622095,-0.22086631320416928,-0.6128827519714832,-0.5187136819586158,0.31210984848439696,0.06347910454496741,0.7557832691818476,0.12439713627099991,0.08605180587619543,0.19043193943798543,1.019081711769104,-0.6904270630329847,0.3398977816104889,-0.5473830588161945,0.1474715881049633,0.729176476597786,-0.5989872869104147,0.030532137490808965,0.04919098597019911,0.4184786304831505,0.1366516351699829,-0.038112590089440349,-0.2464101486839354,-0.14619037508964539,0.3292201403528452,-0.5373266544193029,0.23815416125580669,0.8545838752761483,-0.5043622134253383,-0.5859418390318751,-0.7696782690472901,0.6048627166310325,1.8175718784332276,-0.34489045664668085,-0.5620811991393566,-0.7617725133895874,-0.7957299537956715,-1.0021191481500865,-0.8148828437551856,-0.15278196148574353,-0.4906594408676028,-0.42358291521668436,-0.24719590693712235,0.47592038847506049,-0.8077085614204407,0.9546351097524166,-0.660976508166641,0.5029120547696948,-0.9601264870725572,-0.2735506147146225,-0.1228552758693695,-0.9147008690051735,1.0226697120815516,0.3680492267012596,0.6375827519223094,-0.06299931090325117,0.9823057968169451,0.5220951400697231,0.6579387658275664,0.5168216843158007,1.0252998005598784,0.04383604973554611,0.3929139133542776,1.0665182298980654,0.1942412288626656,0.5573265738785267,0.9681017212569714,-0.4062751829624176,0.6206130981445313,-0.8757435223087668,0.6243798080831766,-0.6892470791935921,-0.016682027839124204,-0.30342110991477969,0.9619400147348642,-0.06268302560783923,0.5628062235191464,-0.7384263724088669,-0.9493040908128023,0.9063961654901505,-0.14208791963756085,-0.34351898543536665,1.0620707096531988,-0.4709017709828913,0.24187355273170398,0.55326908826828,-0.5022614635527134,-0.5493626967072487,-0.31157660484313967,-1.7984478445723653,-1.05620420537889,0.06921269136000774,0.6143747987225652,0.14233813527971507,0.304574538487941,0.053141080774366859,0.7255242113023996,1.0046428465284408,-0.02409665286540985,0.22016029164660723,-0.0031289663165807726,-0.5089653795585036,0.5880130529403687,-0.4024243429303169,-1.2427568214479834,0.08132890425622463,-0.0842021298740292,-1.0442350218072534,0.22415482997894288,-1.0232168284710497,-0.4474230036139488,-1.08458885923028,0.26962801441550257,0.7614935794845223,0.4429856613278389,-1.0123431328684092,0.7022252483293414,-0.23498387075960637,-0.34361498430371287,-0.854955555871129,0.0743802881333977,0.628655813401565,-0.7565026539377868,-0.42925540497526529,0.08391816355288029,0.48615693114697935,-0.14103136956691743,0.33423917298205199,0.11863304302096367,0.08558790199458599,0.92886096611619,-0.6413790956139565,-1.1091693192720414,0.48851664885296489,0.020246093161404134,-0.6409723656252027,0.17993288300931455,0.5335072297602892,0.288280189037323,0.442896347027272,-0.5945127671584487,0.09862651769071818,-0.32882189005613329,0.27206087158992889,-0.13115978194400669,-0.12151957536116243,-0.09694063663482666,-0.207789933308959,1.1945052035152913,0.24154694145545364,0.8537236116826534,0.7555331290932372,0.281343549489975,0.7818211144767702,-0.23172037303447724,-0.46498135570436718,-1.3572043105959893,-0.7769424736034125,0.18512978579383344,0.9420998049899936,-0.27753325924277308,-0.2026331154629588,-0.04464401677250862,0.7202633172273636,1.3464219570159913,-0.8462636955082417,0.3614583434537053]},{"row":8,"column":8,"elements":[-2.077533893287182,1.0208827648311854,-0.6842186991125345,0.10133302956819534,0.17045089043676854,0.200364101678133,0.19027161365374924,0.38828612118959429,-0.8276186310686171,-0.4660543203353882,0.2888707183301449,-0.06908548064529896,0.5112766679376364,-0.2999218665063381,0.38043832406401636,-0.5915770655265078,0.7558289766311646,0.43404535204172137,-0.4975050389766693,-0.05914036394096911,0.5119770601158962,0.01828452479094267,-0.3424210296943784,-0.9268969227559865,-1.2697256468236447,-0.4547923542559147,-0.7194383861497045,0.45208289474248888,0.3045900836586952,0.9953044019639492,0.03917972557246685,-0.6155447792261839,-0.6542122885584831,0.47237930819392207,0.44675074331462386,0.4858316648751497,-0.8620184175670147,0.6802058599423617,0.4220742345787585,-0.46115073550026866,0.5011647939682007,-0.771414729882963,-0.11913716793060303,0.17472617700695992,-0.49991259910166266,-0.3457246785983443,-0.9476639777421951,0.8007119726389647,-1.0297835357487202,0.8148107258602977,0.6101385829970241,0.6346225067973137,-0.7609509788453579,-0.18580729700624944,-0.17697639763355256,-0.6072615515440702,0.026337199844419957,0.9352947901934385,0.3757165614515543,-0.050062937662005427,0.09466575086116791,-0.644306116271764,-0.6907161572016776,0.7895613834261894]},{"row":8,"column":3,"elements":[1.0628000665456057,0.35388970002532008,0.9209089875221252,0.7001250497996807,0.8959404518827796,0.544020414352417,-0.38771018758416178,-0.176747206132859,-0.35904032416874545,0.9210710413753986,0.0797957219183445,0.29840503074228766,0.8777668159455061,-0.4105683630332351,0.05474753677845001,-0.7676085839048028,1.7317679673433304,-0.6980023384094238,-0.8403600845485926,-0.37191933766007426,0.20128974132239819,-0.10936070140451193,0.8212137706577778,-0.9546256102621555]}],"biases":[{"row":1,"column":8,"elements":[0.2515108808875084,0.8721317201852799,0.637239228002727,0.4164237231016159,0.24509168788790704,0.3380054412409663,0.4191515874117613,0.4244320020079613]},{"row":1,"column":8,"elements":[-0.07626474183052778,0.1784481704235077,0.5175042822957039,0.6583997122943401,-0.07028746922151186,0.9293155670166016,-0.4602642508689314,-0.5804172027856112]},{"row":1,"column":3,"elements":[0.5145118082873523,-0.9572010338306427,-0.5995834469795227]}],"inputSize":29,"hiddenSize":8,"hiddenLayers":2,"outputSize":3}