{"weights":[{"row":29,"column":12,"elements":[-0.40057724714279177,-0.7962306812405586,0.4187281830236316,0.17301365733146668,-0.9019035266246647,0.003035709261894226,-0.643462136387825,-0.8875254662707448,0.3214601054787636,-0.23782231099903584,-1.2648796318098903,-0.7427113232552074,0.5225743651390076,-1.106700662523508,-1.8115068348124624,-0.7623399868607521,0.8107055351138115,0.9282621555030346,-0.8354858674574643,0.483737176284194,-0.6395000442862511,-0.9035570248961449,0.9135503694415093,0.6415318893268704,0.6598802474327385,-0.29511813074350359,0.24826588248834015,-0.11817105859518051,0.4458157764747739,-0.5083207935094833,0.6321776323020458,0.7703715465031564,-0.5157287660986185,1.5025476962327958,0.4110099244862795,0.9698524604318664,0.1781473271548748,-0.4520147778093815,0.44869707711040976,-0.8642909843474627,0.6058612708002329,0.521665645763278,-0.20177257433533669,0.22154046094510705,0.5374539392068982,0.7500003455206752,-0.19530023634433747,-0.13669062859844417,-0.5542767755687237,-0.07077481396845542,-1.1375637343153358,-0.9348848115187138,-0.1323359590023756,0.7533243237994611,0.7012455966323614,-0.4302200675010681,0.5425159791484475,0.19603038392961026,0.2164029935374856,0.1787521643564105,-0.3888626703992486,-0.2904836805537343,0.655923836864531,0.38956067990511658,-0.5020642541348934,0.9377789723221213,0.8954932894557715,-0.6874534031376243,-0.42317768232896926,0.3834265726618469,0.9527029246091843,1.1855040406808258,-0.48277593962848189,1.07752672303468,0.18625961523503066,0.842481903731823,-0.8965825438499451,0.5182152204215527,-0.41212924057617786,1.0736042503267527,-1.0149337481707335,0.711016409099102,-0.06095166504383087,2.0026490688323976,-0.29246389819309118,-1.141332822619006,-0.4010175955481827,0.3841508701443672,0.12705339025706054,-0.7877109795808792,-0.8350203111767769,0.11609314195811749,0.6046272350940853,0.8793763937428594,1.3693347591906787,-0.5017973706126213,0.9204239306272939,-0.1499280035495758,1.2938432209193707,0.1957813110202551,-0.27483389852568509,-0.054607394617050889,-0.42224009020719679,0.3153702630661428,-0.7225626893341541,-0.7818921804428101,-0.5891622956842184,0.3195757083594799,0.10681353486143053,-0.4778648056089878,-1.8745335806161166,0.2782485745847225,-0.06899654865264893,-0.7954019238241017,0.38958150148391726,0.2803510194644332,-0.3762044459581375,-1.501590609550476,0.08242934942245484,-1.0444312244653702,-0.5181838879361749,0.780694030225277,-0.89143324829638,0.23796460253652186,0.2067394256591797,-0.4938700720667839,0.8263299260288477,0.5803970890119672,1.082032324746251,-0.2887505292892456,-0.8757694065570831,-0.23606013972312213,0.7594599989242852,0.3569614812731743,-0.33145649265497925,0.6607933193445206,0.19543548207730056,0.5455802716314793,0.37547347554937007,-1.3198769930750132,-0.581808302551508,-0.19957303255796433,1.0205073840916157,-0.8638617806136608,-0.9805456921458244,0.19840028882026673,-0.8317977860569954,0.41111447289586069,-0.905263427644968,-0.7128013670444489,0.9217693647369742,-0.13051488064229489,-0.1151253953576088,-0.7920677866786718,0.6834896104410291,-0.06158686988055706,0.8080511670559645,-0.3295747432857752,-0.20792079716920854,0.5789216458797455,-1.0365728754550219,0.1762334555387497,-0.1694866307079792,0.5467748465016484,0.31806788593530657,0.5324870820622891,1.0314383059740067,0.6816748455166817,0.5214127227663994,0.47495439276099207,-0.9811290837824345,-1.1297899428755046,0.6887772148475051,1.016250954940915,-0.29985201358795168,-0.44829256972298028,-0.08148691151291132,0.8169066393747926,-0.11388519033789635,0.21769995987415315,-0.24143523979000748,0.5468255281448364,0.5624186210334301,0.06519454950466752,-0.04131193133071065,-0.2233692309819162,0.9824640853330493,0.7205429512541741,-0.4431667395401746,0.8707965607754886,0.12103579007089138,-0.583618248347193,-0.9161968901753426,0.38832202553749087,0.5590407510753721,-0.7914223968982697,-0.7299216017127037,-0.2590465284883976,0.7620476894080639,-0.7916455185040832,-0.6987539026886225,-0.15355940908193589,1.260436361655593,-0.35859700106084349,-0.3296748101711273,-0.5901132505387068,0.05342796631157398,-0.3465385602321476,0.8330000713467598,0.5970591148361564,-0.014189214445650578,-0.1923237107694149,-0.4535768888890743,0.6843197774142027,0.7647094503045082,-0.1419051387347281,0.8098962157964706,-0.35336930491030218,-0.8644668339984492,0.6741953988093883,-0.021442881785333158,1.4809199515730143,0.7976686509791762,-0.6017614379525185,0.8644506325945258,0.3720156531780958,-0.762235383503139,-0.9367319941520691,-0.3586547113955021,0.4259318495169282,-0.623827338218689,0.8511654976755381,-1.176232187077403,0.7889166884124279,-0.9169476255774498,-0.7744711237028241,0.6743671745061874,-0.6717241331934929,0.34016576781868937,0.24651606008410455,0.9373000483028591,0.8492723219096661,0.3795713181607425,0.16939863935112954,-0.22953239176422358,-1.255800197366625,0.09117107093334198,0.7437759637832642,0.021872167009860278,0.5730884671211243,-0.7016956489533186,0.6476927219191566,1.5945016220211983,0.047325942665338519,0.5041185575537384,-0.9299699082039297,0.999049887759611,0.8015303355641663,0.25728423288092019,-0.5870014429092407,0.22913291258737446,-0.42650914611294868,1.6133937016129494,-0.9287238381803036,0.7917988393455744,-0.3034061761572957,-0.0034003667533397676,-1.0242692679166794,-0.8092860039323568,-0.6721285954117775,0.39518556743860247,0.07724005915224552,-0.33223290741443636,0.5984550733119249,1.2633098848164082,-0.14308366877958179,-0.280958853662014,-0.16950281825847925,-0.14264817954972387,0.7802023179829121,0.6205989513546228,-1.0060774013400078,0.6716186031699181,1.03864759625867,0.13074008002877236,-0.6770589426159859,-2.7892813682556154,-0.3156703235581517,-0.17715702578425408,-0.03372375853359699,-0.05658062361180782,-0.3030536533333361,0.26412717532366516,-0.4932657266035676,-0.56272117421031,0.04567697271704674,-0.5529570057988167,0.5314216958358884,0.2797464467585087,0.8084341033827514,-0.13778525264933706,-0.8021114795119502,0.21265890821814538,-0.9918615333735943,0.2604249082505703,-0.9461726807057858,0.8367013148963451,-0.9472846344579011,0.7157654669135809,-0.741578733548522,-0.35786263085901739,-0.07916236203163862,0.4891740083694458,-0.5759172216057777,0.8928406462073326,-0.5036365548148751,0.43443089397624137,-0.9788892045617104,-0.1266469215042889,-0.4813564957585186,0.6373093277215958,-0.6224696326535195,-1.1303467135876418,-0.4620024058967829,0.8813660554587841,1.7678631581366063,-0.2512137219309807,-0.29665425792336466,0.4829553538002074,1.5281492703943514,-0.495660416316241,-0.650901229120791,-0.7321167094632983,-1.2680640937760473,-0.11389889335259795,-0.2768669534707442,-0.8230869472026825,1.041637709364295,-0.6336474940180779,0.5642361044883728,-0.0577671080827713,0.48428481817245486,-0.3738689685706049,-0.33658258989453318,-0.024868101812899114,0.9114254047162831,0.37468041107058527,0.42785272374749186]},{"row":12,"column":12,"elements":[-0.1374354101717472,0.25571171939373019,0.5888114497065544,-0.9393440125204506,-0.464994203299284,-0.13566579949110747,0.8743106722831726,-0.2570055890828371,-0.8161634393036366,-0.3073636507615447,-0.19473564438521863,-1.0295507651753724,-0.19537566066719593,-0.040268831653520468,0.49774450063705447,0.6898049656301737,0.8996508186683059,1.2999137215083466,-0.17364057525992394,-3.220851579681039,-1.0639265323989094,-0.6123411450535059,-0.6610898282378912,0.5066147991456091,0.5033332873135805,1.3598996810615063,0.5703945141285658,0.23408881574869157,-0.3818233534693718,0.03671032143756747,-0.6049484037794173,0.36110566928982737,0.2307332615600899,-0.9068586649373174,0.3366641700267792,0.7350333333015442,0.5907743622083217,-0.8336201775819063,-0.2883065678179264,0.7230663895606995,-0.08608241425827146,-0.8430574668454938,-0.0913282036781311,0.3545319582335651,-0.5146267060190439,-0.9029514193534851,-0.024078992195427419,0.5013249106705189,0.3487171158194542,0.39905739668756726,0.6896506696939468,-0.6061007976531982,0.6150746308267117,-0.19350675400346518,0.30149973183870318,0.5556984871800523,0.6858705797931179,1.3089262209832669,-0.3503737971186638,0.7880897661671042,0.4696459695696831,0.40536480490118267,0.28763360757147896,-0.0020393766462802889,-0.5161761045455933,-0.8746968694031239,0.4340767967514694,-0.3913097165059298,0.5004254831001163,-0.9581366700585932,-0.9409874277189374,0.2787784244865179,0.7197116240859032,0.21371665631886573,0.20126735605299474,-0.826368551235646,1.1071003396064044,-0.9798517352901399,-0.6672822912223637,-0.44410067424178126,-0.03227846045047045,0.15068916202289985,1.5055436417460442,-0.46839112509042027,0.7006725165992975,-0.8681097365915775,-0.2655891563044861,-0.36816422268748286,-0.39755292935296895,3.005454681813717,0.6272624135017395,-0.6493622940033674,-0.24418747052550317,0.9004712924361229,-0.9200880881398916,-0.6107194845099002,-0.13612368633039297,1.0461402647197247,0.23429912910796703,0.2856195382773876,1.2414160631597043,-0.4183239284902811,0.38103362172842028,-0.8899355251342058,-0.0028517518658190967,0.2998592983931303,0.6099602356553078,-0.7215332873165608,1.0094550660724054,-0.890127245336771,0.1413364578038454,-0.2795204520225525,0.6344085857272148,0.44845178350806239,-0.08194107282906771,0.10460402350872755,0.7324015722842887,0.11380662024021149,0.2791951596736908,0.4908456765115261,-0.08264379017055035,0.6779871638864279,0.06474563851952553,0.39328297883912458,-0.33504345919936898,-0.6757434301543981,-0.7883123466745019,-0.00878260936588049,-0.602863778360188,0.2897032876498997,0.7477451767772436,0.43438655510544779,0.14474424778018148,0.3053109459578991,0.21708115004003049,0.7752128193387762,0.18832805752754212,-0.16641388460993768,-0.924053531140089,0.17815599590539933,-0.10371009260416031,0.05838300473988056,-0.8401182126253843,0.5176989529281855]},{"row":12,"column":3,"elements":[-0.9455371298827231,0.42871079221367838,0.6389790177345276,0.49426468275487425,-0.4724488649517298,-0.39998858980834486,-0.6380508951842785,-0.8699298650026321,0.5767660411074758,0.5411984287202358,-0.9152362691238523,1.0139963515102864,-1.3023226726800204,0.9377099685370922,0.8732582090888172,0.5507043488323689,-0.42597930133342745,0.5296935420483351,0.873873133212328,0.04202510882169008,0.4514167979359627,0.8774941712617874,1.0572133529931307,-0.03421137481927872,-0.6061326265335083,1.0226975291734562,0.14918592013418675,-0.37591836228966715,-0.7322238544002175,-0.03641500184312463,-0.29639984806999566,-0.3845073296688497,0.7749673654325306,-0.04339090920984745,-0.4921946618705988,0.3901376836001873]}],"biases":[{"row":1,"column":12,"elements":[-0.1955220978707075,0.4184963246807456,0.6560695543885231,-0.25151273945812138,-0.30852285772562029,0.608907881192863,-0.3229601541534066,-0.8819586113095284,-0.06341039366088808,0.013442926108837128,0.7421228761377279,-0.4520476069301367]},{"row":1,"column":12,"elements":[-0.9339674711227417,-0.2004937343299389,-0.06271439045667649,-0.8904614928178489,-0.4423682847991586,0.9664129484444857,0.38816576823592188,0.8405562040861696,0.7918961644172669,0.7856220602989197,-0.429715383797884,-1.0210918132215739]},{"row":1,"column":3,"elements":[-0.4439985156059265,-0.1501564383506775,-0.19236742611974479]}],"inputSize":29,"hiddenSize":12,"hiddenLayers":2,"outputSize":3}