{"weights":[{"row":26,"column":8,"elements":[-0.7089831011835486,-0.34034264367073777,-1.6033317372202874,0.4465385084040463,-0.9453630426432937,-0.6347251273691654,-0.6111613512039185,-0.4165556491352618,-0.035857717506587508,0.22268985118716956,-0.4768558372743428,0.5985766537487507,0.11358345160260797,0.3987577110528946,-0.7237600795924664,-0.01318485604133457,-0.7889539366587997,0.18039790051989258,-0.7027559538837522,0.25273943350839547,-0.2604499962180853,-0.18681060057133437,0.47946287877857687,-0.5483536198735237,-0.9018775806762278,0.09756689518690109,-0.444050153484568,-0.6440661015221849,2.5035913926549258,0.13519289693795145,-1.9098874125629664,-1.7626881934702397,0.05256382368679624,-0.7007777774706483,0.04644697718322277,-0.058585087972460318,0.3255856311880052,-0.33599703782238068,-0.8811895653780084,0.6073696338571608,1.1612815856933594,-0.014916250482201577,0.5694854762405157,0.5988068310543895,0.319276376394555,0.6100313859060407,-0.08541194148710929,0.15982710290700198,0.37600450310856106,-0.2365062702447176,-0.9706900264136493,0.7662182589992881,0.9470002790912986,-0.17285628500394524,-0.1431522499769926,-0.5476643051952124,0.47547327261418106,1.2002805825322867,0.4605342447757721,0.853823731886223,-0.22427071910351516,-0.6297665182501078,-0.7010481192264706,-1.5369741823524237,0.8790861740708351,-1.1977027028333396,-0.6051802365109325,-1.5180673068389297,-0.30941083701327445,-0.6953206658363342,0.33066849829629066,-0.09251061547547579,0.05657018255442381,-1.0824387911707163,1.1570508144795895,-0.29388414847198876,-0.7067283107899129,-0.5591495107510127,-0.02199883759021759,-0.28730905591510239,0.6974507904378697,0.5901968562975526,0.47110331675503405,0.013730328530073166,-0.3688473869115114,0.3586817183531821,-0.45715307304635646,0.17244636686518789,-0.05160493403673172,-0.4379388093948364,0.1091264293063432,0.6735365302301943,-0.18683020770549775,-2.360024078283459,0.27666652854532006,0.8055578283965588,-1.10860581882298,0.5642921775579453,1.3055487181991339,-0.9248261675238609,-0.3172463453374803,-0.42833387665450575,-0.020665118470788003,-0.06742276647128165,0.07427970319986344,-0.40164069924503567,-0.5036166729405522,0.27089596539735796,-0.5350673031061888,0.554412498138845,1.8364190571010113,-2.3902245233766736,-0.25444502755999567,-0.7744932165369391,0.8381745165097527,0.633246253040852,-0.016511809779331089,0.280929172411561,0.04471613094210625,2.910107498988509,-0.35461956553626808,0.4711618624278344,-0.3027826361358166,-0.20445540267974139,0.09127947688102722,0.8037413358688355,0.3980780113488436,0.25071579590439799,1.0012174360454083,0.05420411750674248,-0.508616553619504,0.1652759044081904,-0.22152265068143607,-0.6021164422854781,0.04326608742121607,-0.7814817009493709,1.050941813737154,1.4900119099766017,-0.27450602129101756,-0.052031397353857759,-0.6088666501455009,-1.161121481563896,-0.5590630359947681,-0.7970979642122984,0.3781759478151798,-0.06602969975210726,0.07603589817881584,-0.5630970648489893,0.7391049992293119,1.1621941206976772,0.5520037803798914,-0.6595419431105256,-0.24131228151964025,-0.2625388279557228,-0.43381545320153239,0.18648218095768244,0.7098293304443359,0.7735726237297058,0.3721907176077366,0.10125201381742954,0.5016656590159982,-0.12674640188924969,0.13965055346488954,-0.7440616376698017,-0.2664208149071783,-0.9525651754811406,0.6008249334990978,-1.1789400284178556,-0.7466726689599454,1.1776318494230509,1.18496373295784,1.8261357303708792,-0.2584471865557134,-0.7750389066059142,1.007843865081668,-0.8047734592109919,0.014242100529372692,0.9075553566217423,-0.8707956727594137,-0.22837431909283624,1.1605163607746363,-0.3759439904242754,-0.550928499433212,-0.8192117530852556,-0.48130863159894946,-0.7855812190100551,0.18264666013419629,0.09896549035329372,0.4181131012737751,-1.2587264750618488,-0.285847969353199,-1.3440101593732834,0.35334595665335657,-0.2665008115582168,1.0055082216858864,-0.4110821280628443,-0.3730345191434026,0.17303920490667225,-0.11287186853587628,0.97454718593508,0.7990599125623703,-0.775322737172246,0.4652966884896159,0.9697016477584839,-0.5677190623246133,0.5054555535316467,-0.8624164201319218,0.6653482941910625]},{"row":8,"column":8,"elements":[0.41881290078163149,0.9142453104141168,0.46016773767769339,0.3667857935652137,1.0245096716098488,1.230324105359614,0.15342052187770606,0.7487194368150085,0.3838142901659012,-0.20040045818313957,-0.8990475597092882,0.20821733679622413,-0.4419169877655804,1.180545017356053,0.9233133792877197,1.530119818635285,-0.8167969500645995,-0.5855718608945608,0.6236664652824402,0.7296994353528135,-0.03622812731191516,1.2559561049856712,-0.27245339192450049,-0.4744155425578356,-0.04916207946371287,1.0404099225997925,-0.2365597898606211,0.4516267559956759,-0.0608330350369215,0.5164155379170552,-0.7930043311789632,-0.7406941829249263,-0.9987747631967068,-1.1579581890255213,0.44222392176743599,0.8912919017020613,1.021092176437378,-0.21514216531068088,0.08390935882925987,1.0177655874285848,0.42429306730628016,0.3326903791166842,-0.31975350016728046,-0.14279567962512375,0.013065977720543743,0.2079872153699398,1.0657308120280505,0.11928335018455982,0.6160117818508297,-0.08365115616470576,0.7904896251857281,0.6932923290878534,0.26632824912667277,-0.4091744008474052,0.8543070079758763,-0.08939001709222794,0.4599515669979155,1.0697730602696539,0.7786164372228086,0.6739480923570227,0.4813331328332424,0.586123326793313,-0.4675544964848086,-0.5840040314942598]},{"row":8,"column":3,"elements":[0.35107440408319237,-0.780711165163666,-0.2864261087961495,0.6101638404652476,-0.1469097062945366,-0.7519993782043457,-1.8620958924293519,0.700609914958477,0.5854821118991822,0.8439919436350465,0.022393491584807636,2.2420785846188666,-0.026194301899522544,-0.6888636450748891,0.7306980965659022,0.09356852737255395,0.35842553758993747,-0.16351995058357716,0.3528587222099304,-0.4508233368396759,1.2909791592974216,-0.25245850160717966,0.3966420409269631,1.1599052236415446]}],"biases":[{"row":1,"column":8,"elements":[0.2940461924299598,-2.0039877481758596,-0.06025447603315115,0.3578519821166992,0.5560871332418174,0.0856806329684332,0.3121996819972992,0.8434105291962624]},{"row":1,"column":8,"elements":[0.855974605306983,-0.018525158520787956,-0.19406218081712724,0.1774282194674015,-1.2810518238693476,-1.2984773237258196,-0.4452919093891978,0.4184112130024005]},{"row":1,"column":3,"elements":[-0.16343647008761764,0.7456701323390007,-0.5794960856437683]}],"inputSize":26,"hiddenSize":8,"hiddenLayers":2,"outputSize":3}