{"weights":[{"row":18,"column":8,"elements":[-0.16411454789340497,0.13967468030750752,0.39871074724942448,-0.829459011554718,-0.4822482783347368,-0.728203009814024,-0.47902101557701828,0.7217999249696732,0.8501196233555675,0.33569605834782126,-0.6944791283458471,0.45618731155991557,0.056955479085445407,-0.06759064411744476,-0.6746645267121494,-0.6345674530602992,0.8962517473846674,0.4396243169903755,0.7042958219535649,-0.5020481888204813,0.3241028105840087,0.950416274368763,0.9248385652899742,-0.3571401573717594,0.058478946797549728,0.3772561401128769,0.574419841170311,0.6735846763476729,-0.9891415173187852,-0.9043585086328676,-0.6589476930093952,0.10086875408887863,0.7422511400654912,-0.49489337764680388,-1.3506877031177283,0.780213538557291,-0.821073254570365,0.5958896186202765,-0.23272905219346286,-0.29327809158712628,0.1383366733789444,-0.34858954697847369,0.7233251221477985,0.40408631693571808,0.5377836972475052,-0.22934649419039489,-0.587585523724556,0.010519118804950267,-0.022908994928002359,0.15913638286292554,-0.8050667438656092,0.24178380332887174,0.38625338673591616,-0.9417813720647246,-0.2859813771210611,-0.036968830740079287,-0.8519684397615492,0.26304648723453286,-0.9033305831253529,0.3590446710586548,0.6269450765103102,-1.4902317309752107,0.6333250217139721,-0.5012682536616921,-0.4607010080944747,-0.8411560524255037,0.1992694465443492,0.6831175368279219,-0.5211836509406567,0.4808503855019808,-0.3401879798620939,0.1927205405663699,-0.4678211696445942,-0.8154272539541125,0.6330454535782337,0.5065804179757834,-0.948000471573323,0.36245009303092959,0.36680252477526667,-0.33898985385894778,0.3453417420387268,0.8143124082125723,-0.3692655526101589,-0.06457689497619868,-0.4004598939791322,0.4162339102476835,0.018045760691165925,-0.16842297604307533,-0.3466290240176022,0.08590783458203078,-0.03798740039928816,-0.26271268352866175,-0.6729382360354066,-1.151193618774414,-0.26719724014401438,-0.19311802834272386,-0.401027072686702,-0.1161376778036356,-1.75004243850708,0.6117803044617176,0.2743992730975151,-0.032563441433012488,-0.9064868432469666,-0.16018960997462274,-0.5959067940711975,-0.48052454739809039,0.5750943687744439,-0.743018489331007,-0.25539914704859259,-0.5206613000482321,0.6090680207125843,-0.16876936797052623,0.40472674276679757,0.14001329615712167,-0.17602390330284835,-0.9781787786632776,-0.35509669105522337,-0.6372160948812962,-0.30467063188552859,0.7971735820174217,-0.5079853534698486,-1.9057422410696746,-0.3181279134005308,-0.36397802364081147,0.6144365034997463,0.27391559025272729,-0.6190096721984446,0.3859078958630562,-0.41967352479696276,0.8151548206806183,-0.5667869313620031,-1.047989409416914,0.278931955806911,-0.9853130984120071,-0.0097044100984931,0.9508108112495393,-0.08389597153291106,0.7937707684468478,-0.4101895820349455,-0.42128132190555336,0.17187357507646085,0.6537749506533146,0.021850593388080598,1.0573604181408883]},{"row":8,"column":4,"elements":[-0.4672683048993349,0.618367962539196,-0.8727723155170679,-1.135144761763513,-0.8511550761759281,0.4826334770768881,-0.7612205091863871,0.9921856145374477,-0.3756308276206255,-0.9797688252292574,-0.8190380595624447,0.4221298061311245,-0.04817790724337101,0.7190530562656932,-0.06663701310753823,-1.0786302853375674,0.5976455453783274,0.2764817541465163,0.31486794352531435,0.21734587475657464,0.007492497563362122,-0.5643200860358775,1.04775046184659,-0.6889445651322603,-0.3914519399404526,-1.2782420329749585,-0.19363735787192128,-0.5789068639278412,-0.1336045617936179,-0.9550158623605967,0.3084060251712799,-0.4823973751554149]}],"biases":[{"row":1,"column":8,"elements":[-0.28720500809140506,-0.18333560414612294,-0.4711329126730561,-0.09909773804247379,0.35153477638959887,-0.8677655751816928,-0.031090235337615014,0.21273809019476176]},{"row":1,"column":4,"elements":[0.8089434988796711,-0.18473624641774223,-0.6648296508938074,-0.4631686843931675]}],"inputSize":18,"hiddenSize":8,"hiddenLayers":1,"outputSize":4}