{"weights":[{"row":22,"column":8,"elements":[-0.9587504453957081,-0.5796257676556706,0.07994744926691055,-0.937195127364248,0.4234445465262979,0.3644238927445258,0.28821487561799588,-0.8321393064688891,-0.33738069981336596,-0.37465647608041766,-0.6909272097982466,-0.6544721946120262,0.6313358843326569,0.2710550557821989,-0.2844100742804585,-0.7565797492861748,-0.5959520116448402,2.0071128644049169,1.064662009710446,0.18805205635726453,-0.7795497509650886,1.1556890169158579,0.004326185095123947,0.3005035985261202,-1.0077231442555786,0.7225330555811524,0.9414199106395245,0.6985013257944956,0.7391123101115227,0.6928790237288922,0.15670065768063069,-0.9626642093062401,1.1943804770708085,-0.8360132966190577,0.12325076013803482,-0.45099619030952456,-0.6431322693824768,-0.7741189822554588,-0.8342139460146427,-0.20195911824703217,-0.684264705516398,0.37605636194348338,0.33662479743361475,-0.9843932101503015,0.13682595500722528,0.4080570534861181,0.08342864271253348,0.4565845966571942,0.3731598248705268,-2.807354912161827,-1.060278294418822,0.4661986243445426,-0.941512007266283,0.5481088683009148,-0.9839482047827914,0.012272898107767105,-0.7190047285985202,-0.06155532971024513,-0.2355507561005652,0.6288459533825517,0.5897023305296898,-0.993590290658176,-0.7223636552225798,-0.3614822681993246,0.7588766980916262,0.992547576315701,-1.040795129723847,0.4607545156031847,0.054023850709199908,-0.7917976258322597,-0.7612757738679647,-0.6062867622822523,0.3978855460882187,0.03760471008718014,-0.7100298441946507,0.7213656278327107,0.8594026055652648,-0.7011199332773686,0.958710977807641,-0.13818836770951749,-0.19674118142575026,-0.8244564011693001,0.4661001795902848,-0.7742421692237258,0.5206324681639671,-1.0836345702409745,0.8599274158477783,0.5162379741668701,-0.2822614441392943,0.15825618151575328,0.27594379894435408,0.8794257661793381,0.4455890078097582,0.5965915662236512,0.9541501626372337,1.0125599903985859,0.6799215571954846,0.8588663984555751,0.6894572209566832,-0.7002389100380242,-0.6139807235449553,0.8076567682437599,0.11519068852066994,-0.5823899423703551,-0.5357414316385984,0.4706138074398041,-0.24026544019579888,0.08218835107982159,-0.4351537302136421,-0.8704534266144037,0.29047570150578397,-0.29936383495805787,0.4662730973213911,0.4590495899319649,0.4933026675134897,-0.7957067564129829,-0.05597397405654192,0.15924178808927537,-0.08984121587127447,1.01892308332026,0.8336449321359396,0.07181482389569283,0.6737263295799494,-0.6379238665103912,1.563659906387329,0.24576442129909993,0.0629885345697403,-1.1455318061634899,-0.39632800221443179,0.8261387022212148,-0.39353377372026446,0.3583079231902957,-0.8320598555728793,-0.9569337393622845,0.11598730739206076,-0.5928039029240608,1.2212516134604812,0.40720905642956498,0.015436259098351002,-0.6970672197639942,0.23818026157096029,-0.6433623291377444,-0.38107627257704737,0.370586950564757,-0.5015297159552574,0.10263067996129394,0.44249132042750718,-0.18963785469532014,-0.6212078491225839,0.48656653240323069,0.5547404857352376,0.19793764501810075,-0.2565882122144103,-0.5856802891939879,-0.7956635640002787,0.8057523011229932,-0.5183625165373087,-0.34332246519625189,0.6975804604007863,0.6362272039987147,-0.039047238416969779,-0.2726174630224705,-0.7064431244216394,-0.11392403393983841,-0.1972103575244546,-0.8600969156250358,-0.8407422639429569,1.166248831897974,-0.7056311368942261,0.24987033032812179,-0.5504571320489049,0.8888576291501522,-0.8916087746620178,-0.2880816198885441,0.2061186038190499,0.8381245452910662]},{"row":8,"column":8,"elements":[-0.8399503950786311,0.21786331571638585,0.5010667722672224,-0.032178182154893878,0.6057846937328577,0.153990738093853,-0.5096600269898772,0.259261567145586,0.6440383717417717,-0.9573381636291742,0.14711233973503114,-0.06147840339690447,-0.5295517020858824,-1.2136502042412758,0.5561833241954446,0.29776934534311297,-0.4385911598801613,0.9674287438392639,0.7848249161615968,-0.030879087804351003,1.1002714142668993,0.9932920155115426,-0.1609569974243641,-0.5281003885902464,-0.59661432239227,0.2627822458744049,0.18734974786639214,0.12176735699176789,0.2304653525352478,-0.38325554569019007,-0.8382124328054488,0.508807510137558,-1.4997707260772586,0.38744163792580368,-0.1249519269913435,-0.28212321642786267,-0.5771996742114425,0.618418755941093,0.7041958211921156,0.764493880327791,1.8034446239471436,0.03151191584765911,-0.32957400334998968,-0.31072859838604929,-0.3565245196223259,0.04686322482302785,0.6807382814586163,0.14835020899772645,0.865104122669436,-0.47461435571312907,0.6368201784789562,-0.09426461695693433,-0.3761526271700859,-0.37303928518667819,-0.2847587075084448,1.1418069303035737,-0.5001558605581522,-0.24404910067096353,0.08954913262277842,0.2984925741329789,0.5723117683082819,-0.45979536697268488,-0.9979028571397066,-0.5880851903930306]},{"row":8,"column":8,"elements":[-0.6593484710901976,-0.3762774197384715,-0.2856898419559002,-0.4637803006917238,-0.7644667066633701,0.03854062408208847,0.3565954305231571,0.9869893421418965,-0.2885091220960021,-0.63999502081424,0.5558082312345505,0.22172826807945968,-1.0493155531585217,0.4644024250005714,1.135192021727562,0.7393778618425131,-0.7771292924880981,-0.3888443149626255,-1.1136022862046958,-0.6676796898245812,0.7315107930917293,-0.08934209495782852,0.01135610556229949,0.4337755481246859,-0.4943777360022068,1.0559508576989174,0.7246479904279113,0.13727996073430405,-0.5589497834444046,-0.8708344679325819,-0.4474475607275963,-0.7477796450257301,-0.26738882437348368,0.5822855420410633,-0.5256709940731525,0.7918094079941511,-0.25738599337637427,-0.23026211559772492,0.20437182439491154,0.057788860984146598,-1.0077666006982327,-0.33147645369172099,-1.038317408412695,-0.5775472461245954,-1.0112206507474185,0.28151584416627886,-0.27317881397902968,-0.14822033047676087,-0.44103201292455199,-0.6508412882685661,-0.07244162634015084,-0.3467763834632933,-0.5075995586812496,-0.082362518645823,-0.727879861369729,0.7062954120337963,0.5140810087323189,-0.3501056954264641,-0.31011285074055197,0.47181854769587519,1.020981676876545,-0.8215852379798889,0.10545836947858334,1.6099698359612376]},{"row":8,"column":4,"elements":[-0.024296510498970748,-0.008212784305214882,-0.27648829433019275,-1.132225725799799,-0.3855865793302655,-0.6674350500106812,-0.21654455736279488,0.8157039526849985,1.657352764159441,0.6917734146118164,-0.13608596473932267,0.7606211500242353,-0.42069747764617207,-0.10520440712571144,-0.5384384989738464,-0.2580720214173198,0.2782012177631259,-0.7706759758293629,0.24317374173551799,0.9056953326798976,-0.9184971768409014,0.22669917903840543,0.11115414462983608,0.6249955836683512,0.564900572411716,-0.8899384774267674,-0.03548538498580456,0.44221257977187636,0.8696329807862639,0.024674057960510255,-2.299430886283517,-0.38446594774723055]}],"biases":[{"row":1,"column":8,"elements":[0.9778699781745672,0.9660936165601015,-0.5062768911011517,-0.7248405916616321,-0.5607967162504792,0.19103777507552878,-0.838853299152106,-0.5777018307708204]},{"row":1,"column":8,"elements":[0.3659648299217224,-0.07678242027759552,0.680024194996804,0.6324331681244075,0.7078180257230997,-0.03232994955033064,0.5412349971011281,0.3540683574974537]},{"row":1,"column":8,"elements":[0.959998719394207,0.09830096364021301,-0.5182122271507978,0.9136885884217918,-0.641330361366272,0.002541670575737953,0.534159573726356,-0.07406117953360081]},{"row":1,"column":4,"elements":[0.0628029890358448,0.7188323885202408,-0.6641476154327393,-0.8899464020505548]}],"inputSize":22,"hiddenSize":8,"hiddenLayers":3,"outputSize":4}