{"weights":[{"row":24,"column":8,"elements":[-0.36456630611792209,-0.059232329949736598,-0.16307806177064777,1.0152965150773526,0.44958799332380297,-0.8204276040196419,-1.02266605803743,0.33990291878581049,0.9055098788812757,-0.013514873338863254,1.2222773060202599,-0.4085054970346391,-0.7762741204351187,0.521894951350987,-0.5042334022000432,0.018387051299214364,-1.8913195980712772,-1.0137124140746892,0.2860421761870384,-0.333989099599421,-0.03170434897765517,-0.5428507062606514,0.6929014865309,-0.05231720209121704,0.29774959199130537,0.5620355140417814,0.27666386775672438,-1.147037767805159,0.3842085343785584,0.20859811455011369,0.5101340895052999,0.057790311984717849,0.08692566584795714,-0.07952070981264115,0.7281873822212219,-0.04409819096326828,-0.3241664830420632,0.38676610332913699,0.05710357800126076,-0.43517043557949366,-0.4907628927612677,0.7103913482278585,0.1631494164466858,0.2952653123065829,-0.5937517415732145,-0.4768427461385727,0.8129890942946076,-0.6173316463828087,-0.1780817210674286,0.7049509482458234,-0.12138815969228745,-0.14482459425926209,-0.9390314579941332,0.907746824901551,0.20371891115792097,-0.05795599578414112,0.4394322270527482,-1.025806916411966,-0.7008329220116139,0.12756536342203618,0.7943638954311609,-0.7948979251086712,0.40130127035081389,-0.0645259115844965,0.5021772794425488,-0.28283395944163206,0.7863073735497892,0.21555858850479127,0.19326803646981717,-0.8406193950213492,-0.35284776985645296,-0.4274499174207449,0.12209267169237137,0.5050248764455319,0.31234094384126367,-0.8816877845674753,-0.5692280847579241,-0.608624953776598,-0.6248335102573037,-0.4314001342281699,-0.26329868350876498,0.14340966753661633,0.9582203386817128,0.3682113587856293,-0.9053944479674101,-0.4398434211034328,-0.9089697892777622,0.8275845944881439,0.8055092245340347,-0.7291973996907473,-0.7947176108136773,-0.37793173640966418,0.4458303563296795,0.6135424161329866,0.8043736146064475,0.31512259412556889,-1.0428884141147137,0.6964530404657126,-0.7168482914566994,-0.11720524448901415,0.03293551318347454,-0.4433198976330459,0.6894153351895511,0.34869930439163,0.05489712650887668,-0.4844316141679883,-0.6578145390376449,-0.820306958630681,-0.45697751024272295,0.10645236456184648,-0.4046319592744112,0.6536606084555388,0.5612144041806459,0.28777315467596056,-0.16350671043619514,-0.7486317381262779,0.08644351491238922,-0.5080499215982854,0.47435726411640646,0.4098177123814821,-0.3153621098026633,0.9996173186227679,0.41485717822797599,-0.2324234712868929,0.9528969461098313,-0.9752570523414761,-0.30154765769839289,0.6287288274616003,-0.2920319139957428,-0.3657231777906418,-0.7905230931937695,0.8319247416220605,-0.3638323228806257,0.6812014672905207,0.18432633532211185,0.5772598579060286,-0.5719376783818007,0.09313672687858343,0.9096838175319135,-0.558007859159261,-0.4163204524666071,-0.33254590537399056,-0.4046916514635086,0.06066228076815605,-0.2352008130401373,-1.1996719455346466,-0.9307892695069313,0.6046449672430754,0.008842472918331623,-0.7259029671549797,0.31363490207877478,-0.6976218454074115,0.5985558237880468,0.5638590063899756,0.5233503580093384,0.591292679309845,0.2908199280500412,-0.13243845384567977,-0.4015033319592476,0.07539442367851734,0.8165102610364556,0.6409241631627083,0.8026756849139929,-0.40405517257750037,-0.8438090905547142,-0.8224471481516957,-0.5054031983017922,-0.7124527916312218,-0.35455130226910117,-0.4122020220384002,0.6524012424051762,-0.9024643865413964,-0.5435159392654896,-0.20251834392547608,0.10830104060005397,0.8008576170541346,0.04676027223467827,-0.8692588185658678,0.8044112920761108,0.37741066701710226,-0.20298494398593903,-0.002031102776527405,-0.5895389504730702,0.33884275890886786,-1.3066094815731049,-0.4778029902372509,-0.14139426685869695,0.646368645131588,0.12394428486004472,-0.5225056372582912,0.7275389358401299,-0.5667001387919299]},{"row":8,"column":3,"elements":[0.5184205509722233,-0.8687577806413174,0.9420923958532512,-0.7779211443848908,-0.6166836051270366,0.033184821251779798,0.30360797536559405,0.6405872106552124,-0.7912521827965975,-0.2658775020390749,0.7367633488029242,-0.2585585447959602,-0.6346863359212875,0.30238378001376989,0.11100118374451995,-0.2437999900430441,0.03689127694815397,-0.07667181454598904,-0.6653304658830166,-0.42349882051348688,-0.8171926978975534,-0.5431936793029308,0.9316728515550494,-0.28612642362713816]}],"biases":[{"row":1,"column":8,"elements":[-0.5762139726430178,0.1511225514113903,-0.602534961886704,0.7112188874743879,-0.0624780785292387,-0.8941476512700319,-0.6080307732336223,-0.07046572599210777]},{"row":1,"column":3,"elements":[0.3120983727276325,0.7945580929517746,0.5064282896928489]}],"inputSize":24,"hiddenSize":8,"hiddenLayers":1,"outputSize":3}