{"weights":[{"row":21,"column":8,"elements":[-0.556700574234128,-0.7786375116556883,-0.14769095554947854,-0.34261166118085387,0.5674544433131814,0.6270795790478587,-0.14865868538618089,0.740206390619278,0.409317790530622,1.0080178659409285,-0.3891984820365906,0.12982907891273499,1.0129303634166718,0.6763281302992255,0.10661567375063896,0.8311352282762528,0.07198368385434151,0.8849055748432875,-1.0633033514022828,0.7753312007989734,-1.0514020398259164,0.2623021355830133,0.15884777484461666,-0.4683731198310852,0.4549407158046961,0.43855097983032467,0.5224213525652885,0.9890837371349335,0.5346409268677235,0.6440990399569273,-0.5658061541616917,0.3009234368801117,0.15428730845451356,0.6713149175047875,-0.5083833686076105,-0.4775709114037454,-0.9268224677070975,-0.47598471865057948,0.49045350251253697,0.8620023243129253,-0.8538432121276856,0.6857955902814865,-0.7206431748345494,1.4335931539535523,-0.7596481423825026,0.269148419436533,-0.23340970906428994,-0.836883339099586,-0.41556015983223917,-0.7811502479016781,-0.6642692163586617,0.6945599783211947,0.2645367383956909,-0.1207930101081729,-0.003911744803190231,-0.4356311128940433,-0.7334025036543608,0.3173276806192007,0.8796976078301668,-0.13570352643728257,0.25347574427723887,0.010943964123725891,-0.3612552173435688,0.8437714180909097,1.7982268333435059,-0.519944358151406,0.5937728304415941,-0.48522544372826817,0.34974542260169985,-0.7844526246190071,0.18270609434694053,0.8605566024780273,0.9518433501943946,0.18626197054982186,-0.7375170532613993,-0.22011697106063367,0.3339803060516715,-0.24641957134008408,0.12614593631587923,0.296122532337904,0.5760060958564282,0.8508628346025944,0.41677403543144467,-0.035934025421738628,0.30714623536914589,0.6397165283560753,-0.03999563120305538,-0.40249777399003508,0.34124844521284106,0.565451281145215,0.5567772762733512,-0.48040894279256465,-0.5403559878468514,0.35075265169143679,0.2505313246510923,0.7676464319229126,0.3741502473130822,0.6464588884264231,0.3968233084306121,-0.35868365154601636,-0.09752285853028298,0.39783461578190329,0.5344269098713994,-1.0029787681996823,-0.5642372346483171,-0.31590890418738129,1.0123938787728549,0.6353666710201651,-0.5028261593542993,-0.08485475089401007,-0.7946046479046345,-0.09628133196383715,-0.896115627605468,0.09190362598747015,0.3580624759197235,-0.8948158118873835,-0.37684071250259879,0.6703474838286638,0.5247328728437424,0.9754833783954382,-1.000490266829729,-0.8926023584790528,-0.9714004434645176,-0.05256277322769165,0.9337104298174381,-0.923873033374548,-0.23420303501188756,0.7428423441015184,0.2613316997885704,-0.8052511676214635,0.44820877723395827,-0.15734527818858624,0.9540893258526921,0.4339468814432621,-0.4728587605059147,0.7821701299399138,0.3001507520675659,-1.2353641167283059,-0.7057661537546665,0.32975683361291888,0.624938391149044,0.7907705381512642,0.7033757753670216,0.48303395113907757,-0.6352211739867926,-0.8001596070826054,-0.8992955386638641,1.0343672670423985,0.6340087403077632,-0.8386711403727531,0.3059889115393162,-0.04325682879425585,-0.1279645045287907,1.1412918157875538,1.0921368263661862,0.7531323321163654,-0.938687164336443,0.31455350294709208,-0.012745261192321778,-1.1771749258041382,0.18843012489378453,0.15577946603298188,0.7003822587430477,0.3680900037288666,-0.8983410373330116,-0.29001446440815928,-0.6051828848430887,-0.5464636255055666]},{"row":8,"column":4,"elements":[0.15131855010986329,0.5243831705302,-0.7056781500577927,-0.767413854598999,-0.8366723307408392,0.9924352755770087,-0.5043079219758511,-0.6976009979844093,-0.21356496051885189,0.43195664696395399,0.7584359794855118,0.7745656631886959,0.4366506985388696,-0.5683675149921328,-0.40225477144122126,-0.2589051388204098,0.5282185622490943,-0.27457475289702418,-0.30020288936793806,-0.7645128108561039,-1.0128752402961255,1.0437251403927804,0.5078776255249977,0.07552278647199273,-0.44384614657610657,-0.5265467222779989,-0.02881918102502823,0.20944979414343835,-0.8251947313547134,0.2614470347762108,0.5416665598750114,0.6975080315023661]}],"biases":[{"row":1,"column":8,"elements":[0.789512780494988,-0.4725151730235666,-0.7587824910879135,0.3780735582113266,0.42767788043420298,-0.24656674824655057,0.004762124270200729,-0.1906511504203081]},{"row":1,"column":4,"elements":[0.8771959645673633,0.29729606956243517,0.5465991497039795,0.2853318154811859]}],"inputSize":21,"hiddenSize":8,"hiddenLayers":1,"outputSize":4}