{"weights":[{"row":26,"column":8,"elements":[0.22337663173675538,1.0227444767951966,0.5549277476966381,0.014522712212055922,0.3744160598143935,0.013838648796081543,-0.5584111213684082,-0.9022142570465803,-1.031542562879622,-0.9295925605110824,0.5443408475257456,-0.9999064961448312,0.33330169320106509,0.6083430089056492,0.6697264909744263,-0.05692094750702381,-0.28999665565788748,0.4221029691398144,-0.9219433218240738,-0.35950765991583469,-0.8036039173603058,-0.2987609477713704,-0.6350780902430415,0.21910080342786387,0.9728463143110275,0.7098515033721924,0.5310117602348328,0.2488610204309225,-1.4172426387667657,0.8876272328197956,0.17940109595656396,-0.3643318712711334,-0.19529187679290772,-0.4628406725823879,0.8512786626815796,0.7136226333677769,-0.2860376387834549,0.032278685830533507,-0.6959107550792396,0.40667151426896455,0.4976930320262909,-0.5793207138776779,0.11834518611431122,0.8994919490069151,-0.2524541560560465,-0.8559058960527182,1.1768800914287568,0.9345419108867645,-1.0618093647062779,0.07463417202234268,0.31606148928403857,-0.3127917293459177,-0.03490479104220867,0.300272811204195,0.2810199949890375,-0.35116541385650637,0.945248931646347,0.28071342408657076,-0.5370405688881874,0.12894445098936559,0.21463847160339356,-0.6045531006529927,0.6046197582036257,-0.530154213309288,0.03654456324875355,-0.853386402130127,0.2866503894329071,-0.20034345425665379,0.5484310025349259,0.3968382878229022,0.4984825989231467,-0.24665668606758119,0.9994494915008545,-0.06945908069610596,0.16703218541806565,-0.8045685102697462,0.03159856237471104,-0.8350217528641224,0.626895796507597,0.36766737326979639,-0.8827273305505514,0.3506302535533905,0.814121700823307,-0.33497685194015505,-0.5856059938669205,0.6025238484144211,-0.841118574142456,1.0037104450166226,0.6125165987759829,0.4491543844342232,-0.9450140502303839,-0.6840081103146076,0.9189917352050543,-0.6840218068100512,0.8624673411250114,-0.4172264114022255,-0.7744378000497818,-0.32331740856170657,0.43573857471346857,-1.132510095834732,0.2277277521789074,-0.44882233440876009,-0.850696686655283,-0.6680280845612288,-0.5336401164531708,0.7111160326749086,-0.0675148069858551,-0.9428854174911976,-0.1738063138909638,-0.7370213540270925,-0.4922320023179054,0.564464358612895,0.19407538324594499,0.7877227775752544,-0.5219956035725772,0.8554451763629913,0.10679196566343308,0.1276899790391326,-0.45735277980566027,-0.5313044227659702,0.9388089776039124,-0.3446270227432251,-0.24093232303857804,-0.8639850616455078,-0.1244727848097682,-0.25940558314323428,-0.2182532548904419,0.010334618389606476,0.3862079633399844,-0.5449843695387244,-0.9748216853477061,-0.21907800622284413,-0.49392684549093249,-0.1700265035033226,-0.0818798840045929,0.3098477516323328,-0.8134129084646702,-0.5458118766546249,0.8770908676087856,0.7470712214708328,-0.6087354272603989,-0.6677092481404543,0.7470675185322762,0.5810149394674227,-0.7455827072262764,0.09018154442310333,0.6052126430731732,0.16502694971859456,-0.24046069663017989,0.1453516185283661,-0.9397448934614658,0.5985424215905368,-0.7387081310153008,0.8091596714220941,-0.7646794095635414,-0.045869104797020558,0.3686806857585907,-0.04115507937967777,-0.7683139517903328,-0.8137404480949044,-0.9222044236958027,0.7555433548986912,-0.14876453066244722,-0.44861138239502909,0.7842890079482459,-0.9229603577405214,-0.7595916157588363,-0.530038446187973,-0.4666796512901783,0.528907872736454,-0.8574199378490448,0.2846805229783058,0.6488965321332216,-0.6575968600809574,-0.3234430532902479,0.14982207119464875,2.508018732070923,-0.12400131672620774,-0.012456849217414856,-0.6707470957189798,0.71768619120121,-1.254236032254994,0.08936048485338688,-0.19164573308080436,-0.6021170020103455,0.8851615823805332,0.12781821563839913,0.15191740170121194,0.6141616427339613,-0.46798159647732975,0.5453055277466774,-0.5739899417385459,0.9038877431303263,-0.6057037711143494,-0.4155876003205776,-0.8322587925940752,0.5175809860229492,-0.4826176092028618,0.9766362570226193,-0.39922288805246355,-0.6058336109854281,-0.40813624300062659,-0.131561195012182,0.2419128119945526,0.688091516494751,-0.3263316871598363,-0.3440550295636058,-0.8702996373176575]},{"row":8,"column":4,"elements":[0.5690965987741947,-0.007050789892673492,-0.719039743184112,-0.16085360199213029,-0.42977943271398547,0.2348420675843954,0.7450314164161682,1.8974702507257462,0.7876482009887695,-0.6627648118883371,-0.5526810046285391,-0.2900149333290756,-0.20111416280269624,0.0524996817111969,0.3104088008403778,0.5355706121772528,1.0369700565934182,-0.3797614248469472,0.5858879052102566,-0.9049043860286474,-0.19182909186929465,-0.4638100676238537,0.9054662773851305,1.3981484359246679,0.39648766443133356,-0.6702080955728889,0.6849697045981884,-0.7636455800384283,-0.23826877772808076,-0.0865708775818348,-0.5635383352637291,0.6549569871276617]}],"biases":[{"row":1,"column":8,"elements":[0.8626876603811979,-0.0920313112437725,0.73773886077106,0.5079459436237812,-0.06366593390703201,0.42671646922826769,-0.5177450906485319,0.4681861996650696]},{"row":1,"column":4,"elements":[0.975372314453125,1.05296740680933,0.09256599732907489,0.05147281289100647]}],"inputSize":26,"hiddenSize":8,"hiddenLayers":1,"outputSize":4}