{"weights":[{"row":27,"column":8,"elements":[1.9248473644256592,0.7907288260757923,-0.27643487975001337,-0.13240131735801698,-0.12529121339321137,0.7994153946638107,-0.009150374680757523,-0.73385517206043,-1.0016345856711269,-0.19869311898946763,-0.863383506599348,0.6374008059501648,-0.6804791893810034,-0.260264532873407,0.0771075189113617,0.4067179150879383,0.22281331289559604,0.7859186620917171,0.8723285711021163,-0.3930912185460329,-0.6349437236785889,0.6186046530492604,0.5324977361597121,0.6639827800099738,0.06676327437162399,0.266853341832757,0.6152386493049562,0.6494047197047621,0.27811524644494059,0.5285124413203448,-0.689515981823206,-0.8217192217707634,-0.8109585661441088,0.6041651754640043,1.185278058052063,-0.5226272866129875,-0.3723995331674814,0.9311779923737049,-0.7654537074267864,0.8429969176650047,-0.9744785521179438,0.44454431533813479,-0.21748286485671998,-0.7114044241607189,-0.26143733505159619,0.5069277118891478,0.6853798069059849,0.15137341455556453,-0.6830106154084206,0.1981998821720481,0.15302833169698716,-0.19340349989943207,-0.7154785338789225,-0.6977862976491451,-0.2807773584499955,-0.44426785968244078,-0.262794561451301,0.5304344948381186,1.098060067743063,-1.5739891529083253,0.9449392529204488,0.6568538676947355,0.14717753790318967,-0.3132281797006726,-0.03713872656226158,0.08305325359106064,-0.41039904206991198,-0.951784286648035,0.37671967037022116,-0.6948915123939514,-0.9181935071246699,0.4658360355824698,0.6569879874587059,-0.9828639740590006,-0.4173826463520527,-0.5113960057497025,-1.7267490699887276,-0.036125391721725467,0.9226135089993477,0.6078976141288877,0.8763750176876783,-0.9375398056581616,-0.4970178436487913,0.22268052585422994,1.0205116514116526,0.35630937945097687,0.2167973192408681,0.2478727623820305,-0.2238583154976368,-0.150236327201128,-0.19822575151920319,-0.04362012445926666,-0.7528560943901539,-0.42723720520734789,-0.11548067443072796,-0.42007094668224456,-0.8330032043159008,-0.37754843081347647,-0.7451668754220009,0.5114442780613899,-0.2839036451186985,0.23394783399999143,-0.12802192009985448,0.650845006108284,-0.6786234900355339,0.8121051616035402,0.8112538941204548,0.9424166791141033,0.44908127561211588,0.4276252733543515,0.028665583580732347,-1.5896079211961479,0.2605672748759389,0.6427662223577499,0.9047975409775972,0.24135303683578969,-0.13021009229123593,-0.22872945293784142,0.6394483670592308,0.6410351097583771,-0.4935340220108628,-0.7821321147494018,0.604445933829993,-0.0623065079562366,0.325500656850636,-0.39172814320772889,-0.19332649931311608,-0.9318969449959695,0.2935029296204448,-0.14591822470538319,-0.16945256292819978,-0.42114633973687889,0.14657342806458474,0.8602241398766637,0.44912111200392249,0.26927807182073595,0.8301724083721638,-0.6107719172723591,-0.7297313539602328,0.5139339566230774,-0.7191483080387116,0.369998037815094,0.13963598385453225,0.9056649729609489,-0.018925119191408159,0.6471090391278267,-0.03658867347985506,0.8491766937077045,-0.2647329824976623,-0.8665675036609173,-0.12581325322389604,0.5917731281369925,0.4112324584275484,-0.3159446455538273,-0.5691162263974547,-0.8710199347697198,-0.5003041294403374,-0.5604150015860796,-0.441961444914341,0.453246284276247,0.11799053475260735,-0.3784503825008869,-1.0720963440835477,-0.559425643121358,1.3602204024791718,-0.33461510203778746,-0.019475579261779786,0.3882607286795974,1.0361374579370022,-0.783158024714794,-0.8847083915024996,-0.20587687566876412,0.6377479881048203,0.0498993881046772,1.8502192245796323,0.8852196391671896,-0.694323617964983,0.5256059002131224,-0.09238313976675272,-1.0944874081760646,0.9481139630079269,-0.042709387838840488,0.5216188309714198,0.43004853278398516,-0.6935427095741034,0.06720648007467389,1.2425773199647666,-0.7896924421656877,-0.12086334638297558,-0.9402184449136257,0.3127243220806122,0.5036127809435129,-0.0820709615945816,0.6385389715433121,0.6053803907707334,-0.6498960999306291,-0.7711868993937969,-0.6305918172001839,-0.9169823545962572,0.5958339436911047,0.7258498966693878,-0.594696806743741,-0.6921471855748678,0.10816726367920637,0.7162839355878532,0.46782994642853739,0.7139937467873097,0.23723370907828213,-0.29907949827611449,0.06464819889515639,-0.10699505126103759,0.17636962607502938,-0.24862417904660107,0.3333006529137492,0.4021978974342346,-0.8347132205963135]},{"row":8,"column":4,"elements":[-0.015198929344478529,0.2850271761417389,-0.35450566094368698,1.2575963363051415,0.27321785874664786,1.0741220116615296,0.030025258660316469,0.8515832051634789,-1.935885816346854,-0.0687352151144296,-2.296427270397544,-1.104289971292019,-0.20249505247920752,-0.1044781468808651,0.4957809513434768,0.7287842761725187,0.20269453153014184,0.27001195057528096,0.04967479780316353,-0.2911709938198328,-0.06717029213905335,0.769363708794117,0.18950144201517106,0.580182321369648,0.7180479522794485,-1.9235135205090047,0.025432373397052289,-0.12729488871991635,-0.8962658531963825,0.5212907260283828,-0.05945899151265621,0.3326738215982914]}],"biases":[{"row":1,"column":8,"elements":[0.1577134127728641,1.0736018689349294,-0.1390065997838974,-0.9029494966380298,-0.2965903510339558,0.014550138264894486,-0.40637366473674776,0.4564785473048687]},{"row":1,"column":4,"elements":[-0.1471682544797659,0.8851609537377954,-0.7158145718276501,-0.31252431869506838]}],"inputSize":27,"hiddenSize":8,"hiddenLayers":1,"outputSize":4}