{"weights":[{"row":17,"column":8,"elements":[0.17169271409511567,-0.7500828038901091,0.6792287733405829,0.49231334775686266,-0.7321196869015694,0.13692900678142906,0.2295992374420166,-0.6773584634065628,0.6942435912787914,-0.6657725814729929,-0.6415689364075661,0.5493840742856264,-0.526744787581265,-0.004771076142787933,-0.24677908420562745,0.029293071944266559,-0.16215932369232179,0.5820785253308713,0.32366986759006979,0.6341975633986294,-0.6898171603679657,0.3630699703935534,-0.1976878521963954,0.4362574890255928,0.3103358643129468,-0.4870446271961555,-0.39003629609942438,0.6551456479719491,0.8878371180035174,-0.17137796262977646,-0.4684629626572132,0.822998559102416,-0.3180503249168396,-0.3309071892872453,0.9578877668827772,0.18612216226756574,0.5006318427622318,-0.7079808432608843,0.5858359411358833,0.10857616970315576,0.850201066583395,-1.028882384300232,-0.41990043641999366,0.18660082016140223,0.798351526260376,-0.8199905902147293,0.2571922531351447,0.8210493358783424,0.9766212869435549,-0.0041929613798856739,0.2246025949716568,2.752612513839267,0.3573650768958032,0.9481696807197295,1.0269694961607457,-0.16875308565795422,0.7406107056885958,0.9183167796581984,0.5214829687029123,-0.010957194725051523,0.8077176846563816,0.9055500105023384,0.7676858985796571,-0.06558784283697605,-1.6228418089449406,0.5652408339083195,0.2022978439927101,-0.3631286481395364,0.539502453058958,-0.525510385632515,0.36716369492933156,-0.9436573579150718,-0.07654029503464699,0.3992067202925682,1.0466077327728272,-0.49314331263303759,-0.0005004387348890305,0.9176986133679748,-0.7744497060775757,1.2113557029515505,0.4895286373794079,0.8682540543377399,0.18973557418212295,0.5250043123960495,-0.6788158323615789,0.8683368787169457,-0.2128080204129219,0.5977275986224413,-0.22550375014543534,-0.7008876781910658,-0.4004460871219635,0.4724305607378483,0.22898485139012338,0.15183888375759126,-0.11909845098853111,-0.3607324305921793,0.3857780424878001,0.17564067617058755,0.5484645417891443,0.5296671316027641,-0.45462541840970518,-0.6954908519983292,0.8533406797796488,-0.4973531812429428,0.5447503365576267,0.1937979906797409,0.7389633804559708,0.7130641415715218,-0.7066556829959154,0.3844006173312664,-0.401661179959774,-0.8459320776164532,1.0720845852047206,0.11945771798491478,0.22780319675803185,-0.42411732487380507,-0.06236785650253296,0.16519888117909432,-0.6212246678769589,-0.13511786237359048,0.807885929942131,-0.8143674409948289,0.343600582331419,-0.9993293359875679,-0.5238651819527149,-0.24535451736301185,0.7338772360235453,0.2821630537509918,0.40373725444078448,1.2185449730604888,-0.08717243932187557,0.10183127224445343,-0.1565370112657547,-0.31287367874756458,0.5607497282326222,0.2325001396238804]},{"row":8,"column":4,"elements":[-0.47471044212579729,-0.7931377831846476,-0.20376790687441827,0.40050526801496746,0.23205489292740823,0.20386015996336938,0.8680756129324436,-0.18588788993656636,-0.4046290824189782,-0.610897297039628,0.31537446565926077,0.3802450932562351,-0.37703573051840069,0.45369357988238337,-0.21038592979311944,0.8127238024026156,-0.8003384564071894,0.6112857749685645,0.9314544200897217,-0.24417281057685615,0.8339973110705614,0.40454435907304289,0.42124705761671069,0.631826181197539,0.5384152997285128,-0.9395856224000454,-0.3757392019033432,-1.0034402683377267,-0.11943145841360092,0.6653387728147209,0.15118473395705224,-0.19044568855315448]}],"biases":[{"row":1,"column":8,"elements":[0.4684206359088421,-0.5293646398931742,-0.6709002079442143,0.7355431895703077,-0.09812330082058907,-0.10493704676628113,-0.9692170385778809,-0.18989253509789706]},{"row":1,"column":4,"elements":[0.5758004784584045,0.3440374508500099,-0.826597498729825,1.08093598857522]}],"inputSize":17,"hiddenSize":8,"hiddenLayers":1,"outputSize":4}