{"weights":[{"row":27,"column":8,"elements":[-0.5709491055458784,-0.8217948883539066,0.19978377781808377,-0.45450478279963138,0.9487215341068804,-0.877648938447237,0.8665977977216244,-0.6513929874636233,0.2552239056676626,0.32150506507605317,-0.5702423945767805,0.5339746549725533,0.23812447115778924,-0.9337839451618493,0.49374293023720386,-0.17352309543639422,-0.5680758655071259,0.2671599192544818,0.5444900398142636,0.6210847864858806,-0.21829964872449637,0.052881218725815418,0.2390402015298605,0.5730741396546364,0.6123774833977222,0.6476988354697824,0.8463914567837492,-0.003660187590867281,0.45306713692843916,-0.4881817866116762,0.42996889911592009,0.36148208379745486,-0.07667571268393658,0.9464785736054182,0.15066947042942048,-1.1081275418400765,0.17874101595953108,0.6646903175860643,0.22078461665660144,-0.8307585492730141,0.737271027173847,-0.4544416517019272,0.5386984590440989,-1.035196766257286,1.0781864346936346,0.2807336077094078,-0.9315924197435379,0.05160611867904663,-0.9607160139130428,0.2977355122566223,0.105186203494668,0.1880265036597848,0.07250746339559555,1.0191002256178763,0.07987374975346029,0.14647123962640763,0.31053248047828677,0.7579516973346472,0.8320520929992199,0.37481412291526797,-0.27922477369429546,0.10172659531235695,0.10281182639300823,0.8668182472320041,-0.1720296135172248,-0.46111902315169575,-0.7813983857631683,0.42255330085754397,-0.7499041557312012,-0.9317607283592224,-0.8076106109656394,0.4689921969547868,-0.4245401509106159,0.11800073180347681,0.12558921985328198,0.15925996750593186,0.37272174656391146,-0.6504644490778446,-0.9559049485251308,0.5716791320592165,0.8373170294798911,-0.3293776510399766,-0.9932276457548142,-0.7023503641830757,0.5770623218268156,0.6084777312353253,0.157857034355402,0.9244162809191039,0.24988825235050172,-0.3511534854769707,-0.46689561661332848,-0.603096240432933,0.8409787863492966,-0.26189569756388667,0.6764590758830309,-0.4057873822748661,-0.4453652056399733,-0.5072555458173156,-0.1849017192143947,-0.7606041729450226,-0.62423359695822,-0.27792771626263859,0.9838290773332119,0.1595986057072878,-0.635575145483017,-0.12461822357727215,0.7756675081327558,-0.40989786572754385,0.0748889995738864,0.48696406930685046,0.10773385688662529,-1.634730932302773,0.12663329229690135,-0.12218319810926914,0.5150740800891072,0.9254644196480513,0.6152492361143231,-0.3342838790267706,0.19700809009373189,0.013151056133210659,0.17714293906465174,0.23188664019107819,0.11337501788511872,0.2383773773908615,-0.7313866727054119,-1.2009060010313988,-0.49356100894510748,1.2162631824612618,-0.2538279271684587,-0.4533242769539356,-0.45639834098983558,-0.9587501483038068,0.25969257950782778,-0.41171604581177237,-0.7518592970445752,0.17038752138614655,-0.4720546880271286,0.12215758860111237,-0.8055511678103358,1.1811913810670376,-1.0321108289062977,-0.5965041546151042,1.036213519750163,0.8814290399895981,0.5748437643051148,-0.7980441311374307,0.27334812917979436,1.0203020237386227,-0.594651245046407,0.7869006767868996,0.8143703117966652,0.4375622235238552,0.7299693776294589,2.22663049492985,0.9861315302550793,-0.7862374801188707,-0.2541406024247408,-0.1442519520642236,-0.3732941106427461,0.542210137937218,0.9328688075765967,-0.8100774912163615,-0.8845945987850428,-0.6162530556321144,-1.9871372021734715,-0.34826625138521197,-1.4466017903760076,1.0583674553781748,-0.5070838164538145,0.5502856820821762,0.5205279309302568,-0.4029219504445791,-0.09268492134287954,1.2116070669144393,0.1405536625534296,-0.2862924318178557,0.048469108529388908,0.8176218615844846,0.9389259141171351,-0.34419573191553357,1.0437335218302906,-0.341628760099411,-0.8741397210396826,0.11695831594988704,-0.26284416392445567,0.683696432155557,-0.009359616786241532,0.20687889168038965,-1.6706207813695074,-0.6388215981423855,0.23355973791331054,-0.6643213452771306,0.4243121696636081,-1.3898222809657455,0.7976421294733882,-0.6214384925551713,-0.4374780240468681,-0.24957292713224889,-0.8345874045044184,0.6812013052403927,-0.1232798658311367,-1.7302455119788647,1.044318150728941,-0.8634658008813858,0.714175526984036,-0.29529326036572459,0.4200567156076431,1.226085141301155,-0.6674578785896301,-0.20934262254741044,0.2666844241321087,-0.3211071193218231,1.020179545506835,-0.18086233083158732,0.7744279378093779,-0.10426049493253231]},{"row":8,"column":3,"elements":[-0.6756516678724438,0.39240891952067616,0.3280372768640518,0.18613926088437439,-0.09897560393437743,0.34313268936239185,0.16174928937107325,0.9650149270892143,-0.41392700280994179,0.4567849151790142,0.26094047725200655,0.6455560829490423,-0.6869172141887248,0.6601480059325695,-0.26317464001476767,-0.37140310276299717,0.5440716296434403,0.11480424646288157,-0.39484352618455889,0.1627461900934577,-1.1379040628671647,0.18543447367846967,0.41872283164411785,0.15818115905858577]}],"biases":[{"row":1,"column":8,"elements":[-0.6886409474536777,-0.17889141710475088,0.21131958439946176,0.8091327794827521,-0.17266419902443887,-0.18445254489779473,0.5676107965409756,-0.8388069136999548]},{"row":1,"column":3,"elements":[0.5170905841514468,1.269491733983159,0.4391391724348068]}],"inputSize":27,"hiddenSize":8,"hiddenLayers":1,"outputSize":3}