{"weights":[{"row":26,"column":8,"elements":[-0.8323996340623125,0.5177135216072202,-0.08791926875710488,-0.770008509978652,-0.9900095948833041,0.11949659325182438,-0.055445250356569889,-0.9323242329992354,-0.8162277222145349,-0.6094712454359978,-0.9421606063842773,-0.2334357115905732,-0.43755334708839657,0.4022113289684057,-1.7674778997898102,-0.7863428676500917,0.10760170966386795,0.14758294448256494,0.31968241184949877,0.7420811019837856,-0.6249021063558757,0.5901760694105178,-0.8691505156457424,-0.3578563650371507,0.6829946180805564,-0.781602431088686,-0.8564669154584408,0.7576529766665772,0.7843080768361688,0.5704779466614127,0.3257838636636734,-0.1175571121275425,0.4424609839916229,0.0057342760264873508,0.5105319283902645,1.0253064257558436,0.9081594739109278,-0.8439719956368208,0.3144506048411131,-0.8096654741093516,-0.33474063128232958,-0.5719618266448379,0.8866177210584283,-0.6719195633195341,-0.3033777014352381,0.4641500578727573,-0.4926077490672469,-0.05427011474967003,-0.9462937726639211,0.9282226362265647,-0.32427164539694788,0.5649217050522566,-1.4485151688568295,-0.8547122478485107,-0.06817305646836758,-1.305686593055725,0.04336860403418541,-0.7589534113649279,-0.7679411144927144,-0.9332841392606497,0.43775552336592229,-0.4356822830159217,-0.20257856417447329,-0.44494958128780129,-0.16081033684895375,0.5930348467081785,0.3524897675961256,0.8088993499986827,0.09348465874791146,-0.9857724700123072,-0.0748177352361381,0.7499033526983112,-0.6428813524544239,0.39949752390384676,-0.8128490633098409,0.15073723159730435,0.1582234427332878,0.2733267955482006,0.3471325784921646,-0.18378174304962159,0.6221603830344975,0.8945915969088674,2.520760486833751,0.5973424110561609,-0.7046469561755657,0.05843221768736839,-0.44534133560955527,0.4870260413736105,-0.10132877877913416,0.2555627119727433,-0.12947396002709866,0.13624016102403403,0.32701025949791076,0.036342084873467687,0.4214966557919979,0.7913346290588379,0.1352956765331328,-0.6560673611238599,-0.728638953063637,0.4828542359173298,-0.8417595364153385,0.11703483015298844,-1.757409930229187,0.14051099494099618,-0.8480997225269675,1.7492076167836786,1.4518279638141394,-0.28706371432053859,0.8106493707746267,-0.4962744852527976,-0.4914569351822138,-0.8199376501142979,-1.3696067678974942,-0.5422490208875388,-0.6854939870536327,-0.663614765740931,-0.0017841779626905919,1.6126576624810696,-0.6032125800848007,-0.9583380818367004,1.0435975628788584,0.5298604667186737,0.648069734685123,-0.2631008252501488,0.7423513792455196,-0.4330486422404647,0.5875267032533884,-0.7294029304757714,0.24500952661037446,2.0546083990484478,0.06984423100948334,0.397677066270262,-1.192475396906957,0.8671354074031115,-0.29245314933359625,0.5752464551478624,0.7335765846073628,0.41694197058677676,-0.37068632687442007,-0.8847165815532208,-0.22063088975846768,0.19681721553206445,0.1490137903019786,0.3183249421417713,0.7663625627756119,-0.9685883596539497,0.5497803990729153,0.6610125880688429,1.9991838028654457,0.8778025934007019,1.826736617833376,0.5108800325542688,0.39819004526361825,0.7747066412121058,-0.5805918065598235,-0.7062409743666649,0.46891021355986597,0.7474381141364574,-0.6405705828219652,0.726958092302084,-0.04434479773044586,2.0186846256256105,-0.18995610438287259,-0.4022246634121984,-0.7053368166089058,-0.4388249050825834,-0.16651764884591103,0.32948565669357779,0.3748847128590569,-1.0094629586674274,-0.5018976457649842,0.35358184576034548,-0.8500357381999493,0.36848417297005656,1.097398869227618,-0.15480050817131997,-0.5068972688168287,0.6078575253486633,-0.1848967093974352,0.43860333366319539,0.2070772498846054,0.19615166634321214,0.5372661761939526,-0.2588063543662429,-0.054686948424205187,1.0266845226287842,0.3672451935708523,-0.7298498605377972,-0.2471800334751606,-1.9335628943517805,0.744452340528369,-0.383290471509099,-0.8072898769751191,-1.4279423952102662,-1.188243311829865,0.7030195202678442,-0.17081276047974826,0.9833236336708069,-0.0438842850853689,0.27814286202192309,0.7113409359008074,0.6088577061891556,-1.1630813851952553,0.5993815157562494,-0.062388123013079169,2.015021562576294,-0.8776534637436271,2.5325479824095966]},{"row":8,"column":4,"elements":[-0.6166141754947603,0.09535518637858331,-0.13852572184987367,-0.5518166422843933,0.17569884285330773,0.04957470763474703,-0.793972834944725,0.24727765563875438,-1.3537181792780758,0.7241004966199398,-0.37715994566679,0.26009169733151796,0.03174844570457935,1.4130651019513608,-0.9196479539386928,-0.44820624589920046,-0.5430488679558039,0.4223999725654721,0.07879737764596939,-0.3433318748138845,1.0836079767905176,-0.3189811799675226,0.10686680488288403,-0.06792824389412999,-0.19386020838283003,-0.24971800623461605,-0.8565793489106,0.6817996769677848,-0.4558900073170662,-0.7914430350065231,0.27169199334457519,0.7528261542320252]}],"biases":[{"row":1,"column":8,"elements":[0.7267483808100224,-0.11540684441570193,0.5932695996016264,1.0880292896181346,0.8291561063379049,0.231672253459692,-0.698299590498209,0.6183559689670801]},{"row":1,"column":4,"elements":[-0.762971596326679,0.1499436879530549,-0.025445005856454374,-0.08605370111763478]}],"inputSize":26,"hiddenSize":8,"hiddenLayers":1,"outputSize":4}