{"weights":[{"row":24,"column":8,"elements":[0.32008809596300127,1.3233183636330069,0.7483656946569681,-0.3406588276848197,0.23129508178681136,-0.7720146663486958,0.14871412748470903,-0.1801998382434249,-0.530678647570312,0.783324125688523,-0.7504826495423913,0.9746087193489075,0.07001728191971779,0.2056057001464069,-0.36657123401528227,-1.0914847506210209,-0.3714045003289357,-0.8527689669281244,0.9281832445412874,-0.36267100647091868,-1.1290175078902394,1.0331788023468108,0.4681071487721056,0.7209554044529796,-0.08495939779095352,-0.16493241302669049,0.8422324067214504,0.009621713310480118,-0.47133769001811745,-0.7842908620368689,0.39552858751267197,0.13268567621707917,-0.9000781811773777,0.3000192861072719,0.6358495056629181,0.033746229484677318,-0.06649463204666972,0.9056012779474258,-1.097411410883069,-0.016093257814645768,0.15264310920611025,-0.8410851741209626,0.2754833030048758,0.2158693578094244,0.8037166241556406,-0.7178582216147333,0.43548971600830557,0.6467642532661557,0.6373005374334753,0.44398533552885058,-0.7100188035983592,0.8898097202181816,-0.46327735437080266,0.6977730356156826,-0.6900377194397152,-0.44404593762010338,-0.725029910216108,-0.30512745562009516,-0.15045359265059234,0.6527418503537774,-0.5161870326846838,-0.553610946983099,-0.6733948495239019,-0.8893851805478334,-1.0851316563785077,0.17476707883179189,-0.9242908954620361,0.10477739293128252,0.8132486408576369,0.440640302374959,-0.8322097230702639,1.7918706350028515,-0.8309567114338279,0.5407690112479031,1.0087269521318377,0.08431042497977615,0.22937306202948094,0.47549913893453779,0.4557889010757208,0.11215509101748467,0.20670809224247933,-0.4077919600531459,-0.13881342159584166,2.1673307605087759,-0.9082462610676885,0.5368189252912998,0.18152657244354487,0.38842411059886219,-0.2123493286781013,-0.9864958796533756,-0.572013539262116,0.01061929203569889,0.626002449542284,-0.2237921403720975,-0.855991542339325,-0.3222326459363103,-2.2394503355026247,0.35921713802963498,-0.04107591137290001,0.1310062233824283,0.35569647955708208,0.7468858973588795,0.7090928684920073,-0.4420297882752493,-0.5823183795437217,-0.06949349120259285,0.6332023101858795,0.21468900609761477,0.11274324730038643,-0.12581363320350648,-0.8792280851630494,0.48729692958295348,-1.1317993979901076,-1.1798254437744618,-0.15495248150546105,-0.754385557025671,0.10704065253958106,-0.37977286451496186,-0.7165798731148243,0.04253534600138664,-1.3361449539661408,0.004013048484921455,0.19647407601587475,-0.8469619154930115,-0.2912660613656044,-1.0266740210354329,-0.4986557513475418,0.26191577315330508,0.4538592165336013,0.3132366444915533,-0.20425079762935639,-0.39634765451774,-0.031447376823052767,0.39312739484012129,-0.12028148397803307,0.24679799750447274,0.5889155520126224,-0.28669402934610846,-0.8966046068817377,-0.9453919145744294,0.4292861074209213,-0.9668901609256864,-0.2939862534403801,-0.03641875577159226,-0.34717296063899996,-0.9283638782799244,-0.3298901114612818,0.062130646081641319,0.5330190733075142,-0.8286167492624372,0.6365712527185679,-1.1517779380083085,-0.5605693599791266,0.03631722088903189,0.917556188069284,0.3195733481552452,0.27414034493267538,-0.7855137079022825,0.5130633376538754,-0.3584707211703062,0.9636857807636261,0.8242447543889284,-0.8027223916724324,0.5773908975534141,-0.962336301949108,0.019428514991886915,-0.26349809765815737,-0.15888451412320138,0.7357530654408038,-0.5458122950512916,-0.5247875270433724,0.644962590187788,0.22434307890944184,0.6528091533109546,0.812772608245723,-0.7896476495079696,0.5417160727083683,0.23264302825555206,-0.530230475589633,-0.4631304710637778,1.2119739260524512,1.066816110163927,0.7652518297545612,0.9864937141537666,-0.47170813695993277,-0.13934988342225552,-1.0353510489221663,-0.010937362909317017,-0.9541906919330359,-0.1520520281046629,0.6861788332462311,0.8572608138201758]},{"row":8,"column":3,"elements":[0.23318016342818738,-0.41929951310157778,0.9520752318203449,0.36325002371449957,-0.40011386200785639,-0.47265676967799666,-0.4030742384493351,2.04557453840971,1.2161666341125966,-0.2470962256193161,-0.7274969187565148,-0.49884044006466868,1.2146694911643863,-1.899883784353733,-0.498820960521698,0.22480854392051698,-0.9336702073342167,-0.8356178030371666,0.7992335367016494,-0.6407539199572057,1.097968865185976,-0.06326050404459238,-0.3227535132318735,-0.9932952774688602]}],"biases":[{"row":1,"column":8,"elements":[-0.2990595407318324,0.7067452594637871,0.22635755222290755,0.18399421032518149,-0.24226603843271733,-0.8458929993212223,0.9888939298689365,0.23819950968027116]},{"row":1,"column":3,"elements":[1.0275801345705987,-0.06815429218113423,-0.5571584471035749]}],"inputSize":24,"hiddenSize":8,"hiddenLayers":1,"outputSize":3}