{"weights":[{"row":27,"column":8,"elements":[0.46557940542697909,1.286885216832161,-0.22190586850047112,-0.5336162651656196,-0.47570531885139646,-0.5888517566490918,1.0421854050364346,1.9450349723920227,-0.7350886166095734,0.36415555281564596,-0.5781104015186429,-0.5602637194097042,-0.35173055715858939,-0.8429505228996277,0.6230862662196159,0.2077883305028081,0.2768516317009926,0.5040964912623167,-0.2190938014537096,0.2249807007610798,0.06860116985626519,-0.6145045575685799,-0.7692607548087835,-0.3139018272049725,-1.0673053599894047,-0.22345777601003648,0.6930850809440017,0.04100583586841822,0.4647531299851835,0.49636171432211997,-0.07252095406875014,0.20284898206591607,-1.0282389419153333,-0.8210189491510391,0.7887282660230994,-0.28992454521358015,0.8685325444675982,-0.40790774766355755,-0.9579804055392742,0.3898195009678602,-0.5470387265086174,-0.8966574836376822,-0.6905172672122717,-0.8596332026645541,0.051933273673057559,-0.8131281556561589,-0.28457694314420226,0.9314696933142841,0.03719993261620402,0.8726023468188942,-0.11219335440546274,-0.9953458132222295,0.2988266311585903,0.5058872681111097,0.8569760821119417,1.4557378171011806,1.0742094705346972,-0.15216068271547557,-0.57740618288517,-0.07027717959135771,0.8329709582030773,0.9831620752811432,-0.49887063540518286,-0.9403981384821236,1.0555226071737707,-0.874460103455931,0.25287766568362715,0.97560765594244,-0.9238510397262871,0.7572260163724423,0.5897277696058154,-0.8577071838080883,-0.41251393035054209,0.009775698650628329,0.3001052364706993,0.6321964357048273,-0.8416190091520548,0.04185207560658455,0.1929573900415562,-0.6634943187236786,-0.11695082625374198,0.44469968462362888,-0.20477460697293282,0.752980524674058,0.8874000725336373,-0.7988923452794552,-0.15751897357404233,-0.9299580743536353,-1.3896551453508437,-0.9834069646894932,0.02287234365940094,0.6748794009909034,-0.9376561604440212,0.5380980689078569,0.11837231460958719,-0.518366452306509,0.08900099899619818,-0.09369389712810517,0.5438103551277891,-0.5891949087381363,0.7944234274327755,0.46729640383273365,0.025346338748931886,1.081978871487081,-0.8426819611340761,0.6494781691581011,0.3507096695830114,-0.6756531000137329,-0.8586664628237486,-0.8085022196173668,0.30570921767503025,-0.36119636707007887,-0.2768521811813116,-0.30373901315033438,-1.0479731243103743,-0.004442221950739622,-0.18307805620133878,0.2090289108455181,0.1718132235109806,-0.5755207892507315,-0.435278058052063,0.9767131092958152,0.12723267544060946,-0.005243077874183655,0.04249161295592785,0.3169498313218355,-0.5644321963191032,-0.08783043082803488,0.44567498192191126,0.337578963721171,-0.07364213466644287,-0.2541490625590086,-0.8908106759190559,0.335675080656074,0.35560903884470465,-0.5925179976038635,0.4837576448917389,1.2354957193310839,0.009836120530962944,0.8525364501401782,-0.22432462871074677,0.7844943013042212,-0.7554932804778218,-0.864529519341886,-0.7098333723843098,0.12688668712507934,0.5058386940509081,0.5845331074669957,0.9587778672575951,-0.4790693963877857,0.21541140181943775,0.8194385785609484,-0.2511221980676055,-0.7293162196874619,-0.12107582576572895,0.3776500253006816,0.22963373735547067,-0.18901660479605199,-0.2914232537150383,-0.6843919650418684,0.258259404450655,-0.004662476480007172,-0.16400138824246825,-0.6898570489138365,0.2355213993578218,-0.5382279922923772,0.7677685273811221,0.14448400028049947,0.8762612582650036,0.1135601531714201,-0.023782547563314439,-0.2165369582362473,0.006371161434799433,0.9934052079916,0.44026511907577517,-0.12122171185910702,-0.4421550929546356,0.4089544713497162,-0.6357471588999033,-0.27787102153524759,0.16694242879748345,-0.5608830628916621,0.20476388279348613,-0.29849543143063786,0.68726278655231,0.8532544827321544,-0.3691193424165249,-1.076034135185182,-0.5820560213178396,-0.4435138960252516,-0.4516183049418032,-0.16210217960178853,-0.37503772880882027,0.05778605304658413,0.42743639973923566,0.24563991278409959,0.7652853964827955,-0.043469630647450688,-0.38061416149139407,0.8646718133240938,0.9103852473199368,-0.7174219042062759,-0.6411860585212708,-0.2428719624876976,-0.6410307260230184,-0.9609184563159943,0.2987094623968005,-1.5744887553155423,0.07411888241767883,-0.5749716442078352,-0.7240304779261351,0.4421893209218979,0.3849150612950325,-0.19977481849491597,0.762735334224999,0.6265031951479614]},{"row":8,"column":3,"elements":[-0.25633684545755389,-1.0910677909851075,0.3526312876492739,0.7559545300900936,1.4518785779364408,-0.9331760555505753,-1.0016962513327599,0.5448652845807374,-0.8393172807991505,-0.021724434569478036,-0.9566099105868489,0.5397549113258719,-0.8281674683094025,0.5529416427016258,-0.43755981139838698,0.389878585934639,-0.9345347881317139,-0.09324108064174652,0.6467934884130955,0.20753912534564734,-0.5173182468861342,0.04587676003575325,-0.19201916683232413,-0.7795462477952242]}],"biases":[{"row":1,"column":8,"elements":[-0.7912597339600325,0.8354708724655211,0.9040656201541424,-0.7735794968903065,0.4692736826837063,0.6530911927111447,0.02252332493662834,-1.4644082984887064]},{"row":1,"column":3,"elements":[-0.9316767575219274,-0.5094856563955545,-0.41455001663416626]}],"inputSize":27,"hiddenSize":8,"hiddenLayers":1,"outputSize":3}