{"weights":[{"row":26,"column":8,"elements":[-0.10292121628299356,-0.10394120775163174,0.21452978253364564,-0.8495900016278029,-0.7257365162950009,0.725147063145414,-0.5393096208572388,-0.29986897739581766,-0.8216868794988841,-0.7055460410192609,0.5423070676624775,-0.14793164283037187,-1.0838565826416016,-0.989263211376965,0.05283928103744984,-0.20133816916495562,0.2504903832450509,-0.6897175312042236,-0.38664305303245785,-0.311440440826118,-1.1373744867742062,0.18989970721304418,1.024845838546753,-0.04335752921178937,0.06378528103232384,-0.23553253524005414,-1.0529667376540602,-0.2746706958860159,-1.2248030789196492,0.498274601995945,-0.9973143977113068,0.19560802544583567,-0.08671934646554291,-0.5467477699858137,-0.7729719114722684,0.49970829114317896,-0.6920400653034449,-0.9432741282507777,0.34852821938693526,0.43259152164682748,1.0968075123964809,-0.20313962595537306,1.3037852048873902,-0.5667503345757723,0.18704627454280854,-0.24519051844254137,-0.17803120566532017,-0.18033338012173773,-1.3022132710902952,-0.28364538215100767,0.5404761508107185,-0.6690455339848995,-0.2962486995384097,0.5912872813642025,-0.7571871131658554,-0.6083986638113856,-0.29240285605192187,0.23085452243685723,-0.8484321036958136,-0.6699421359226108,0.7758614355698228,-0.944071693229489,0.18402721360325814,-0.16094410046935082,0.9674913352355361,0.14453447237610818,0.6449992191046476,-0.7947649359703064,-0.485626770183444,-0.852376299444586,-0.5586826857179403,0.43391798343509438,0.030009491369128228,0.8086261644493789,0.20690922997891904,-0.10165125178173185,0.018305204808712007,0.14203181210905314,-0.8083566799759865,0.5746554746292532,-0.9746612133458257,-0.3504577612038702,-0.47752333153039219,0.13424310693517328,0.4787181206047535,0.3682289943099022,1.3263551108539105,0.4465729841031134,-0.2220753424335271,-0.6564457719214261,0.21813952084630729,0.08026172232348472,0.0765240197069943,0.7167247533798218,-1.0104123214259744,0.04484870706073707,0.7888870078604668,0.1655493676662445,-1.9854549746960402,0.40673527866601946,0.3265956686809659,-0.22933884523808957,0.3768971124663949,-0.9652191987261176,0.4042188227176666,0.4588491525501013,-0.6390522718429565,0.47062456980347636,-1.0961389485746623,0.7759202560409904,-0.8622090240824036,-0.3488005534745753,-0.3962346284533851,-0.8320923447608948,-1.0073240487836302,0.36768903816118839,1.4198550865985454,0.1687877606600523,-0.9241879675537348,-0.855875737965107,-0.5544791705906391,0.505825012922287,0.13875795481726528,-0.15747192883281969,0.29084105137735608,-0.6360386721789837,-1.6069592610001565,0.9187830939772539,0.5681929264683276,-0.4207673872297164,-2.1615979849593716,-1.4081790577620268,-0.5886862576007843,-0.4116718992590904,-0.3119071206310764,0.14826790615916253,0.5419751890003681,0.11872004764154554,-0.9393318749498576,0.697877174243331,0.47765414183959367,0.37104508420452478,1.8084815852344037,0.021527785807847978,-0.6265913923271,0.08779589645564556,0.8594471636461094,-1.5522449128329754,0.7174243796616793,0.15044463239610196,0.44960255501791837,-0.6485562659800053,0.290327129419893,-0.8690488124266267,0.1993076354265213,-0.6326046101748943,0.671186201274395,0.8476271657273173,-0.4617856885306537,-0.9080939497798681,0.13055814837571234,0.6806321325711906,-0.7172606429085136,-0.9570447942242026,0.12767812301171944,-0.49571763072162869,1.1181144565343857,-0.6220592446625233,1.0275004806462676,0.13551296386867762,0.33639949560165408,-0.29597464311518709,-0.2618770897388458,-0.09718403965234757,0.07768141975975596,1.7073920965194703,0.40712532866746189,-1.0616050851531327,0.583451992366463,-0.20560874789953233,0.8061842322349548,-1.111003058264032,-2.6359007358551027,-0.5336159057915211,1.2924997524823994,0.9809589590877295,0.48790877871215346,1.0608263537287713,-0.2546015828847885,0.9865788018796593,-0.04608785081654787,-0.10212604515254498,-1.0343448868952692,-0.10802270285785198,-0.41656321939080956,-0.09974941331893206,0.5145993577316403,-0.36530411429703238,-0.048122840002179149,0.8845065881905612,-1.7104116156697274,1.0489477133378387,0.1394686233252287,0.3996407091617584,1.0157175371423364,-0.6620485987514257,-0.8846293701790273,-0.2624800968915224]},{"row":8,"column":4,"elements":[0.8521145563572645,-0.6230534324422479,0.3850261140614748,-0.18880082853138448,0.3178183070849627,-1.0378345344215632,0.4168673027306795,-0.18799720704555512,0.39357821736484768,-0.3664202489890158,-0.21013659937307239,0.06692528910934925,-0.0877949739806354,-0.8621747149154544,-0.09605875238776207,-0.6910353824496269,0.6591411419212818,-0.2174467238073703,0.1322115920484066,0.3494734159176005,-0.07490736641921103,-0.4384314762428403,0.5450404668226838,-0.9834450595080853,-0.45144798001274469,-0.23256562650203706,0.7147994972765446,0.08311813697218895,0.1742774536833167,0.3116429504007101,-0.15281214378774167,0.4255371764302254]}],"biases":[{"row":1,"column":8,"elements":[0.5978265437297523,0.267243430018425,0.01604006439447403,0.4388494649901986,-0.38755138870328667,-0.5997156742960215,-0.16570569947361947,-1.435011014342308]},{"row":1,"column":4,"elements":[0.14373758947476746,0.49252836126834156,0.21536079607903958,-0.910942179732956]}],"inputSize":26,"hiddenSize":8,"hiddenLayers":1,"outputSize":4}