{"weights":[{"row":26,"column":12,"elements":[0.6515934020280838,-0.07879785634577275,-0.19297659397125245,-0.6891206316649914,0.7487620823085308,0.393238240852952,0.36649027932435276,0.9100457243621349,0.8265152499079704,0.19488749839365483,0.5443975320085883,0.8105435371398926,-0.4215544853359461,-0.7305006943643093,0.5107762087136507,0.13589584827423097,0.6126475557684898,-0.615031092427671,0.6148841381072998,-0.841501628048718,-0.32347934879362585,0.8685670904815197,-0.7600894588977099,-0.5970379672944546,-0.45377284102141859,0.4422360733151436,0.5223980443552136,0.4350202903151512,-0.5832293601706624,-0.4931432008743286,0.31012623966671529,-0.05450480431318283,0.09941419214010239,-0.5717485211789608,-0.433455653488636,-0.02151496149599552,0.28408014588057997,0.5950145125389099,1.0322584174573422,0.9061674326658249,-0.7775555644184351,0.7715028678067029,-0.8165677993092686,-0.3424198403954506,0.12483316473662853,0.9732705922797322,0.45170264691114428,0.5712233572266996,-0.7447859719395638,0.23565536178648473,-0.12442536372691393,-0.3087178170681,-0.501140896230936,0.3560046851634979,0.08439838350750506,-0.007161257788538933,-0.18243761640042067,0.021267576375976206,-0.7751437239348888,-0.9585664761252701,-0.1800782112404704,-0.5760552883148193,0.01670151762664318,-0.6466744281351566,0.7663252465426922,-0.36997387185692789,-0.2793057067319751,-0.48472537845373156,-0.12909872084856034,0.495111639611423,-0.27106473594903948,0.13331195898354054,-0.5828237533569336,0.7354024350643158,-0.48327503725886347,0.1616610288619995,-2.675882011651993,1.1145130395889283,-0.6509253978729248,-0.807704946026206,-0.9030360914766789,0.15393832884728909,-0.6671858597546816,1.0302485525608063,-0.28633435256779196,0.2084056162275374,0.47091569378972056,0.20108587481081487,-0.9273355603218079,-0.39933812618255618,-0.08874130621552468,0.7161833764985204,0.5465757846832275,-0.5859468728303909,0.0669165849685669,0.2943679243326187,0.18191751837730409,-0.9858373776078224,0.3124511642381549,0.12454178370535374,-0.8253126796334982,0.10415767133235932,1.1379482094198466,-0.6710643768310547,0.8706953525543213,0.25737748108804228,0.4172857999801636,-0.1533167352899909,0.11541864834725857,0.03805031627416611,-1.5510065257549286,-0.9896384626626968,0.4957243222743273,-0.6819620579481125,0.6180488243699074,-0.0941737238317728,0.21088667213916779,-0.3458678685128689,-0.523952909745276,1.1030191592872143,-0.5458319783210754,-0.7348057413473725,0.07838987186551094,0.10919296741485596,-0.3783031404018402,-0.5168760111555457,0.03903019428253174,-0.30461136624217036,-0.3581641800701618,0.062439669854938987,-0.7371774734929204,-0.6235776520334184,-0.8321568965911865,0.6631262619048357,0.5769062042236328,0.4611996207386255,0.6580813638865948,-0.5853781029582024,-0.8530275411903858,-0.01581716537475586,-0.746856689453125,1.2441694736480713,-0.15584073308855296,0.9293044749647379,-0.07300796546041966,1.0026521682739258,0.8096759673207998,0.8976100009167567,-0.9213189948350191,0.5610770620405674,0.5503532886505127,0.6597025394439697,0.6434831693768501,0.1994122713804245,-0.7282488346099854,0.8058781623840332,0.8360992558300495,-0.13040161319077016,0.458503725938499,0.35448265075683596,0.490418404340744,-0.39880407421151178,-0.27635451313108208,-0.7807512283325195,0.750166118144989,-0.4173019640147686,0.8949664831161499,-0.2828918695449829,0.5790121909230948,0.5537793207913637,-0.2665129667147994,-0.0721609138417989,-0.8519863486289978,0.4324697405099869,-0.5081642121076584,0.2614564746618271,0.6161779649555683,0.5980877876281738,0.9853016036795452,-0.9853535201400518,1.13931006193161,0.09098931332118809,0.6066169165133033,0.4420117081608623,-0.6322179669514298,-0.8036363534629345,0.4505891501903534,-0.694411464035511,-0.2717700805515051,0.9800696270540357,0.723481826018542,0.18994120508432389,0.49651582911610606,-0.22720180824398995,0.13382265833206476,-0.31604669243097308,0.07792861014604569,-0.8577441200613976,-0.7617580825462937,-0.3203741814941168,-0.02789313532412052,-0.8084862669929862,0.5742313265800476,0.510822057723999,0.27898430451750758,0.612441748380661,-0.3005302920937538,0.7573694360908121,-0.5447921045124531,-0.5378023013472557,-1.0058006811887026,0.40637554973363879,1.229068636894226,-0.8533158479258418,0.37890003994107249,0.8568040383979678,0.7336077317595482,0.1791662648320198,0.9056283561512828,-0.0793377822265029,0.022650759667158128,-0.14645709935575725,0.8487975392490625,-0.7492285184562206,-0.26497264206409457,0.19784479029476643,-0.47220503911376,0.46276642195880415,-0.530467689037323,-0.24625027738511563,0.5878331549465656,-0.11669211834669113,-0.5965981483459473,-0.9333049412816763,-0.21861541271209718,-0.6946216854266822,0.8033985793590546,0.796297624707222,0.37497588992118838,-0.1989576585474424,0.29223960638046267,-0.6900669187307358,-1.0568859800696374,0.02831399440765381,-0.6161927580833435,-0.5129795279353857,0.704548710025847,-0.7879063934087753,0.741787925362587,-0.22745366860181094,-0.7447621114552021,0.9070064648985863,0.5813644733279944,-1.663299322128296,-0.1050005853176117,0.4290678487159312,1.2058088779449463,0.7581594660878182,-0.8297433517873287,-0.437522342428565,0.5984350815415382,0.35738250613212588,-0.04806780623039231,-0.24840730149298907,-0.9326121583580971,0.1528410166501999,0.4828451853245497,-0.2965600751340389,0.04271178878843784,0.14471444860100747,-0.6043151877820492,0.49945516884326937,-0.011633934685960412,0.5681971609592438,0.2151709944009781,-0.9177038744091988,-0.3727960030300892,0.027136489748954774,-0.5444071292877197,-0.597354119643569,-0.9916601181030273,-0.8003492038697004,-0.17088711634278298,-0.12321633473038674,0.012172156013548375,-0.41175032779574396,-0.6801554746925831,0.5198664665222168,-0.06196654215455055,-0.07745810598134995,-0.301912784576416,-0.8024399280548096,0.45284289261326196,0.31309791933745148,0.8020563125610352,0.7390530109405518,0.9683521632105112,-0.9229563884437084,0.8681660238653421,-0.5785819590091705,-0.42619821056723597,-0.8739092107862234,-0.3529798984527588,-0.5356512069702148,0.3818909823894501,0.4900441374629736,-0.8069013021886349,-0.33630685321986678,-0.13579829968512059,-0.07776453718543053,-0.01709931530058384,0.1349348984658718]},{"row":12,"column":12,"elements":[0.33728814125061037,0.6750479936599731,-0.7323114075697959,0.26755639910697939,0.3045467659831047,-0.0529449051246047,-0.5455949828028679,-1.0351879708468915,0.99165278673172,-1.0175518486648799,0.721356488764286,-0.14057399332523347,-0.010510273277759552,0.6149200275540352,0.07214618474245072,0.5742084383964539,-0.8895680904388428,0.8203414613381028,-0.9823620319366455,-0.4158008787781,-0.10207666270434857,1.0780797526240349,0.012428008019924164,0.4990811087191105,0.4745000824332237,-0.1782940737903118,0.09450161457061768,0.42856363859027626,0.9377684742212296,0.7530794367194176,0.4170800410211086,-0.5938214585185051,0.2682059668004513,0.9208353832364082,0.0854238010942936,-0.3092648871243,0.7421553693711758,-0.2716024676337838,-1.0517702102661133,-0.32607890479266646,0.42357364599592986,0.9683273565024138,0.48574041356914679,0.48521181382238867,0.7966486215591431,0.3823704421520233,-0.33947232365608218,-0.10278364270925522,-0.04732245928607881,-0.30175813287496569,0.31908465176820757,-0.18150251358747483,-0.30438049882650378,-0.8613325171172619,-0.681901328265667,-0.004955887794494629,-0.24006638675928117,-0.5101885795593262,-0.3559514065273106,0.1024549100548029,-0.6874094009399414,0.28549978882074358,0.9239072832278907,0.5857443055137992,-0.8476398289203644,0.7525483183562756,-0.44219606183469298,-0.5303456336259842,0.09907704405486584,-1.0094121228903533,0.23427917063236237,-0.05497584491968155,-0.707733154296875,-0.059498997405171397,0.4688094723969698,0.9196441893000156,-0.7784591317176819,0.18168300203979016,0.7311857203021646,0.6941370135173202,0.4046704117208719,0.10833370685577393,0.6813787147402763,1.104323148727417,-0.11047255992889404,-0.28206511214375498,-0.2794957682490349,0.6203621816821396,0.388246750459075,0.9749005741905421,0.8809573650360107,-0.7772306464612484,0.7007674109190702,0.8676699139177799,0.9940417848993093,0.38689796440303328,-0.6615760701242834,0.21986638754606248,0.3713104266207665,-0.22884558886289597,0.8218059539794922,0.875406738370657,0.5207852721214294,0.6801328910514712,1.2049358221702278,-0.09916082350537181,-0.9472678825259209,0.4812891185283661,-0.8323230817914009,1.097116056829691,0.36282779276371,0.9147510528564453,0.12061223667114973,-0.4635770693421364,-0.07059882581233978,0.9519510604441166,-0.22484126407653094,-0.728674876736477,0.04586443305015564,-0.13671818375587464,-0.17272180318832398,0.2840393716469407,-0.26223577186465266,-0.13226205855607987,0.3175930669531226,-0.3225946966558695,0.17061886470764876,-0.8716853484511375,0.9730461724102497,-0.5259475354105234,0.4639799352735281,-0.8459516558796167,-0.7755473498255014,0.46797527419403198,1.001872580498457,0.9485146594233811,0.5778227560222149,-0.37399162724614146,-0.08317387104034424,0.3679197025485337,0.30584439635276797,-0.38578150421380999,0.20930156018584968,0.577129602432251]},{"row":12,"column":4,"elements":[-0.13579976558685304,-0.5576899126172066,1.01863694190979,-0.028759479522705079,0.8996938169002533,-0.0034282971173524858,0.08197583863511682,-0.0905106128193438,0.9473645202815533,-0.31991405971348288,0.6715565323829651,-0.3021635143086314,-0.9032735824584961,0.9558904469013214,-0.8309149518609047,0.051107220351696017,-0.7758031900157221,-1.0972395986318589,-0.6620746497064829,-0.07327017188072205,0.14325505401939155,0.5108380950987339,-0.44845141819678249,0.25631294026970866,0.8202709443867207,0.5319180637598038,-0.669293837621808,-0.85893664509058,0.4684860408306122,0.09818518161773682,0.5120875516440719,-0.6920175794512034,0.10534339770674706,-0.43942127749323847,0.2605080222710967,0.2955899992957711,-1.0967919621616603,0.07972893677651882,-0.4336639456450939,-0.7364915534853935,0.33469244837760928,0.1288705333136022,0.33835457265377047,0.4387742127291858,0.30448749102652075,0.8239303111331537,-1.0058922376483679,0.5457742214202881]}],"biases":[{"row":1,"column":12,"elements":[0.5640136953443289,-0.6074899882078171,0.015003632754087448,0.12283245474100113,0.1217682808637619,0.4881576240295544,0.5886425077915192,-0.1395241878926754,0.4062039637938142,-0.7701054215431213,0.3034936198964715,0.7739299591630697]},{"row":1,"column":12,"elements":[-0.1117614209651947,0.7645716592669487,-0.7522833421826363,0.5415897369384766,-1.095204595476389,0.7115906700491905,-0.8202626928687096,-0.8438314204104245,0.8957707798108459,-0.5980870127677918,0.7617554664611816,0.2802784312516451]},{"row":1,"column":4,"elements":[-0.497010063380003,0.5626818332821131,-0.1966337114572525,0.5571141447871924]}],"inputSize":26,"hiddenSize":12,"hiddenLayers":2,"outputSize":4}