{"weights":[{"row":27,"column":8,"elements":[0.560115173459053,0.8534881882369518,0.8562337756156921,-0.4417504370212555,-0.13656935072503985,-0.8370095770806074,0.0618854146450758,-0.8161707706749439,-0.44096196023747327,1.0055231525329874,-0.09985063970088959,0.43739602249115708,-0.6986854709684849,0.18921343609690667,-0.6318735908716917,0.9516539201140404,0.7425275735440664,0.778997362969676,-0.2069125866983086,0.49194366578012707,0.5879013240337372,0.828386053442955,0.6265327036380768,0.8109476566314697,0.09435504116117954,0.5497272312641144,-1.0059912470696873,0.979754607193172,-0.25168631970882418,-0.14479783177375794,0.13667678833007813,1.9695821329951287,0.4919824656099081,0.5629491405561566,-0.9641274865716696,0.869333915412426,-0.25165916234254839,0.5615397542715073,-0.6212496757507324,0.6248704353347421,-0.17519675008952619,-0.02872137911617756,-0.3795174499973655,0.6793799214065075,-0.7875709589570761,-0.5899579506367445,1.0630259551107884,0.7651371043175459,0.7012280002236366,0.6750664855353534,-0.7735727168619633,0.8247696014586836,-1.3605750873684884,-0.8702384848147631,0.026326425839215518,0.3677545243408531,0.42020016885362568,0.10688715241849423,0.5924961045384407,0.12080566957592964,-0.21363062132149936,-0.19239839166402818,-0.7237141728401184,-0.4349554004147649,0.032211117912083867,0.14881339855492116,0.4708858020603657,-0.7827616631984711,0.6641219239681959,0.4817738402634859,0.26170554384589198,0.23744139820337296,-0.8411206062883139,-0.8670148546807468,0.7052299648057669,0.8006454166024923,0.7979097366333008,0.16174098756164313,0.6557040214538574,-0.6733289044350386,0.8941570920869708,0.44787484407424929,-0.1869026580825448,0.7087254468351603,-1.997447907924652,-0.6242318004369736,0.8434511683881283,0.9983348995447159,-0.2911637674551457,0.5748721836134791,-0.8572248965501785,-0.254333920776844,0.6719058863818646,1.2188809290528298,0.6367675065994263,0.7909146146848798,0.6312300371937454,0.8457196329254657,0.8173067532479763,-0.4344720421358943,-0.3361027427017689,0.8205575072206557,-0.07965191407129169,-0.27925228141248228,-0.01861731708049774,0.0026639625430107118,-0.3733012732118368,-0.6514593604952097,-0.6441136924549937,2.4389245808124544,0.7936474233865738,-0.4237913489341736,0.2817809898406267,0.5222806818783283,-0.8391959397122264,-0.07752551510930062,-0.5310906860977411,1.2033551409840584,0.5018594078719616,0.7277714535593987,1.079428973607719,-0.27814557682722809,0.9114589113742113,-0.7841474681627005,0.7345529412850738,-0.5888574542477727,0.7952819168567658,0.09936224110424519,0.4541399508016184,-0.8374883644282818,-0.18637199327349664,0.44848740816814827,-0.6217432050470961,-0.3201682111248374,-0.5141306761652231,-0.07467385255040426,-0.8023845572024584,0.35017001908272507,0.15004907175898553,-1.1964215100742877,-0.7662320602685213,-1.1444610357284547,-0.48952492885291579,0.5403055185452104,0.5427768500521779,-0.7996439759153873,0.8250616085715592,-0.8115832592011429,-0.10227131564170122,0.41042158007621767,0.9257423747330904,-0.08957364858360961,-0.22140410635620356,0.06387361139059067,-0.222872793674469,-0.5580262830480933,0.3030898733995855,-0.13966334890574218,-0.7939314572140575,-0.0550707932561636,-0.39281877875328066,-0.9277114607393742,-0.841683866456151,-1.6995038064196706,0.3432737607508898,-0.4586388326715678,-0.8899460434913635,0.5757125522941351,-0.8829897777177393,-0.04545159637928009,0.004195597022771835,-0.41428422555327418,0.09891703492030502,0.558359157294035,-0.3224561259848997,0.36448171362280848,-0.9637206867337227,-0.02558024087920785,0.48555372888222339,-1.0157769192010165,0.5648287981748581,-0.41808879375457766,0.445261949673295,1.028277412056923,0.042735300958156589,-1.1052013440057636,-0.22276842780411244,0.38648388534784319,0.3666294850409031,-0.6854787776246667,0.9325029996107332,0.3208220601081848,-0.5142420227639377,0.281001478433609,-0.8857631902210414,-0.5405613072216511,-0.3511910066008568,-0.07277550082653761,-0.07430502958595753,-1.0267482995986939,0.3581112427636981,-0.05096708424389362,1.067034968174994,-0.04918736778199673,0.4519140748307109,0.3978522731922567,-0.02031809650361538,-0.6439819774532225,-0.6075159101746976,0.5312587060034275,0.07570840907283128,0.7169605549424887,0.06605898961424828,-0.7420689798891544,-0.2029947740957141,0.043770402669906619]},{"row":8,"column":3,"elements":[0.4098773803561926,-0.9230245873332024,-0.4571319483220577,-0.7426298912614584,0.7520970804616809,-0.6922055226750672,-0.25986411422491076,-0.14008192555047573,-0.4644060339778662,-0.14631337113678456,0.7800331749022007,0.4059988185763359,-0.858677870593965,0.9765497855842114,-0.24795139441266657,-1.061890644254163,0.7369496300816536,-0.13188084587454797,0.13630547001957894,0.6452051135711372,0.42798874666914346,-0.3854696024209261,1.2382675036787987,-0.16090579610317946]}],"biases":[{"row":1,"column":8,"elements":[-0.9606262897141278,-0.2882575038820505,0.2442124243825674,-0.3319558687508106,-0.869670482352376,0.16488654317799956,-0.6017946340143681,0.869233900681138]},{"row":1,"column":3,"elements":[0.28572083823382857,-0.5380676276981831,-0.9620247408747673]}],"inputSize":27,"hiddenSize":8,"hiddenLayers":1,"outputSize":3}