{"weights":[{"row":20,"column":8,"elements":[-1.3142536405939609,-0.15134115144610406,0.2096944721415639,0.5573622293304652,-0.39244019612669947,-0.16106299310922624,0.2103967797011137,-0.8292248975485563,0.0016149021685123444,-0.6453967988491058,0.15086786076426507,0.5792546654120088,-0.604229043237865,0.5872528906911612,-0.5625075292773545,-0.9466041997075081,1.1288507098288392,-0.6889937531668693,-0.22916407929733396,0.8226091144606471,-0.32200980093330147,-0.8441241875989363,0.21755043172743172,0.26629845798015597,-0.012918893247842789,-0.2819373942911625,0.4022412970662117,-0.9292239686474204,-0.6443717582151294,0.4527298305183649,-0.4673456603195518,0.047720545902848247,-0.015216870233416558,1.1165969874709845,-0.3443501736037433,-0.4624978960491717,-0.5072925705462694,-0.25127326825167986,-0.3605185388587415,0.31920802374224879,-0.4023810625076294,0.7970859073102474,-0.5543087013065815,0.34473807574249806,-0.4630604665726423,0.08663999661803246,-0.10992256551980972,0.3364929834206123,-0.35849504149518909,0.4158336892724037,0.49957191571593287,0.31601858884096148,-0.9373816251754761,-1.3009530045092106,0.012016768334433437,0.2704815696924925,0.3105151215568185,-1.0540573550388218,0.04156374465674162,-0.2558150626718998,0.45054020918905737,-0.43545975629240277,0.25925926864147189,-0.4951629442803096,0.8213596260175109,0.5842041438445449,0.5625846516340971,-0.7998786240350455,-0.3213452212512493,-0.6742209009826183,-0.24924203474074603,-0.9072528826072812,0.9423160583246499,1.2288263700902463,0.7338360287249088,0.5457775252871215,-0.031773907132446769,0.20444414392113686,0.2649181140586734,0.7556054526939988,-1.657502057030797,-0.15804436523467303,0.7518875002861023,-0.41970185935497286,0.5427212454378605,-1.0203208271414042,-0.17544193752110005,0.06769311614334583,-0.5448131114244461,-0.3753779608523473,0.1279977597296238,-0.042020034044981,-0.50075747910887,0.4913385377731174,-0.9976691408082843,-0.43279750377405437,-0.5247492846101522,-0.8217862718738616,-0.5945007409900427,-0.46111306734383109,0.38692718744277956,-0.17307119071483613,1.005229465663433,0.510051054880023,0.511888574808836,-0.33835332840681078,1.2483842186629773,0.3242811243981123,0.3722791466861963,-0.7577953934669495,-0.26402351213619115,0.33196945302188399,-1.3299505561590195,-0.2881883131340146,-0.6652207188308239,-0.638647798448801,0.8608009815216065,-0.16200244147330523,0.04015210876241326,-0.592320017516613,0.954754225211218,0.5146874822676182,0.8441139832139015,-0.41071528079919519,0.12845994345843793,0.2868232522159815,-0.4498565290123224,-1.111482797190547,0.547578648198396,-0.3762238980270922,0.012771775014698506,0.12976707518100739,-1.0061128214001656,0.0638334471732378,0.38835504185408356,0.0647699162364006,-0.28671679832041266,-0.7156762620434165,0.0998015608638525,0.6487538935616612,-0.4258861197158694,-0.8040817258879542,1.0275452863425017,-1.2838787194341422,0.7142719374969602,0.8321027420461178,0.5893720909953117,-0.46801323373802009,-1.0479807512601838,1.2224758085794747,0.500918373465538,-0.09015229670330882,0.8239238858222961,1.3280503749847413,-0.9859963278286159,-0.3784381151199341,0.9732666104100645,0.5563069060444832,-0.0765070728957653,0.04971548356115818]},{"row":8,"column":4,"elements":[0.15486877784132958,-0.5333330687135458,-0.3544153682887554,-0.4963338216766715,-0.7044929377734661,0.38107001315802338,0.4772147946059704,0.41350337862968447,-0.4135015904903412,1.1670239930972458,-0.342361937277019,1.6135631129145623,1.2539805099368096,1.004006622126326,-0.6817564144730568,-1.1730125793255866,0.8309393872041255,-0.5357618816196919,0.6164507493376732,0.8394767986610532,-0.2642861008644104,-0.5889695920050144,0.26316382829099896,-0.946282826596871,0.07986122369766236,-1.1424410622566939,0.4396417737007141,-0.137757602147758,-0.7108561699278653,0.5778771712211892,0.3218121565878391,-0.22137349261902274]}],"biases":[{"row":1,"column":8,"elements":[0.036469001322984698,0.5173999143298715,-1.0855144932866097,-0.1495312126353383,-0.7025605235248804,0.528344988822937,-0.3650884977541864,-0.5689584580250084]},{"row":1,"column":4,"elements":[-0.48404533974826338,0.7538720741868019,-0.48758843541145327,-0.3471576670417562]}],"inputSize":20,"hiddenSize":8,"hiddenLayers":1,"outputSize":4}