{"weights":[{"row":21,"column":8,"elements":[0.9698705188930035,-0.2881138101220131,-0.565212344750762,-0.007338816300034523,0.3857821668498218,-0.20371757773682476,-0.38058164715766909,0.5255379378795624,0.3097989608068019,-1.1406484516337515,0.64131666906178,-0.15329704526811839,0.4679478146135807,0.5261254962533712,-0.4840651345439255,-0.08086897432804108,-1.6765119154006243,-0.9660665174014866,-0.7699792385101318,0.6693989522755146,0.23653052933514119,-1.5276165008544922,1.0845420360565186,0.6970394663512707,-0.6770507099572569,0.7919754534959793,1.295929552987218,0.04802502132952213,-0.6208200175315142,0.13875406933948399,-0.13993678078986705,-0.30948556028306486,0.19207647000439466,-0.13067693635821343,0.8730566222220659,0.5437133270315826,-0.9756883035879582,0.6152267195284367,-0.36615403136238458,-0.9288212871178985,-0.2694869637489319,0.34942760635749439,-0.7185222581028938,-0.638526065275073,0.9682601047679782,-0.1148182212782558,-0.48380550811998548,-0.6972105149179697,-1.2058958308771253,-0.21646240632981063,0.3909307667054236,0.783830454107374,0.36765731777995827,2.0166323357261719,0.970852330327034,-0.59651386924088,0.09870523819699884,-0.6240047953615431,0.3656539397779852,0.26769306045025589,0.40681873448193076,-0.16235971450805665,0.1988113708794117,0.3322542730020359,-0.5485945453583554,0.6301430775783956,-0.6639628745615482,-0.04300089098978788,-0.7474280428141356,-0.7113661314360797,0.7893220037221909,-0.08359519465011545,0.09930217266082764,1.0665004807524384,-0.8688841871917248,-0.3949736668728292,-0.3137907925993204,0.2655268982052803,-0.685905709862709,0.6250636875629425,-0.7123640859499574,0.6900975732132793,0.5793125196360052,0.4487194288522005,-0.09412332624197006,0.284633232280612,-0.46923184022307398,-0.5942830219864845,0.21282183332368732,-1.1629808377474547,0.49037686915835368,-0.5251540374010801,-0.7513253893703222,-0.8354944847524166,1.125138271600008,-1.4360754089429975,-0.292934313416481,-0.5927301645278931,-1.7740096375346184,0.061822040006518367,0.7941293509211391,0.8438772847875953,0.7207143977284432,0.6811954025179148,0.33500248612836006,0.21917884424328805,-0.2674675073940307,0.9358089175075293,0.8016214482486248,-0.8175952155143023,-1.0431166272610427,-1.0939702694304288,0.8857132196426392,0.6991335190832615,0.49013850279152396,0.22699406556785108,-0.5854507439071313,-0.3637886606156826,0.5891635470616166,-0.8302243198268116,-0.8275123704224825,-0.6282089727465063,-0.23917050182353706,-0.731206432916224,0.9303905121050775,0.874644298106432,0.417416762560606,0.5118062514811754,0.6448469841852784,-0.3118523433804512,0.6751121375709772,-0.004388025030493736,0.04749014042317867,-0.0047571551986038689,-0.9080583602190018,0.8387060612440109,-0.7380476780235767,0.9107434532488696,-0.3922897665761411,-0.05830585956573486,-0.2586197629570961,1.115179723361507,0.3789446633309126,-0.69416394806467,-0.5343083222396672,0.10488031804561615,-1.2272062804549933,-0.8958528297953308,0.37691244622692468,0.9847993664443493,0.6734305806457996,-0.5528830327093601,0.05937834596261382,0.7009411179460585,-0.8267873506993055,0.9424301274120808,0.38635750114917757,-0.8104557986371219,0.14447868335992099,-0.707744327839464,0.8443394228816032,-0.915401628240943,0.4378878471907228,-0.8210957617266104,1.2681098226457835,-0.6176912076771259,0.1009490080177784,-0.5225833207368851]},{"row":8,"column":4,"elements":[0.9082098454236984,-0.35329167381860318,0.6598386336117983,-0.020816467236727477,-0.017915382981300355,-1.1395065281540156,0.39572149980813267,1.055100478231907,-0.6759654190391302,-0.28590803872793915,-0.9133616730105132,-0.6908217812888324,-0.14868560899049045,0.34302430012030529,-0.19463459867984057,-0.15062131360173226,0.36831518076360228,-0.10421480797231198,0.2950955033302307,0.2680236669257283,0.549506701529026,0.03681574575603008,-0.6692651147022843,0.001786777749657631,-0.6970836706459522,-0.7384216288337484,0.2613719762302935,0.7101502204313874,0.4178360002115369,-0.754289704374969,0.026746608316898347,-1.6949163675308228]}],"biases":[{"row":1,"column":8,"elements":[2.2241502159740778,-0.8081423064577393,-0.9575761780142784,-0.475010345922783,-0.8911672201938927,-0.5012106858193874,-0.8326512398198247,0.9892108598724008]},{"row":1,"column":4,"elements":[0.8064136197790504,0.11260654218494892,-0.8921748810680583,0.9971843603998423]}],"inputSize":21,"hiddenSize":8,"hiddenLayers":1,"outputSize":4}