{"weights":[{"row":21,"column":8,"elements":[1.01806974504143,-0.08028566208668053,-0.7372330874204636,0.14820907451212407,-0.7959921015426517,0.6500749997794628,0.6279637515544891,-0.1661873459815979,-0.6975127931218594,-0.6340202316641808,0.4757778416387737,-0.07325958460569382,-0.8819730710238218,-0.5063729826360941,-0.08393943309783936,0.7245109733194113,-0.5617833435535431,-0.5167666506022215,0.716790396720171,0.0961899384856224,0.4403485581278801,-0.009843239560723305,0.31715908646583559,0.9309235743712634,-0.27909839805215599,0.1146887019276619,0.48714005295187237,-0.13558317653951236,-0.0660891579464078,-0.6566715240478516,0.5643802881240845,0.5619992921128869,-0.39551061019301417,0.6509769335389137,-0.6016551498323679,0.8263017274439335,-0.4882910754531622,1.0167473207693548,0.5846422538161278,0.5095757022500038,0.12654291547369213,-0.19128940999507905,-0.15487358812242747,0.7027675081044436,0.13526014238595963,0.14176393952220679,0.06807030737400055,0.08206852525472641,0.832511343061924,0.8716668486595154,0.6811146587133408,-0.0077048540115356449,-0.47398540936410429,0.4553824523463845,0.371507971547544,-0.9522787928581238,-0.10396158695220947,-0.1688795629888773,0.8809708375483751,-0.2648491784930229,0.613135788589716,0.6633259505033493,0.6139745488762856,-0.6548669338226318,-0.6284239324741066,-0.9330691695213318,0.08343877643346787,0.2624371275305748,-0.323761198669672,0.054758211597800258,-0.808538481593132,-0.939231333322823,0.8283405154943466,-0.6852695886045694,-0.871390238404274,-0.7901765406131744,0.7680934527888894,-0.3912588059902191,-0.8017292022705078,-0.06339490041136742,-0.7469181157648563,0.9162800535559654,-0.5575264021754265,0.5908505544066429,-0.7697661221027374,-0.04941162001341581,0.6906350310091511,0.1252955342642963,-0.24505330435931683,0.5745773382950574,0.5662080502370372,-0.731538531370461,-0.9165051761083305,-0.46502208430320027,-0.9117658790200949,-0.40447401255369189,0.33919035200960936,0.42159042530693116,1.180728793144226,-0.39762393943965437,-0.4956276579760015,0.6339349150657654,0.9303701184689999,0.010513330809772015,0.8090679636225104,-0.11095184832811356,0.8984517231583595,-0.7642895393073559,-0.7992294784635305,0.1803727187216282,-0.11528126057237387,-0.889113437384367,0.5324521916918457,0.806692024692893,0.20556436106562615,-0.3847719253972173,0.6009201849810779,1.0078852288424969,-0.008603112306445837,0.7385441139340401,-0.20097924768924714,0.13373935967683793,-0.6710682036355138,0.4570591803640127,0.10470542428083718,0.697588968090713,-0.26166194304823878,0.7921502143144608,-0.7503198666963726,0.10257039382122457,-0.5670514623052441,-0.6938574966043234,-0.8627770971506834,-0.8624735506018624,-0.18689775839447976,1.0217637456953526,0.0668320581316948,-0.7187220491468906,-0.4460478685796261,-0.5552284209989011,-0.11186815425753594,0.5365687635494396,0.4466228485107422,0.6595721710473299,0.3774076737463474,-0.12204515933990479,-0.5773899480700493,0.8021278381347656,0.3356390278786421,-0.14832054916769267,-0.6798116788268089,0.6819237675517798,0.6396027393639088,0.42286428809165957,0.81129414960742,-0.4828523297328502,-0.42575196363031866,-0.703374445438385,0.49680629931390288,0.23073839396238328,-0.059071301482617858,0.1596457241103053,0.8661887506023049,0.6438532806932926,-1.82368803024292,0.8985766030382365,-0.9052787087857723,-0.030447943136096]},{"row":8,"column":4,"elements":[0.9443837380968034,-0.7042473908513784,0.8193849138915539,0.389235426671803,-0.5186093226075172,-0.36078599095344546,0.20895038545131684,-0.7108422927558422,-0.08677331451326609,-0.2488214373588562,-1.066365323960781,-0.46626678481698038,0.11447105021215975,1.0338879060000182,-0.19538450613617898,-0.8890206217765808,0.13354599848389626,-0.9006192311644554,-0.8507013004273176,-0.5320827178657055,0.3715287297964096,-0.4440434165298939,-0.4616594836115837,0.014307109639048577,-0.8066473118960857,0.5980327446013689,0.2715572449378669,0.4191904626786709,0.1781405732035637,-0.2794784465804696,-0.7803611308336258,0.24877433851361276]}],"biases":[{"row":1,"column":8,"elements":[0.19520710222423078,-0.9637692607939243,-0.03249499388039112,0.17152159847319127,-0.2765667848289013,-0.6247011004015803,-0.851618330925703,-0.3111589327454567]},{"row":1,"column":4,"elements":[-0.5783262867480516,0.46174744749441745,-0.1253163367509842,0.17614457407034934]}],"inputSize":21,"hiddenSize":8,"hiddenLayers":1,"outputSize":4}