{"weights":[{"row":23,"column":12,"elements":[-0.8233662564307451,0.24349641101434828,-0.8796349256299436,-0.20508573879487813,0.17840025387704373,0.5968084260821343,0.1152239479124546,-0.278771560639143,0.8210519477725029,-0.5435637217015028,0.5093927979469299,-0.8636530733201653,-0.9011304378509522,-0.17670592293143273,-0.0021254699677228929,1.01067316532135,-0.9005335148249287,0.6885314765386283,-0.7195347882807255,-0.9261232633143663,0.7611497640609741,-0.3136428212746978,0.21532379277050496,-0.7910896874964237,0.2235934566706419,-0.8295716345310211,0.27248836727812889,0.008719321340322495,-0.5957510471343994,-0.6181693114340305,0.7086835680529475,0.34581002965569498,0.2936490376305301,-0.8180975578725338,2.08512591291219,-0.4204509789124131,0.3401995673775673,-0.9002278782427311,0.8452366264536977,0.8525098676327616,0.12150140106678009,-0.6332485117018223,-1.3557021096348763,-0.4482896039262414,0.8219110649079084,-0.8157143073622137,-0.5707333460450172,-0.7640025950968266,-0.16629697382450105,-0.27294365502893927,1.1583616733551026,0.20904867816716433,-0.48667349480092528,-0.4573410302400589,0.12120747053995729,0.6910761743783951,-0.5016409661620855,0.6859731767326593,0.008457295596599579,0.2364389505237341,-0.13307184353470803,0.02760089561343193,0.8147476930171251,-0.8373777978122234,0.33394869789481165,0.45325796492397787,0.6990516111254692,0.21007942035794259,0.20041092857718469,1.8811136242002249,-0.9364381674677134,-0.5326681695878506,0.49266540072858336,1.0467625390738249,0.33723591454327109,0.884502463042736,-0.08400336559861899,0.4834948293864727,-0.7001243345439434,-0.7708862598519772,-0.52087277546525,0.42535002529621127,0.8092691050842404,1.018035328015685,0.9872752446681261,0.009972773492336274,-0.9159029871225357,0.666138575412333,0.35114530101418497,-0.6539634838700295,0.7576708449050784,0.883450185880065,-0.03296113316901028,0.7706410977989435,-0.7870140168815851,0.45049009937793019,0.6495472686365247,0.017271745949983598,0.15571150660980494,1.2141691129654647,-0.6479092536028475,-0.22250544652342797,0.39811890572309496,-0.7531697563827038,0.05828916351310909,-0.46758631616830828,0.6052115671336651,-1.226428497582674,-0.3848413936793804,-0.53901525773108,-0.6234423704445362,0.6957047581672669,-0.7185284229926765,0.591461218893528,1.1068674065172673,-0.1940363673493266,0.8076777420938015,0.13401258271187545,0.7737404792569578,-0.8809868087992072,0.012588574551045895,-0.9810323715209961,0.5171778560616076,-0.028772680088877679,-0.4712287671864033,-0.541957413777709,-0.47745146602392199,0.9075504578649998,0.4265142120420933,0.4639804996550083,0.8817676003091037,0.6423336528241634,-0.7821981245651841,1.2548881266266108,0.37963219033554199,-0.7915326526854187,-0.7180646748747677,0.37917365366593006,0.7847433257848024,-0.4254879476502538,-1.119860835839063,0.7264173571020365,0.6879915054887533,0.3084300756454468,0.7159359771758318,0.0658804178237915,0.4224380049854517,-0.8902584835886955,0.2359928460791707,-0.16795101016759873,-0.3655744278803468,0.7289484271313995,0.24262434989213944,-0.5341191696934402,-0.6631394615396857,0.556908592581749,0.3030108124949038,0.36800062842667105,-0.8149700332432985,-0.32568966783583166,-0.993163731880486,-0.8393909269943833,0.06319900369271636,-0.3876724843867123,1.0250406302511693,0.6245707012712956,0.6053469628095627,0.18639849498867989,0.5435798019170761,-1.422098994255066,0.774879265576601,-0.6350108291953802,-1.0702951401472092,0.11165060754865408,0.8073434121906757,-0.3302092161029577,-0.8523962004110217,0.7070463877171278,0.7052532471716404,-0.2787687201052904,0.8217970915138722,0.45544552290812137,-0.013245584443211556,0.03177329711616039,-0.8322687791660428,-0.96567696146667,-0.5109217395074666,-0.10854612872935832,-0.8267660737037659,-0.6893504606559873,0.5208938140422106,-0.0008341632783412933,0.4625843968242407,-0.28995360247790816,-0.24276949651539327,-0.9573396192863584,0.5135346576571465,0.2550091538578272,-0.5893741836771369,-0.07894819043576718,0.22807879745960236,-0.7344099674373865,-0.2645301651209593,-0.4699763978132978,-0.7156471107155085,0.1768013946712017,-0.372548240236938,-0.8545954241417348,-0.25465480983257296,0.30987035343423488,-0.4816390424966812,0.2568456865847111,-0.5343207083642483,0.392962209880352,-0.5547373846929986,-0.6827460781205446,-0.6620315660256892,-0.5968525665812194,-0.1612627359572798,-0.4336909307166934,-0.6895025372505188,2.3998275008052589,-0.5421112272888422,0.9732232033275068,-0.9540524892508984,-0.3140186779201031,-0.4442958729341626,-2.934786142781377,-0.6241531670093536,-0.004923917353153229,0.8111029379069805,-0.7980017494410276,1.0253073759377003,0.5515717184171081,-0.12267000414431095,-0.03642005380243063,-0.5378928661812097,0.5910828560590744,0.4657704709097743,0.20302632544189692,0.07743202708661556,0.4169126804918051,-0.7149487510323525,0.7196163944900036,-0.0782780721783638,0.7866666074842215,0.31030638283118608,0.6715872921049595,0.3716001342982054,0.840584410354495,0.6402803733944893,-0.5670713726431131,-0.8107689395546913,-0.6111212857067585,-0.10829513056160067,-0.9241044763475657,0.5906378967920318,-0.6747992504388094,-0.3210082994773984,-0.6061835121363401,0.20380484871566297,-0.16539918258786202,-0.7915878114290536,-0.12851504422724248,0.3887983225286007,-0.5705111171118915,1.119218423962593,0.1407580217346549,-0.04134416952729225,-0.08973526023328304,-0.08733978075906635,0.13363903760910035,0.5565496133640409,-0.3972657397389412,0.022939209127798678,-0.6099986005574465]},{"row":12,"column":4,"elements":[-0.7544407723471522,0.12754430249333383,0.3014819296076894,0.7371484292671084,-0.1672119814902544,-0.588339748326689,-0.05869635120325256,0.9157838523387909,0.28626379184424879,-0.6813518856652081,0.6000379808247089,0.4303641354199499,-0.2971641458570957,-0.591560423374176,-0.9603158012032509,0.7823678366839886,-0.16651601437479258,-0.7699162047356367,2.012902131304145,0.7151226801797748,0.5314281191676855,-0.8826031386852264,0.5267079779878259,0.6256425399333239,1.122026371769607,0.5793173089623451,-0.9549950752407312,-0.8335395760368556,-0.3399900794029236,-0.531447272747755,-0.264085054397583,0.5807297639548779,0.8129054438322783,-0.08188902959227562,-0.08485035039484501,0.9148576795123518,1.1744031962007285,-0.7017438225448132,-0.4033037847839296,-0.03627373278141022,-1.1453337604179979,0.09091431926935911,-0.2769924970343709,0.8103353151818737,-0.569309254817199,-0.6225809492170811,0.11387580633163452,0.9511282781604677]}],"biases":[{"row":1,"column":12,"elements":[-0.5576445627957583,0.17106377892196179,-0.6716004440095276,-0.677155930432491,0.8706683777272701,-0.03520968556404114,0.23896517790853978,0.40788861853070559,0.5252559389919043,1.748942133039236,0.23591642547398807,-0.45562620204873385]},{"row":1,"column":4,"elements":[-0.9337580846622586,1.1521794069558383,-1.8153853695839644,-0.10173040645895526]}],"inputSize":23,"hiddenSize":12,"hiddenLayers":1,"outputSize":4}