{"weights":[{"row":23,"column":12,"elements":[-0.4545648507773876,-0.6222869427874684,0.9123953580856323,0.11738383397459984,0.7151544187217951,-0.09465145692229271,0.23591639194637538,0.12229698378359899,0.16364402044564486,0.7229817872866988,0.2978343516588211,0.9157920649740845,0.5693020498729311,0.3661451004445553,0.33816344663500788,0.773171853274107,-0.6186174948234111,0.4185088984668255,0.10171928186900914,0.33771103248000147,0.8145314827561379,-0.6788927903398871,-0.8292939830571413,2.127866412512958,0.18302403390407563,-0.2557136807590723,0.3415571105433628,0.2171363263623789,-0.26873116195201876,0.5246676113456488,-0.4688009498640895,0.626073308987543,0.2355685830116272,-0.07631561532616615,-0.2831694036722183,-0.43564164638519289,-0.5977820372208953,1.1630732268095017,0.23706939071416856,0.9041342921555042,-0.6951771676540375,-0.5607605064287782,-0.12737171538174153,-0.8910332322120667,0.26838128454983237,0.7279807236045599,-0.9446048298850656,-0.7885584998875856,0.34388919174671175,-0.47661098651587965,0.6214522263035178,0.14796515554189683,-0.19784262031316758,0.1788105599116534,-0.8869722792878747,0.025896078441292049,-0.26896990661043676,-0.030152589082717897,-0.4951175411697477,-0.7449886398389936,-0.2572391488356516,0.353870359249413,0.08060105750337243,0.014560536248609424,0.08020006981678307,0.451325386762619,0.4433588720858097,-1.039815029129386,-0.03693416994065046,0.3636946100741625,0.593530373647809,-0.29211108246818187,-0.0903534353710711,0.6824369984678924,0.3326877155341208,-0.675458587706089,-0.6912519335746765,-0.3978230656357482,-0.49847519118338826,-1.1512294970452786,-1.0058821875136346,-0.7723008124157786,-0.3456511590629816,0.0027683191001415254,-1.0376600524177775,-0.8208341002464294,-0.962559980340302,0.3695683889091015,-0.5076693105511367,0.1124410443007946,-0.6203136518597603,0.6998381800913194,-0.783575888723135,0.29429672262631359,-0.11575478501617909,-0.5640280414372683,-0.9059692285954952,-0.8884001886472106,0.6869912684196606,-0.12723778747022153,0.8069100109860301,0.5008835196495056,-0.7155954735353589,-0.5743842124938965,0.597967941313982,-0.7779119280166924,-0.06511777266860008,0.5128161131870002,-0.6782745383679867,-0.4739094190299511,0.2999184380751103,0.7550551302265376,-0.7120847892947495,-0.8707306422293186,-0.6189391873776913,0.5254361277329736,0.8641113736666739,-0.4110011262819171,-0.2380288429558277,-0.16725952178239823,-0.20330896228551866,-0.1059690210968256,-0.2624938488006592,-0.9094414971768856,-0.41338429786264899,-0.5622432050295174,0.3376391716301441,0.5640096664428711,-0.26808052137494089,0.3188126031309366,-0.6575525465304963,1.049632268724963,0.24044465646147729,-0.9213458355516195,-0.8442779928445816,0.30828228406608107,0.5146688325330615,0.8131885835900903,-0.4034406803548336,-0.5438599698245525,0.07705835066735745,0.1495809108018875,0.22299499064683915,-0.3027907609939575,-1.3170034736394883,-0.08512518228963018,-0.5659177787601948,0.8429340848233551,0.233262175694108,0.9320423491299152,-0.3064209297299385,-0.79211116861552,-0.9921796629205346,-0.35930520854890349,-0.543610479682684,-0.5112157724797726,-0.0016101737273856998,1.1886849417351187,-0.16748614539392293,0.9512497782707214,0.020748065784573556,-0.7072447957471013,0.9986785110086203,-0.06436471454799175,-0.4901122802402824,0.26262182742357256,-0.9488731492310762,0.9387568198144436,0.7160761803388596,-0.8175743529573083,0.2842381214722991,-0.17220845818519593,-0.9912205655127764,0.42935582832433286,1.2129428507760168,0.5251664519309998,0.040642911568284038,-0.22017872519791127,0.9584524501115084,-0.8797676032409072,-1.4755058095324785,0.1497757900506258,0.4882408124394715,0.3719367980957031,0.3338301479816437,-0.9228517198935151,0.6868963502347469,-0.9818371103610843,0.5132980290800333,-0.8316695177309157,0.2698891726322472,0.07204777095466852,0.021048545837402345,-0.9495177268981934,-0.8594494899734855,-0.3980645048432052,0.7250713631510735,0.618096346675884,0.5333960559219122,0.8791420832276344,-0.9214671114750672,0.1481446549296379,-0.5073455786332488,0.7165339197963476,-0.3850509077310562,1.1103807444451377,0.312436998821795,-0.9996993690729141,0.5726913509424776,0.05804191285278648,-0.5839155614376068,0.25011882930994036,-0.27705540880560877,0.8759334534406662,-0.6325435908511281,-0.6540968362241983,-0.7077786712907255,-0.5886366236954927,1.3137647956609727,0.16443566349335016,0.03124994970858097,-0.9708573445677757,-0.16326870769262315,-0.5325795207172632,0.9331780541688204,-0.3622654490172863,0.9665047670714557,0.4946133680641651,0.3044480701792054,-0.7685797400772572,0.071077149361372,-0.47860047221183779,-0.6450596377253532,0.09170111641287804,-0.2761677373200655,-0.3792520684655756,-0.5306976642459631,0.8134584820363671,-0.11075054574757815,-0.5892913863062859,0.3078200053423643,0.28181461431086066,-0.6725102955242619,-0.037725442089140418,-0.2297328535350971,0.6465199906378985,-0.14035458117723466,-0.5407869294285774,-1.5236040307208896,0.25174214504659178,-0.3059004545211792,-0.7098925188183785,1.1946539878845215,0.15084664151072503,1.0042483038268984,0.38185389060527089,-0.7111723930574954,1.4596925973892213,-1.1001560688018799,1.785013910382986,0.8812487130053341,0.47693926410283896,-0.106386449187994,0.2537262018304318,0.36621667072176936,-0.09747784957289696,-0.6163549032062292,-0.5531336478888989,-0.28250038623809817,-0.1542601529508829,-0.10444738157093525,-0.13650185125879944,0.6439031362533569,-0.5712357200682163,-0.7584624420851469,-0.30123365111649039]},{"row":12,"column":4,"elements":[-0.9721546948421747,0.12765794759616257,-0.0433714441023767,0.17020414513535798,-0.5252589955925942,-0.8276652097702026,0.5067701185471378,0.09807788021862507,0.8551646750420332,-0.06152907758951187,0.5715415077283979,-1.3207173645496369,-0.7258377745747566,0.6749781239777803,-0.7087001393811079,0.9056696556508541,-0.2051556222140789,0.2414919761940837,-0.7467263713479042,0.3930689226835966,0.4523007180541754,0.3548259511590004,0.03515902906656265,-1.295178912114352,0.22833843063563109,-0.5652907602488995,-0.8665113411843777,-0.3484410122036934,-0.588581033051014,0.10405322164297104,0.3494358469033614,0.12244434654712677,-0.13844224391505123,0.25775067415088417,-0.08412816002964974,-0.9330048933625221,-0.6581575870513916,-0.5302456393837929,0.7119545945897698,0.4975067600607872,0.73037881962955,0.11557108338456601,0.6696691053221002,0.3455136939883232,0.8879739046096802,-0.765197928994894,-0.16434086649678648,-0.4597778331954032]}],"biases":[{"row":1,"column":12,"elements":[-0.34600296057760718,-0.3542903661727905,-0.7119473936036229,-0.5991835221648216,-0.3272140882909298,-0.4356661569327116,-0.04400830157101154,1.0680718403309584,0.6458443240262568,-0.7342418460175395,0.9917957923607901,0.5311939232051373]},{"row":1,"column":4,"elements":[-0.8931531477719545,0.4086333606392145,-0.9601483778096736,0.5544888004660606]}],"inputSize":23,"hiddenSize":12,"hiddenLayers":1,"outputSize":4}