{"weights":[{"row":26,"column":8,"elements":[0.7977034337818623,-0.3214608281850815,-0.8432516530156136,0.5682237911969423,-0.2167965287808329,-0.6353003028780222,-0.8113750242628157,-0.807330846786499,-0.9152793968096376,0.29530356638133528,-0.9275992885231972,-1.225990392267704,0.9729187218472362,0.9605565038509667,0.2792992191389203,0.39576884591951969,0.04652238264679909,0.9754853378981352,0.23527295142412187,-0.608573418110609,1.8481669537723065,0.5043679475784302,-0.3993136284407228,0.4134502415545285,-0.5457958538463572,0.6918682092800736,0.47069500642828646,-0.475438691675663,-0.4722588350996375,-0.2433982992079109,0.12010703235864639,-0.9225320452824235,-1.0701277405023575,0.6837695771828294,0.9357971725985408,0.4950241707265377,-0.5175297679379582,-0.5127673614770174,-0.5286584571003914,-0.44008867780212315,-1.0711100529879332,-0.4344677720218897,-0.8710999116301537,1.0163733549416066,0.6832364685833454,-0.2214511854108423,-0.17055985890328885,0.46937227831222119,0.9274639878422022,-0.4884351755026728,0.6005426794290543,-0.7382902661338449,0.7873971089720726,-0.0720265544950962,-1.007964045042172,0.7741542458534241,-0.1391542162746191,-0.920425976626575,0.6957826167345047,-0.6034540086984634,-0.8165800701826811,-0.04760968964546919,0.9304939201101661,-1.038387544453144,0.03757380321621895,-0.10566266626119614,0.3216324064414948,-1.1450329702347518,-1.0513878846541048,0.08886594697833061,-0.05871335184201598,-0.3299212381243706,-0.6509176474064589,0.8268505506566726,-0.6442516669631004,0.3643705574795604,0.4585832357406616,-0.13714339211583138,0.21210740134119988,-0.8955587185919285,-0.06389676965773106,-0.56989052798599,-0.7120807624887675,0.460204609320499,-1.087937131524086,0.9680878748185933,-0.16644876450300218,-0.8754940573126078,0.8498663976788521,-0.1143289445899427,0.701810316182673,-0.8190324679017067,-0.3746558427810669,0.03974136896431446,0.500666722189635,0.04948062897892669,-0.13164003193378449,-0.1468787882477045,-1.4766405671834946,0.4846324771642685,-0.09212261904031038,-0.3954518251121044,0.7548512285575271,0.218074245902244,-1.062562469393015,0.45477792993187907,-0.4237248762510717,0.850095696747303,-0.8553296588361263,1.1855665445327759,0.20986787602305413,0.11241596192121506,-0.03191421553492546,-0.32604896277189257,0.7601108700037003,-0.38810807652771475,0.40393513441085818,0.6179888397455216,0.8719387017190456,-0.6615001522004604,-0.29114389419555666,0.5870929979719222,-1.7395920753479005,0.1730980845168233,-0.16944491863250733,1.1131032705307007,-0.22312745451927186,0.05054980609565973,-0.763368796557188,0.8124900124967098,-0.6800181455910206,0.5919255688786507,-0.2440994679927826,-0.6895226491615176,0.07069511944428086,0.20098588801920415,-0.7002954320050776,0.7996765207499266,0.6026231497526169,-0.21431188005954028,0.9512061234563589,0.7040355456992984,-0.020508084446191789,-0.7601075805723667,-0.19677787646651269,0.028842750936746599,0.5975985117256641,-1.6590002309530974,0.21854813396930695,0.32750556617975237,0.38899033330380919,-0.6021590437740088,-0.37617238238453867,-0.36012790561653676,0.2145160858053714,0.12244405969977379,0.8715314362198114,0.19957749545574189,0.49714301992207768,0.8898458480834961,-0.8900816547684372,-1.1866565123200417,-1.122002363204956,-0.796223163837567,-0.6719357743859291,-0.3586445767432451,0.6161704361438751,0.4015095541253686,-0.9567155912518501,0.5763748018071055,0.6214263495057821,0.8433353397995234,0.5432179775089026,0.07692957296967507,0.544508108869195,-0.23063805606216193,-0.9546316619962454,-0.1154622845351696,0.24215639755129815,0.5119075328111649,0.33880478516221049,-1.0516174752265216,0.803928654640913,0.5167926698923111,-0.2809553314000368,-0.7670471128076315,0.7789478161139414,-0.0009069964289665222,0.7492645382881165,0.041615483816713098,0.5514612887054682,-0.2629782557487488,0.057715199305675927,-0.6938392370939255,0.206907469779253,-0.3293582648038864,0.27622437477111819,-0.7243143320083618,0.5748299583792687,-1.0883351135998965,0.7592534422874451,0.7905816081911326,-0.32188770174980166,-0.4239421486854553,0.20572294294834138,-1.197039656341076,0.2138260267674923,-0.7731190929189324]},{"row":8,"column":4,"elements":[-0.3735250737518072,-1.1094468384981156,-0.4058516686782241,0.9390118115115911,-0.47237980365753176,0.4118209779262543,-0.041295409202575687,0.0890539288520813,-1.0618090443313122,-0.4028176364954561,0.6698623304255307,0.4669532305561006,-0.34743319544941189,0.11223524436354637,-0.11745157185941935,0.4647767208516598,-0.573649063706398,-0.6442449055612087,-0.28113166987895968,0.1175655797123909,-0.4923012927174568,0.2002251073718071,-0.9179349206387997,-1.00885220838245,-0.10307841515168548,-1.4848656319081784,-0.09119473211467266,0.8746564239263535,0.5737302824854851,-1.8381082266569138,-0.637869929894805,-0.24152636528015138]}],"biases":[{"row":1,"column":8,"elements":[-0.172007673420012,0.4948072135448456,0.1803272389806807,-0.8697067555040121,-0.02510763704776764,-0.32756162621080878,0.9893775433301926,0.8699025511741638]},{"row":1,"column":4,"elements":[-0.49531320109963419,0.8150826990604401,-0.959247974678874,-0.31216534972190859]}],"inputSize":26,"hiddenSize":8,"hiddenLayers":1,"outputSize":4}