{"weights":[{"row":17,"column":8,"elements":[-0.022694318555295469,0.4699343591928482,-0.4839965458959341,-1.5475788116455079,0.02223736234009266,0.9818615913391113,0.8937483651097864,-0.6882056260947138,-0.24995473789749668,0.8437831923365593,0.9067422463558614,-0.37348920945078137,-0.9800679376348853,0.6289640028262511,-0.26897946558892729,-0.39572476455941799,-0.7316629681736231,-0.1765555404126644,-0.4936170931905508,-0.21937375143170358,0.6885773278772831,-0.2905579637736082,1.3266890570521355,1.7573008565232158,1.0828220583498479,-0.7733363509178162,-0.3138799639418721,-0.8864248935133219,0.6513877501711249,0.5480890274047852,-0.5894641056656838,0.32390857487916949,-0.7486533205956221,0.17045369476545603,0.4417497804388404,0.7375392457470298,1.1529035023413599,-0.4659948870539665,-0.23034726828336717,-0.3717632619664073,-0.34915630891919138,0.04156004637479782,0.7477918453514576,-0.45967966318130495,-0.1075697522610426,0.6845222357660532,-0.695936867967248,0.005858305841684341,-0.3298504948616028,-0.9186510881409049,-0.8915890390053392,-0.7069599612150341,0.5429875440895557,-0.8729173571919091,0.24048959277570249,-0.8409141432493925,0.263196827378124,-0.4902334287762642,-0.6409139260649681,-0.46557476016459989,0.5729367299936712,0.5485260775312781,-0.7644542315974832,0.39317791163921358,0.8480649174307473,-2.3536698184907438,1.174381457036361,-0.24377772212028504,-0.7800879897549748,-0.26734972186386588,-0.4602677822113037,-0.6234551882371306,0.10595262795686722,0.9951228257268667,0.655591294169426,-0.2251808848232031,0.14768368750810624,-0.05113756284117699,0.4499974437057972,0.8292267927899957,-0.41936725412961098,-0.4405407691374421,0.008722192607820034,-0.5658959187567234,-0.08731210604310036,-0.3352342117577791,0.06671847216784954,0.8468358367681503,-0.013994870241731406,0.6121286507695913,0.8260422963649035,0.889301766641438,0.2736873347312212,-0.43886401504278185,-1.2901612198911608,0.5427151918411255,-0.19957964960485698,-0.36512957885861399,0.8502473486587405,1.645792739931494,0.7774931415915489,-0.9229015978053212,-0.7959971241652966,-0.36026793345808985,-0.5403028689324856,-0.26450728438794615,0.5091976709663868,-0.48827534541487696,-0.5219170115888119,-0.5105796828866005,0.8282259094994515,-0.4755744163412601,-0.4819371160119772,-1.1486580409109593,0.8325417041778565,-0.3927501253783703,-0.616473623085767,-0.9764108534436673,0.478555154055357,-0.352514635771513,-0.17010972741991282,0.6887993486598134,-0.9214411145076156,1.1439227685332299,-1.006500106304884,-0.8540367931127548,-0.8856782380025834,-0.23187711858190597,0.2644574921578169,-0.5734665226191282,-0.5331804975867271,-0.17992021888494492,-0.03283940302208066,-0.013556651771068573,-0.6669734492897987,-0.7307927185902372]},{"row":8,"column":4,"elements":[0.04989611729979515,0.23936565592885018,-0.800251392647624,-0.15336991846561433,0.056688273791223767,0.46881138533353808,-0.6047532763332129,-0.06275766156613827,-0.060704492032527927,0.32628048583865168,-0.9786630310118198,-0.40271255746483805,0.0793815404176712,-0.5167887583374977,-0.02263074618531391,0.47690412402153017,-0.12546977773308755,0.1741148829460144,-0.4236300680786371,-0.012241345830261708,0.2588970363140106,-0.46023946115747096,0.626557718962431,0.42920283414423468,0.9688782277517021,0.32054496090859177,0.1556306048296392,0.3842917818110436,-0.3117604753933847,0.3182283863425255,-0.2903383139055222,1.2991667222231627]}],"biases":[{"row":1,"column":8,"elements":[0.6594473496079445,-0.3876855135895312,0.3046511667780578,-0.9393051099032164,-0.6816979646682739,0.38819999247789385,0.9510078765451908,-0.13495442271232606]},{"row":1,"column":4,"elements":[-0.05422351323068142,0.8458959357813001,-1.2302146377041937,0.503550011664629]}],"inputSize":17,"hiddenSize":8,"hiddenLayers":1,"outputSize":4}