{"weights":[{"row":20,"column":8,"elements":[1.170318678021431,-0.2966498234309256,-0.4748623725026846,0.9090399630367756,0.5719425082206726,-0.5209412276744843,0.09925606101751328,0.4049665369093418,0.6865067351609469,-0.011724166572093964,-0.31496896408498289,-0.7050403361208737,-0.6447325530461967,-0.6089690923690796,-0.3174570295959711,0.6295280493795872,0.06543590128421784,-0.10647159442305565,0.8680956596508622,-0.31738903746008875,0.7607398331165314,-0.39148491993546488,0.40933844074606898,0.055406633764505389,-0.5172211956232786,0.19708001660183073,-0.08415151387453079,0.37960911728441718,0.6016342826187611,1.6867689304053784,-0.9020304651930928,-0.6834389716386795,-0.9159266443457454,0.676519338041544,0.22942722216248513,0.8394296765327454,-0.9480433128774166,-0.7850265034940094,-0.2655348740518093,0.4080277238972485,0.2410336621105671,-0.4839737080037594,0.37362032383680346,0.6259673801250756,0.2626590430736542,-0.15433985739946366,-0.7947413213551045,0.29382805712521078,-1.6322491951286793,0.9546244218945503,-0.7437629289925098,-1.1120273191481829,-1.2456328123807908,0.5652870805934072,-0.1069057285785675,0.485825315117836,0.23535247892141343,-0.005891019012778997,0.44128321891184899,0.21467940509319306,-0.6852449886500835,0.3778798431158066,-0.05872844549594447,0.7364708259701729,-0.5796896070241928,-0.8396936105564237,1.0647392496466637,-0.5221322448924184,-0.5702154636383057,0.36778756976127627,0.1911013461649418,0.2508316021412611,0.4824793227016926,0.6061632446944714,-0.10539334826171398,-0.7214786903932691,-0.8817400224506855,0.18923075566999615,0.551086138933897,0.8912648714613169,0.12077158782631159,0.18089281022548676,0.5207568779587746,0.14383437391370536,0.3425194025039673,0.40806766226887705,0.07748033059760928,0.03741169348359108,0.6185235138982534,-0.07235280517488718,0.9281605836004019,-0.9441806748509407,-0.607197493314743,-0.8970993421971798,-0.20432707492727787,0.8303177356719971,-0.37469175457954409,-0.8151000421494246,-0.8704464770853519,0.702082522213459,0.516264209523797,0.02738615870475769,-0.8358416482806206,0.2739921808242798,0.809100478887558,0.3523889146745205,0.7477105855941773,0.5962061434984207,0.5874916641041637,0.7913567647337914,0.6995168263092637,-0.31729330494999888,-0.38654725532978775,-0.4675933048129082,0.8227530084550381,0.2419648226350546,0.3649969835532829,-0.5341498926281929,-0.08533431589603424,-0.3649503020569682,-0.4635145738720894,-0.8155605830252171,-0.4698707405477762,-0.33934052288532259,0.4337243288755417,0.05402651987969875,0.595630556344986,-0.6046194229274988,-0.135297741740942,0.6035795340721961,0.6085316613316536,-0.043722013011574748,0.40713603189215066,-0.3698586239479482,-0.5476758807490114,-0.9091685432940722,0.007039675489068031,0.6024964768439531,0.12066329270601273,-0.7160266850842163,-0.6152533665299416,0.32328712567687037,0.30461616814136507,-1.1722446612548084,-0.22243280056864024,0.1591492062434554,-0.16566424071788789,-0.47517986968159678,-0.7030536411330104,-0.5517786773853004,0.9493457823991776,0.5990463551133871,-0.8925134250894189,0.591047806548886,0.8628399716690183,-0.5682466384023428,-0.6501834094524384,-0.3179720491170883,-1.4551227390766144,-0.3407293623313308]},{"row":8,"column":4,"elements":[0.5938930856063962,-0.5326060056686401,-0.09716122411191464,0.21833568811416627,-0.31061052717268469,-0.15889177843928338,-0.15553969517350198,0.4780105692334473,-0.4365241628838703,0.4124511070549488,-0.5689199231564999,1.0724353082478047,-0.8035425553098321,-0.17053987085819245,0.005873786984011531,0.7849489934742451,-0.6299532800912857,-0.0067955878330394629,1.6762128844857216,-0.34497653832659128,-1.0118607319891453,-0.4628298580646515,0.479607836343348,0.7560448255389929,0.44612313993275168,0.05441853776574135,0.7933492794691119,-0.36224442534148695,-0.8149707373231649,-0.5594485476613045,-1.040256628766656,0.4862253051251173]}],"biases":[{"row":1,"column":8,"elements":[0.03649497218430042,0.67644475819543,-0.01131133921444416,-0.3219313882291317,0.11795411817729473,0.49521864764392378,-0.5625224523246288,-0.2674860078841448]},{"row":1,"column":4,"elements":[0.4872352918609977,1.2070184256881476,-0.24745598435401917,-0.6519546583294869]}],"inputSize":20,"hiddenSize":8,"hiddenLayers":1,"outputSize":4}