{"weights":[{"row":20,"column":8,"elements":[-0.25254297044011766,-0.4255631733685732,0.5160462111234665,-0.6450405344367027,-0.27276068925857546,-0.7625321499072015,-0.008884148206561804,-1.0530866533517838,0.5746094454079866,-1.0996807955671102,0.6054379474371672,-0.9504158794879913,0.6701169870793819,0.6584005178883672,-0.5551950968801975,0.7707557994872332,-0.3885773364454508,-0.8710805419832468,0.3977988362312317,-0.3807486891746521,0.3372389506548643,0.16037731617689134,-0.70738435536623,0.5914220213890076,2.139558583206963,0.2388923168182373,-0.8449211120605469,-1.015112280845642,0.9858210328966379,-0.2123696729540825,-0.3368088398128748,0.27621714025735857,0.4762429241091013,0.18319757282733918,-0.4638092312961817,0.20090732909739018,-0.3366859757807106,0.9443846885114908,0.7911198362708092,0.37162063643336298,0.8780143186450005,0.3547818623483181,0.4585476377978921,0.2859257310628891,-0.5014739772304893,0.3066644947975874,-0.9819008996710181,-0.9772608077619225,-0.47255833074450495,0.006134741008281708,-1.9686684608459473,0.12531168991699816,-0.34372530406108128,-0.6783562754280865,0.7058951146900654,0.060778453946113589,-0.8987679949495941,0.3574930013201083,0.7261034790426493,-0.03674912732094526,0.42097585648298266,0.5343830771744251,0.42162667121738198,-0.25415948872978336,-0.7010578334447928,0.6968358792364597,-0.5720282513648272,-0.703429576009512,-0.7440984677523375,-0.3481132201850414,0.39938706159591677,0.6845184080302715,-0.7438520640134811,-0.871980182826519,1.0616410225629807,3.0877619050443174,0.00732082687318325,-0.5148220472037792,0.6603738004341722,0.1585405534133315,-0.07581943087279797,0.8876568406121805,0.19808698445558549,-0.12305208621546626,0.8277174532413483,1.961815357208252,0.3236259191762656,-0.12413467653095722,0.2215296975336969,-0.008814916014671326,0.5636213794350624,1.0225439108908177,0.6232056841254234,-0.3960989732295275,0.729490750702098,0.9197252653539181,-0.9593699062243104,-0.029233701527118684,-0.7575735040009022,-0.6552493805065751,-0.7927161799743772,0.9907223964110017,-0.13918295968323947,0.5092757754027844,0.9304986000061035,0.6954997885040939,-0.14672029251232744,0.2968181446194649,0.7560541555285454,-0.44145189598202708,0.352123137563467,0.8242045231163502,-0.48231307696551087,0.5845773033797741,0.9969496234552935,0.6120433977339417,0.7887422452913597,-1.4273192882537842,-0.29945599660277369,-0.13857434783130885,0.07565236836671829,-0.0873495233245194,0.4333380497992039,0.5862978440709412,-0.47504436410963538,1.0104147444944829,0.9484004881232977,-0.4135545436292887,0.6050936682149768,-0.039129340555518869,-0.2923647165298462,-0.13279882073402406,-0.6825155410915613,0.9866146147251129,0.022151235956698657,-0.8651190346463409,0.4497082093730569,-0.051693474873900416,-0.35395391657948496,-0.19498060690239073,-0.23444731533527375,0.1699801553040743,0.722020709887147,-0.4793038768693805,0.19839750975370408,-0.49024809151887896,-0.6279380396008492,-0.9638132471591234,-0.051250905729830268,-0.04688654560595751,0.8303083186037839,0.8709688074886799,-0.7336666584014893,-0.48963202722370627,0.46842342615127566,-0.46417343243956568,0.09436242654919625,-0.3350440375506878,0.04794519441202283,0.8471653368324041]},{"row":8,"column":4,"elements":[-2.2916206503286959,0.016759958118200303,-0.2020938298664987,0.20701352041214705,-0.6359992977231741,0.6865478474646807,0.953520642593503,-0.24621812999248506,0.24800816923379899,0.6138701839372516,0.5922258528880775,1.0474845133721829,-0.00653386814519763,0.18253095564432443,0.18870838219299913,-0.28558560460805895,-0.6390172066166997,0.17987226974219085,-0.41210372373461726,0.6125249601900578,0.34126593824476006,0.7048307973891497,0.510780499316752,0.6555062383413315,0.8776643238961697,0.43402563221752646,0.6691556568257511,-1.2534148450940848,-0.861964538693428,0.7166083492338657,-0.6080232672393322,0.8210595194250345]}],"biases":[{"row":1,"column":8,"elements":[0.4967577727511525,-0.4142602439969778,0.9453806150704622,-0.4599100397899747,-0.41065513901412489,0.4309755265712738,0.05832469277083874,0.5551123768091202]},{"row":1,"column":4,"elements":[-0.2759896870702505,0.8711027912795544,-0.5453678332269192,0.3743743300437927]}],"inputSize":20,"hiddenSize":8,"hiddenLayers":1,"outputSize":4}